<?xml version="1.0"?>
<opencv_storage>
<cascade>
  <stageType>BOOST</stageType>
  <featureType>HAAR</featureType>
  <height>30</height>
  <width>20</width>
  <stageParams>
    <boostType>GAB</boostType>
    <minHitRate>9.9500000476837158e-01</minHitRate>
    <maxFalseAlarm>5.0000000000000000e-01</maxFalseAlarm>
    <weightTrimRate>9.4999999999999996e-01</weightTrimRate>
    <maxDepth>1</maxDepth>
    <maxWeakCount>100</maxWeakCount></stageParams>
  <featureParams>
    <maxCatCount>0</maxCatCount>
    <featSize>1</featSize>
    <mode>ALL</mode></featureParams>
  <stageNum>16</stageNum>
  <stages>
    <!-- stage 0 -->
    <_>
      <maxWeakCount>2</maxWeakCount>
      <stageThreshold>-1.6804490983486176e-01</stageThreshold>
      <weakClassifiers>
        <_>
          <internalNodes>
            0 -1 22 5.3785737603902817e-02</internalNodes>
          <leafValues>
            -9.5847749710083008e-01 8.7755101919174194e-01</leafValues></_>
        <_>
          <internalNodes>
            0 -1 26 -4.9290213733911514e-02</internalNodes>
          <leafValues>
            7.9043257236480713e-01 -9.3553209304809570e-01</leafValues></_></weakClassifiers></_>
    <!-- stage 1 -->
    <_>
      <maxWeakCount>3</maxWeakCount>
      <stageThreshold>-1.0776957273483276e+00</stageThreshold>
      <weakClassifiers>
        <_>
          <internalNodes>
            0 -1 1 -2.2917763888835907e-01</internalNodes>
          <leafValues>
            7.5722545385360718e-01 -9.0419161319732666e-01</leafValues></_>
        <_>
          <internalNodes>
            0 -1 4 -2.6749778538942337e-02</internalNodes>
          <leafValues>
            7.5239348411560059e-01 -6.6135483980178833e-01</leafValues></_>
        <_>
          <internalNodes>
            0 -1 10 4.3895142880501226e-05</internalNodes>
          <leafValues>
            -9.2906433343887329e-01 4.8785066604614258e-01</leafValues></_></weakClassifiers></_>
    <!-- stage 2 -->
    <_>
      <maxWeakCount>2</maxWeakCount>
      <stageThreshold>-3.5087171196937561e-01</stageThreshold>
      <weakClassifiers>
        <_>
          <internalNodes>
            0 -1 20 -1.2671021744608879e-02</internalNodes>
          <leafValues>
            7.1702635288238525e-01 -8.0600464344024658e-01</leafValues></_>
        <_>
          <internalNodes>
            0 -1 43 -5.8914080727845430e-04</internalNodes>
          <leafValues>
            4.5513290166854858e-01 -9.8266863822937012e-01</leafValues></_></weakClassifiers></_>
    <!-- stage 3 -->
    <_>
      <maxWeakCount>3</maxWeakCount>
      <stageThreshold>-1.1472156047821045e+00</stageThreshold>
      <weakClassifiers>
        <_>
          <internalNodes>
            0 -1 3 -2.4056328460574150e-02</internalNodes>
          <leafValues>
            7.2672307491302490e-01 -8.0297821760177612e-01</leafValues></_>
        <_>
          <internalNodes>
            0 -1 8 -1.3030096888542175e-02</internalNodes>
          <leafValues>
            5.5216354131698608e-01 -8.0315208435058594e-01</leafValues></_>
        <_>
          <internalNodes>
            0 -1 19 -9.3960687518119812e-02</internalNodes>
          <leafValues>
            4.5891475677490234e-01 -9.2760586738586426e-01</leafValues></_></weakClassifiers></_>
    <!-- stage 4 -->
    <_>
      <maxWeakCount>4</maxWeakCount>
      <stageThreshold>-7.6612043380737305e-01</stageThreshold>
      <weakClassifiers>
        <_>
          <internalNodes>
            0 -1 7 -3.0394371598958969e-02</internalNodes>
          <leafValues>
            6.0718059539794922e-01 -8.9641433954238892e-01</leafValues></_>
        <_>
          <internalNodes>
            0 -1 35 -5.6472327560186386e-03</internalNodes>
          <leafValues>
            6.8699473142623901e-01 -6.8130433559417725e-01</leafValues></_>
        <_>
          <internalNodes>
            0 -1 33 -4.4514308683574200e-05</internalNodes>
          <leafValues>
            4.5606648921966553e-01 -9.0336245298385620e-01</leafValues></_>
        <_>
          <internalNodes>
            0 -1 11 1.3193706399761140e-04</internalNodes>
          <leafValues>
            -9.5188182592391968e-01 3.5553178191184998e-01</leafValues></_></weakClassifiers></_>
    <!-- stage 5 -->
    <_>
      <maxWeakCount>4</maxWeakCount>
      <stageThreshold>-6.5728247165679932e-01</stageThreshold>
      <weakClassifiers>
        <_>
          <internalNodes>
            0 -1 36 1.6439352184534073e-02</internalNodes>
          <leafValues>
            -7.6514214277267456e-01 5.8249157667160034e-01</leafValues></_>
        <_>
          <internalNodes>
            0 -1 15 3.7981240893714130e-05</internalNodes>
          <leafValues>
            -9.3207317590713501e-01 3.8457357883453369e-01</leafValues></_>
        <_>
          <internalNodes>
            0 -1 2 -3.7981070578098297e-02</internalNodes>
          <leafValues>
            6.9303697347640991e-01 -5.7407683134078979e-01</leafValues></_>
        <_>
          <internalNodes>
            0 -1 28 4.9356324598193169e-04</internalNodes>
          <leafValues>
            -9.6975082159042358e-01 4.0901258587837219e-01</leafValues></_></weakClassifiers></_>
    <!-- stage 6 -->
    <_>
      <maxWeakCount>2</maxWeakCount>
      <stageThreshold>-1.3043956458568573e-01</stageThreshold>
      <weakClassifiers>
        <_>
          <internalNodes>
            0 -1 16 1.0294783860445023e-02</internalNodes>
          <leafValues>
            -4.8748922348022461e-01 8.5951942205429077e-01</leafValues></_>
        <_>
          <internalNodes>
            0 -1 0 1.6553474124521017e-03</internalNodes>
          <leafValues>
            4.2036995291709900e-01 -9.8995894193649292e-01</leafValues></_></weakClassifiers></_>
    <!-- stage 7 -->
    <_>
      <maxWeakCount>4</maxWeakCount>
      <stageThreshold>-8.6180967092514038e-01</stageThreshold>
      <weakClassifiers>
        <_>
          <internalNodes>
            0 -1 30 -6.1059244908392429e-03</internalNodes>
          <leafValues>
            6.4721143245697021e-01 -6.4477932453155518e-01</leafValues></_>
        <_>
          <internalNodes>
            0 -1 14 -4.1922587115550414e-05</internalNodes>
          <leafValues>
            4.7097587585449219e-01 -8.7445676326751709e-01</leafValues></_>
        <_>
          <internalNodes>
            0 -1 46 -1.9485683878883719e-05</internalNodes>
          <leafValues>
            2.9831099510192871e-01 -9.8750162124633789e-01</leafValues></_>
        <_>
          <internalNodes>
            0 -1 47 -2.8258157544769347e-04</internalNodes>
          <leafValues>
            -9.7614806890487671e-01 3.5911542177200317e-01</leafValues></_></weakClassifiers></_>
    <!-- stage 8 -->
    <_>
      <maxWeakCount>3</maxWeakCount>
      <stageThreshold>-1.9317749142646790e-01</stageThreshold>
      <weakClassifiers>
        <_>
          <internalNodes>
            0 -1 9 -2.3933257907629013e-02</internalNodes>
          <leafValues>
            4.6326529979705811e-01 -7.6944446563720703e-01</leafValues></_>
        <_>
          <internalNodes>
            0 -1 39 -3.6710109270643443e-05</internalNodes>
          <leafValues>
            3.2942336797714233e-01 -9.4252759218215942e-01</leafValues></_>
        <_>
          <internalNodes>
            0 -1 40 -1.2076928978785872e-03</internalNodes>
          <leafValues>
            -1. 2.8608480095863342e-01</leafValues></_></weakClassifiers></_>
    <!-- stage 9 -->
    <_>
      <maxWeakCount>2</maxWeakCount>
      <stageThreshold>-4.2721980810165405e-01</stageThreshold>
      <weakClassifiers>
        <_>
          <internalNodes>
            0 -1 40 -8.8823770056478679e-05</internalNodes>
          <leafValues>
            4.8113209009170532e-01 -9.5312500000000000e-01</leafValues></_>
        <_>
          <internalNodes>
            0 -1 37 -8.3738397806882858e-03</internalNodes>
          <leafValues>
            5.2590519189834595e-01 -7.6084226369857788e-01</leafValues></_></weakClassifiers></_>
    <!-- stage 10 -->
    <_>
      <maxWeakCount>2</maxWeakCount>
      <stageThreshold>-2.5136619806289673e-01</stageThreshold>
      <weakClassifiers>
        <_>
          <internalNodes>
            0 -1 34 1.1557260528206825e-02</internalNodes>
          <leafValues>
            -5.5381602048873901e-01 6.8731564283370972e-01</leafValues></_>
        <_>
          <internalNodes>
            0 -1 48 -4.6651280717924237e-04</internalNodes>
          <leafValues>
            -9.3868184089660645e-01 4.0197947621345520e-01</leafValues></_></weakClassifiers></_>
    <!-- stage 11 -->
    <_>
      <maxWeakCount>4</maxWeakCount>
      <stageThreshold>-5.2424818277359009e-01</stageThreshold>
      <weakClassifiers>
        <_>
          <internalNodes>
            0 -1 45 -3.9832182665122673e-05</internalNodes>
          <leafValues>
            3.5461604595184326e-01 -9.4454711675643921e-01</leafValues></_>
        <_>
          <internalNodes>
            0 -1 21 -1.8446836620569229e-02</internalNodes>
          <leafValues>
            9.6282339096069336e-01 -4.4475874304771423e-01</leafValues></_>
        <_>
          <internalNodes>
            0 -1 17 -3.3320143120363355e-04</internalNodes>
          <leafValues>
            4.5939296483993530e-01 -8.3338725566864014e-01</leafValues></_>
        <_>
          <internalNodes>
            0 -1 13 -9.8747084848582745e-04</internalNodes>
          <leafValues>
            4.0566471219062805e-01 -8.5095614194869995e-01</leafValues></_></weakClassifiers></_>
    <!-- stage 12 -->
    <_>
      <maxWeakCount>3</maxWeakCount>
      <stageThreshold>-1.0177731513977051e+00</stageThreshold>
      <weakClassifiers>
        <_>
          <internalNodes>
            0 -1 23 -2.9530866071581841e-02</internalNodes>
          <leafValues>
            5.4698795080184937e-01 -6.3678163290023804e-01</leafValues></_>
        <_>
          <internalNodes>
            0 -1 38 -4.0442893805447966e-05</internalNodes>
          <leafValues>
            4.1616532206535339e-01 -8.1688374280929565e-01</leafValues></_>
        <_>
          <internalNodes>
            0 -1 12 -3.8424976170063019e-02</internalNodes>
          <leafValues>
            3.9480215311050415e-01 -7.9715687036514282e-01</leafValues></_></weakClassifiers></_>
    <!-- stage 13 -->
    <_>
      <maxWeakCount>5</maxWeakCount>
      <stageThreshold>-1.1012403964996338e+00</stageThreshold>
      <weakClassifiers>
        <_>
          <internalNodes>
            0 -1 25 4.1186279850080609e-04</internalNodes>
          <leafValues>
            -8.3825814723968506e-01 4.1532638669013977e-01</leafValues></_>
        <_>
          <internalNodes>
            0 -1 29 3.0769419390708208e-03</internalNodes>
          <leafValues>
            -4.8088875412940979e-01 8.3942198753356934e-01</leafValues></_>
        <_>
          <internalNodes>
            0 -1 44 -7.2581053245812654e-04</internalNodes>
          <leafValues>
            -1. 3.8162529468536377e-01</leafValues></_>
        <_>
          <internalNodes>
            0 -1 31 -2.9823007062077522e-03</internalNodes>
          <leafValues>
            5.6003630161285400e-01 -6.5000981092453003e-01</leafValues></_>
        <_>
          <internalNodes>
            0 -1 32 -1.9087294276687317e-05</internalNodes>
          <leafValues>
            4.8629111051559448e-01 -6.4788866043090820e-01</leafValues></_></weakClassifiers></_>
    <!-- stage 14 -->
    <_>
      <maxWeakCount>3</maxWeakCount>
      <stageThreshold>-1.2868381738662720e+00</stageThreshold>
      <weakClassifiers>
        <_>
          <internalNodes>
            0 -1 24 3.5435304744169116e-04</internalNodes>
          <leafValues>
            -8.4170472621917725e-01 4.3432405591011047e-01</leafValues></_>
        <_>
          <internalNodes>
            0 -1 18 -5.0845425575971603e-03</internalNodes>
          <leafValues>
            -9.4931107759475708e-01 3.7805858254432678e-01</leafValues></_>
        <_>
          <internalNodes>
            0 -1 41 3.9041398849803954e-05</internalNodes>
          <leafValues>
            -8.2319205999374390e-01 4.6838796138763428e-01</leafValues></_></weakClassifiers></_>
    <!-- stage 15 -->
    <_>
      <maxWeakCount>4</maxWeakCount>
      <stageThreshold>-3.5511103272438049e-01</stageThreshold>
      <weakClassifiers>
        <_>
          <internalNodes>
            0 -1 27 -1.0324779577786103e-04</internalNodes>
          <leafValues>
            4.4894027709960938e-01 -8.5498487949371338e-01</leafValues></_>
        <_>
          <internalNodes>
            0 -1 6 -4.6757444739341736e-02</internalNodes>
          <leafValues>
            7.4815136194229126e-01 -6.7716950178146362e-01</leafValues></_>
        <_>
          <internalNodes>
            0 -1 42 4.9118924653157592e-04</internalNodes>
          <leafValues>
            4.4861736893653870e-01 -8.7148588895797729e-01</leafValues></_>
        <_>
          <internalNodes>
            0 -1 5 -1.7570907948538661e-03</internalNodes>
          <leafValues>
            7.9957228899002075e-01 -5.7549917697906494e-01</leafValues></_></weakClassifiers></_></stages>
  <features>
    <_>
      <rects>
        <_>
          0 0 11 4 -1.</_>
        <_>
          0 2 11 2 2.</_></rects>
      <tilted>0</tilted></_>
    <_>
      <rects>
        <_>
          0 3 18 23 -1.</_>
        <_>
          6 3 6 23 3.</_></rects>
      <tilted>0</tilted></_>
    <_>
      <rects>
        <_>
          0 13 6 17 -1.</_>
        <_>
          2 13 2 17 3.</_></rects>
      <tilted>0</tilted></_>
    <_>
      <rects>
        <_>
          0 14 4 16 -1.</_>
        <_>
          2 14 2 16 2.</_></rects>
      <tilted>0</tilted></_>
    <_>
      <rects>
        <_>
          0 14 6 16 -1.</_>
        <_>
          2 14 2 16 3.</_></rects>
      <tilted>0</tilted></_>
    <_>
      <rects>
        <_>
          1 3 3 6 -1.</_>
        <_>
          2 3 1 6 3.</_></rects>
      <tilted>0</tilted></_>
    <_>
      <rects>
        <_>
          1 3 3 16 -1.</_>
        <_>
          1 11 3 8 2.</_></rects>
      <tilted>0</tilted></_>
    <_>
      <rects>
        <_>
          1 4 3 16 -1.</_>
        <_>
          1 12 3 8 2.</_></rects>
      <tilted>0</tilted></_>
    <_>
      <rects>
        <_>
          1 11 8 12 -1.</_>
        <_>
          1 14 8 6 2.</_></rects>
      <tilted>0</tilted></_>
    <_>
      <rects>
        <_>
          1 11 11 12 -1.</_>
        <_>
          1 15 11 4 3.</_></rects>
      <tilted>0</tilted></_>
    <_>
      <rects>
        <_>
          2 1 1 2 -1.</_>
        <_>
          2 2 1 1 2.</_></rects>
      <tilted>0</tilted></_>
    <_>
      <rects>
        <_>
          2 2 3 2 -1.</_>
        <_>
          3 2 1 2 3.</_></rects>
      <tilted>0</tilted></_>
    <_>
      <rects>
        <_>
          2 10 18 1 -1.</_>
        <_>
          8 16 6 1 3.</_></rects>
      <tilted>1</tilted></_>
    <_>
      <rects>
        <_>
          2 24 3 2 -1.</_>
        <_>
          2 24 3 1 2.</_></rects>
      <tilted>1</tilted></_>
    <_>
      <rects>
        <_>
          3 0 2 1 -1.</_>
        <_>
          3 0 1 1 2.</_></rects>
      <tilted>1</tilted></_>
    <_>
      <rects>
        <_>
          3 1 1 2 -1.</_>
        <_>
          3 2 1 1 2.</_></rects>
      <tilted>0</tilted></_>
    <_>
      <rects>
        <_>
          3 9 4 9 -1.</_>
        <_>
          4 9 2 9 2.</_></rects>
      <tilted>0</tilted></_>
    <_>
      <rects>
        <_>
          3 24 1 6 -1.</_>
        <_>
          3 27 1 3 2.</_></rects>
      <tilted>0</tilted></_>
    <_>
      <rects>
        <_>
          4 0 16 1 -1.</_>
        <_>
          12 0 8 1 2.</_></rects>
      <tilted>0</tilted></_>
    <_>
      <rects>
        <_>
          4 7 12 21 -1.</_>
        <_>
          8 7 4 21 3.</_></rects>
      <tilted>0</tilted></_>
    <_>
      <rects>
        <_>
          5 0 4 8 -1.</_>
        <_>
          5 4 4 4 2.</_></rects>
      <tilted>0</tilted></_>
    <_>
      <rects>
        <_>
          5 4 4 10 -1.</_>
        <_>
          6 4 2 10 2.</_></rects>
      <tilted>0</tilted></_>
    <_>
      <rects>
        <_>
          6 23 14 6 -1.</_>
        <_>
          13 23 7 6 2.</_></rects>
      <tilted>0</tilted></_>
    <_>
      <rects>
        <_>
          7 0 13 6 -1.</_>
        <_>
          7 3 13 3 2.</_></rects>
      <tilted>0</tilted></_>
    <_>
      <rects>
        <_>
          7 18 3 9 -1.</_>
        <_>
          7 21 3 3 3.</_></rects>
      <tilted>0</tilted></_>
    <_>
      <rects>
        <_>
          7 28 10 2 -1.</_>
        <_>
          7 29 10 1 2.</_></rects>
      <tilted>0</tilted></_>
    <_>
      <rects>
        <_>
          8 0 3 30 -1.</_>
        <_>
          8 15 3 15 2.</_></rects>
      <tilted>0</tilted></_>
    <_>
      <rects>
        <_>
          8 23 1 4 -1.</_>
        <_>
          8 25 1 2 2.</_></rects>
      <tilted>0</tilted></_>
    <_>
      <rects>
        <_>
          11 0 9 1 -1.</_>
        <_>
          14 0 3 1 3.</_></rects>
      <tilted>0</tilted></_>
    <_>
      <rects>
        <_>
          11 5 3 3 -1.</_>
        <_>
          12 5 1 3 3.</_></rects>
      <tilted>0</tilted></_>
    <_>
      <rects>
        <_>
          13 10 4 8 -1.</_>
        <_>
          13 10 2 4 2.</_>
        <_>
          15 14 2 4 2.</_></rects>
      <tilted>0</tilted></_>
    <_>
      <rects>
        <_>
          13 12 4 6 -1.</_>
        <_>
          13 12 2 3 2.</_>
        <_>
          15 15 2 3 2.</_></rects>
      <tilted>0</tilted></_>
    <_>
      <rects>
        <_>
          13 28 3 1 -1.</_>
        <_>
          14 28 1 1 3.</_></rects>
      <tilted>0</tilted></_>
    <_>
      <rects>
        <_>
          14 0 2 1 -1.</_>
        <_>
          15 0 1 1 2.</_></rects>
      <tilted>0</tilted></_>
    <_>
      <rects>
        <_>
          14 14 4 12 -1.</_>
        <_>
          14 14 2 6 2.</_>
        <_>
          16 20 2 6 2.</_></rects>
      <tilted>0</tilted></_>
    <_>
      <rects>
        <_>
          14 15 6 1 -1.</_>
        <_>
          16 17 2 1 3.</_></rects>
      <tilted>1</tilted></_>
    <_>
      <rects>
        <_>
          16 0 4 6 -1.</_>
        <_>
          16 0 4 3 2.</_></rects>
      <tilted>1</tilted></_>
    <_>
      <rects>
        <_>
          16 14 4 16 -1.</_>
        <_>
          16 14 2 8 2.</_>
        <_>
          18 22 2 8 2.</_></rects>
      <tilted>0</tilted></_>
    <_>
      <rects>
        <_>
          16 26 2 1 -1.</_>
        <_>
          17 26 1 1 2.</_></rects>
      <tilted>0</tilted></_>
    <_>
      <rects>
        <_>
          16 28 2 2 -1.</_>
        <_>
          17 28 1 2 2.</_></rects>
      <tilted>0</tilted></_>
    <_>
      <rects>
        <_>
          16 28 4 2 -1.</_>
        <_>
          18 28 2 2 2.</_></rects>
      <tilted>0</tilted></_>
    <_>
      <rects>
        <_>
          17 4 1 3 -1.</_>
        <_>
          17 5 1 1 3.</_></rects>
      <tilted>0</tilted></_>
    <_>
      <rects>
        <_>
          18 21 2 6 -1.</_>
        <_>
          18 23 2 2 3.</_></rects>
      <tilted>0</tilted></_>
    <_>
      <rects>
        <_>
          18 22 2 7 -1.</_>
        <_>
          19 22 1 7 2.</_></rects>
      <tilted>0</tilted></_>
    <_>
      <rects>
        <_>
          18 22 2 8 -1.</_>
        <_>
          18 24 2 4 2.</_></rects>
      <tilted>0</tilted></_>
    <_>
      <rects>
        <_>
          18 28 2 1 -1.</_>
        <_>
          19 28 1 1 2.</_></rects>
      <tilted>0</tilted></_>
    <_>
      <rects>
        <_>
          19 0 1 2 -1.</_>
        <_>
          19 0 1 1 2.</_></rects>
      <tilted>1</tilted></_>
    <_>
      <rects>
        <_>
          19 1 1 2 -1.</_>
        <_>
          19 1 1 1 2.</_></rects>
      <tilted>1</tilted></_>
    <_>
      <rects>
        <_>
          19 1 1 8 -1.</_>
        <_>
          19 5 1 4 2.</_></rects>
      <tilted>0</tilted></_></features></cascade>
</opencv_storage>
