<NeuralNetwork>
    <Layer type="input" transferFunction="0" size="7"/>
    <Layer type="hidden" transferFunction="4">
        <Neuron>
            <Bias>0.12378956019315077</Bias>
            <Weights>
                <Weight>0.15942918905314371</Weight>
                <Weight>-1.1492596093829011</Weight>
                <Weight>-2.123982388524881</Weight>
                <Weight>1.1973605766675688</Weight>
                <Weight>0.26211543532174941</Weight>
                <Weight>-0.029518049592792486</Weight>
                <Weight>0.61498993905480925</Weight>
            </Weights>
        </Neuron>
        <Neuron>
            <Bias>2.4644727235975936</Bias>
            <Weights>
                <Weight>0.11923967176971279</Weight>
                <Weight>0.12584581114113377</Weight>
                <Weight>0.64830973712752415</Weight>
                <Weight>0.37707503357492111</Weight>
                <Weight>1.1480418177796066</Weight>
                <Weight>0.80738977952203506</Weight>
                <Weight>-0.90917365523010885</Weight>
            </Weights>
        </Neuron>
        <Neuron>
            <Bias>0.7908839368596966</Bias>
            <Weights>
                <Weight>1.8162970466450892</Weight>
                <Weight>0.38535384903683412</Weight>
                <Weight>1.3600630650889503</Weight>
                <Weight>-0.8038107251769433</Weight>
                <Weight>-0.9548867357619637</Weight>
                <Weight>0.17556569570695604</Weight>
                <Weight>0.17275709603641157</Weight>
            </Weights>
        </Neuron>
        <Neuron>
            <Bias>-0.39658447232320715</Bias>
            <Weights>
                <Weight>-0.0058529015421366617</Weight>
                <Weight>-0.27930923431898691</Weight>
                <Weight>-0.63715645306209978</Weight>
                <Weight>0.45829919453842044</Weight>
                <Weight>1.589583262617333</Weight>
                <Weight>1.0920427577659166</Weight>
                <Weight>0.74823204882531213</Weight>
            </Weights>
        </Neuron>
        <Neuron>
            <Bias>0.1200417000286646</Bias>
            <Weights>
                <Weight>1.3952134204486921</Weight>
                <Weight>0.40601095516024094</Weight>
                <Weight>1.36383771782763</Weight>
                <Weight>-0.73064604308202108</Weight>
                <Weight>1.6231449240761007</Weight>
                <Weight>0.22232577836932133</Weight>
                <Weight>0.41617553662871332</Weight>
            </Weights>
        </Neuron>
        <Neuron>
            <Bias>-0.4845287275484586</Bias>
            <Weights>
                <Weight>-0.11843257939099622</Weight>
                <Weight>-0.65584451741912109</Weight>
                <Weight>-0.56837904942682871</Weight>
                <Weight>0.63844960351765812</Weight>
                <Weight>-0.75397646061986001</Weight>
                <Weight>1.0775871943916115</Weight>
                <Weight>0.83821305958854764</Weight>
            </Weights>
        </Neuron>
        <Neuron>
            <Bias>-1.4749992970341286</Bias>
            <Weights>
                <Weight>-1.2575882331507566</Weight>
                <Weight>0.22042670552345225</Weight>
                <Weight>0.12966968011122698</Weight>
                <Weight>0.62480992567279969</Weight>
                <Weight>-0.75174073814868458</Weight>
                <Weight>0.032087274578984901</Weight>
                <Weight>1.4802823495597071</Weight>
            </Weights>
        </Neuron>
        <Neuron>
            <Bias>-0.54863386274498727</Bias>
            <Weights>
                <Weight>0.10045311172477925</Weight>
                <Weight>0.18156553570972384</Weight>
                <Weight>-1.452918239083109</Weight>
                <Weight>0.21979467955199025</Weight>
                <Weight>2.6300851192959254</Weight>
                <Weight>0.02903596576932756</Weight>
                <Weight>0.52547216199093161</Weight>
            </Weights>
        </Neuron>
        <Neuron>
            <Bias>-0.64086305814736522</Bias>
            <Weights>
                <Weight>1.116458820699574</Weight>
                <Weight>1.2595858541334091</Weight>
                <Weight>0.27580502738783108</Weight>
                <Weight>-1.4464797774488922</Weight>
                <Weight>1.9080246161687671</Weight>
                <Weight>1.8383478607635173</Weight>
                <Weight>0.51233393939925653</Weight>
            </Weights>
        </Neuron>
        <Neuron>
            <Bias>0.43723096124749045</Bias>
            <Weights>
                <Weight>-0.19085725313330598</Weight>
                <Weight>1.4397863721554793</Weight>
                <Weight>0.021515730319866165</Weight>
                <Weight>0.092219299906082228</Weight>
                <Weight>-0.33039996715401493</Weight>
                <Weight>0.093070211940211256</Weight>
                <Weight>0.53415816598496335</Weight>
            </Weights>
        </Neuron>
        <Neuron>
            <Bias>0.1535343553170867</Bias>
            <Weights>
                <Weight>0.27582335219901416</Weight>
                <Weight>1.5094314378373859</Weight>
                <Weight>0.15831697665173089</Weight>
                <Weight>0.2178283623595593</Weight>
                <Weight>-0.60868658023315536</Weight>
                <Weight>0.51801801986812035</Weight>
                <Weight>0.47351379854238734</Weight>
            </Weights>
        </Neuron>
        <Neuron>
            <Bias>0.98530348995401429</Bias>
            <Weights>
                <Weight>-1.3079319568546897</Weight>
                <Weight>0.24059465253164955</Weight>
                <Weight>0.34130324171196819</Weight>
                <Weight>0.36678041251730364</Weight>
                <Weight>0.14702022382881988</Weight>
                <Weight>-2.0707523875159044</Weight>
                <Weight>-1.2241246779636403</Weight>
            </Weights>
        </Neuron>
        <Neuron>
            <Bias>0.72737555997172787</Bias>
            <Weights>
                <Weight>-0.24086176196724007</Weight>
                <Weight>-0.99048665979670802</Weight>
                <Weight>-1.828533908142892</Weight>
                <Weight>1.0165199813937358</Weight>
                <Weight>0.065293032369380971</Weight>
                <Weight>0.56774132186879223</Weight>
                <Weight>-0.9388600361882663</Weight>
            </Weights>
        </Neuron>
        <Neuron>
            <Bias>0.059586294741799134</Bias>
            <Weights>
                <Weight>-0.25961945912918905</Weight>
                <Weight>-1.8454543115826405</Weight>
                <Weight>0.64081142269436542</Weight>
                <Weight>0.83216108529199206</Weight>
                <Weight>0.98924353586341296</Weight>
                <Weight>-0.51350860359560224</Weight>
                <Weight>0.53940444271340637</Weight>
            </Weights>
        </Neuron>
        <Neuron>
            <Bias>-0.12480768322451435</Bias>
            <Weights>
                <Weight>0.11825049466424167</Weight>
                <Weight>-0.11672432169284847</Weight>
                <Weight>-1.4867206300167781</Weight>
                <Weight>1.2423522867815893</Weight>
                <Weight>-0.6157859685569772</Weight>
                <Weight>-0.44655963269615601</Weight>
                <Weight>1.4647309038099778</Weight>
            </Weights>
        </Neuron>
        <Neuron>
            <Bias>-1.788316034229017</Bias>
            <Weights>
                <Weight>1.5276837721093743</Weight>
                <Weight>0.54327526814860938</Weight>
                <Weight>-2.2935192832039131</Weight>
                <Weight>0.3908128003466218</Weight>
                <Weight>1.4751351971852851</Weight>
                <Weight>-0.87892460255720739</Weight>
                <Weight>-0.0050505012414201493</Weight>
            </Weights>
        </Neuron>
        <Neuron>
            <Bias>-0.16928626121923099</Bias>
            <Weights>
                <Weight>-0.47783969971971935</Weight>
                <Weight>1.3910886172366606</Weight>
                <Weight>-0.85734915133178069</Weight>
                <Weight>0.044419192422253784</Weight>
                <Weight>0.5920357210511874</Weight>
                <Weight>-0.25242275675124387</Weight>
                <Weight>0.87014609260754661</Weight>
            </Weights>
        </Neuron>
        <Neuron>
            <Bias>0.53908076763324952</Bias>
            <Weights>
                <Weight>0.029700942679073038</Weight>
                <Weight>0.55788681875360224</Weight>
                <Weight>1.3077595179471777</Weight>
                <Weight>-1.6293052802229577</Weight>
                <Weight>1.2297449700261767</Weight>
                <Weight>-0.89774571376896906</Weight>
                <Weight>0.17759469553742546</Weight>
            </Weights>
        </Neuron>
        <Neuron>
            <Bias>-0.99853104379076429</Bias>
            <Weights>
                <Weight>2.7273597000970082</Weight>
                <Weight>-1.897507979290521</Weight>
                <Weight>-1.7927344200863646</Weight>
                <Weight>0.88200649163290934</Weight>
                <Weight>1.0665109958106584</Weight>
                <Weight>0.19424947161586656</Weight>
                <Weight>0.85184009399418925</Weight>
            </Weights>
        </Neuron>
        <Neuron>
            <Bias>1.105908952243372</Bias>
            <Weights>
                <Weight>-0.55964320138391954</Weight>
                <Weight>1.4967188064665939</Weight>
                <Weight>0.16880081784528336</Weight>
                <Weight>0.59741939763290253</Weight>
                <Weight>0.39622456504358966</Weight>
                <Weight>0.95819323238097698</Weight>
                <Weight>-0.15611590490437777</Weight>
            </Weights>
        </Neuron>
        <Neuron>
            <Bias>-0.13187458975602162</Bias>
            <Weights>
                <Weight>-0.59356983773302885</Weight>
                <Weight>0.058738354238589141</Weight>
                <Weight>-0.42228257067341429</Weight>
                <Weight>0.71262712141815043</Weight>
                <Weight>-0.079468718762774074</Weight>
                <Weight>-0.088205629426352336</Weight>
                <Weight>-0.34626979915940598</Weight>
            </Weights>
        </Neuron>
        <Neuron>
            <Bias>0.50496679655495746</Bias>
            <Weights>
                <Weight>-1.2810797615115208</Weight>
                <Weight>1.4858538255477092</Weight>
                <Weight>-1.1194443255791264</Weight>
                <Weight>-1.4450529185657413</Weight>
                <Weight>0.93210826213687947</Weight>
                <Weight>-0.4909267699169072</Weight>
                <Weight>-0.23985914237386635</Weight>
            </Weights>
        </Neuron>
        <Neuron>
            <Bias>0.458003024914035</Bias>
            <Weights>
                <Weight>0.95425305847048492</Weight>
                <Weight>0.64701251402023774</Weight>
                <Weight>-0.72815517437682964</Weight>
                <Weight>1.1382841036909135</Weight>
                <Weight>-2.5493509479225733</Weight>
                <Weight>1.4905889825572798</Weight>
                <Weight>-0.66075842656351691</Weight>
            </Weights>
        </Neuron>
        <Neuron>
            <Bias>-2.9717055229506202</Bias>
            <Weights>
                <Weight>0.043407560421823616</Weight>
                <Weight>2.1993179644624905</Weight>
                <Weight>-1.8494230015032316</Weight>
                <Weight>0.66205424291313708</Weight>
                <Weight>-1.1690937145496263</Weight>
                <Weight>0.90471126894689269</Weight>
                <Weight>-0.21615976445693885</Weight>
            </Weights>
        </Neuron>
        <Neuron>
            <Bias>0.51964264310275887</Bias>
            <Weights>
                <Weight>0.41596400934597327</Weight>
                <Weight>-0.35967241406680378</Weight>
                <Weight>1.6034793105535405</Weight>
                <Weight>0.45125361691723193</Weight>
                <Weight>-1.1390004658651163</Weight>
                <Weight>1.2304879573709768</Weight>
                <Weight>-1.456376387629825</Weight>
            </Weights>
        </Neuron>
        <Neuron>
            <Bias>-0.14287415558231389</Bias>
            <Weights>
                <Weight>1.3151094323987744</Weight>
                <Weight>0.34731620246009198</Weight>
                <Weight>-0.30941580796144919</Weight>
                <Weight>-0.071504580927253258</Weight>
                <Weight>0.46063725298332325</Weight>
                <Weight>-0.5531689233020215</Weight>
                <Weight>-1.0942578211282661</Weight>
            </Weights>
        </Neuron>
        <Neuron>
            <Bias>1.0724050749607543</Bias>
            <Weights>
                <Weight>0.10934074311149118</Weight>
                <Weight>0.58107839037486264</Weight>
                <Weight>-0.87367440867355617</Weight>
                <Weight>0.17766835737751138</Weight>
                <Weight>0.3424531380849532</Weight>
                <Weight>0.4256739398637599</Weight>
                <Weight>1.5318537174935989</Weight>
            </Weights>
        </Neuron>
        <Neuron>
            <Bias>-0.34153425130064913</Bias>
            <Weights>
                <Weight>0.18532292812199244</Weight>
                <Weight>-0.98782266154511322</Weight>
                <Weight>0.308346709413716</Weight>
                <Weight>-0.64459443653733128</Weight>
                <Weight>-2.4464782663040072</Weight>
                <Weight>-1.5037245770166707</Weight>
                <Weight>-0.27579164139792323</Weight>
            </Weights>
        </Neuron>
        <Neuron>
            <Bias>1.9337556285044879</Bias>
            <Weights>
                <Weight>1.8449688304915628</Weight>
                <Weight>-1.8624977305446628</Weight>
                <Weight>0.96299137901589871</Weight>
                <Weight>0.31328734417259907</Weight>
                <Weight>0.092257061538991644</Weight>
                <Weight>0.33504150037546976</Weight>
                <Weight>-0.28253763843753266</Weight>
            </Weights>
        </Neuron>
        <Neuron>
            <Bias>1.0528987491511272</Bias>
            <Weights>
                <Weight>-0.11448063772051958</Weight>
                <Weight>-1.2996369631308733</Weight>
                <Weight>-0.64516605628977997</Weight>
                <Weight>-0.47755399613278932</Weight>
                <Weight>-0.7554483283454585</Weight>
                <Weight>-0.93014692307664326</Weight>
                <Weight>1.2069442185174717</Weight>
            </Weights>
        </Neuron>
        <Neuron>
            <Bias>0.54423655230011458</Bias>
            <Weights>
                <Weight>1.2634434016777971</Weight>
                <Weight>1.952952769271012</Weight>
                <Weight>-0.79515216450410564</Weight>
                <Weight>-1.2650881498702273</Weight>
                <Weight>-1.6740052351666099</Weight>
                <Weight>-0.63721180523065035</Weight>
                <Weight>-0.20500593042182169</Weight>
            </Weights>
        </Neuron>
        <Neuron>
            <Bias>1.2977292619441898</Bias>
            <Weights>
                <Weight>0.39247951313514384</Weight>
                <Weight>0.74376064667819408</Weight>
                <Weight>-0.21510541915614265</Weight>
                <Weight>0.19095206150620719</Weight>
                <Weight>0.34976466651748467</Weight>
                <Weight>0.12401435660297626</Weight>
                <Weight>0.53897877498885161</Weight>
            </Weights>
        </Neuron>
        <Neuron>
            <Bias>0.38337719792365965</Bias>
            <Weights>
                <Weight>-0.65103089051541574</Weight>
                <Weight>-0.77165744657653212</Weight>
                <Weight>0.79869605502560104</Weight>
                <Weight>-0.1167583008499269</Weight>
                <Weight>0.44945302619397859</Weight>
                <Weight>-0.21620767700848431</Weight>
                <Weight>1.3724144944833714</Weight>
            </Weights>
        </Neuron>
        <Neuron>
            <Bias>-0.34029998019604718</Bias>
            <Weights>
                <Weight>-0.27403705401300749</Weight>
                <Weight>0.2527897450609401</Weight>
                <Weight>0.13229998457961348</Weight>
                <Weight>-1.2987780680246892</Weight>
                <Weight>0.85916930990315421</Weight>
                <Weight>0.39372776384186386</Weight>
                <Weight>-0.62639806966618095</Weight>
            </Weights>
        </Neuron>
        <Neuron>
            <Bias>-0.95079701842288544</Bias>
            <Weights>
                <Weight>0.77801466336457348</Weight>
                <Weight>-0.14451059042941533</Weight>
                <Weight>1.5824382037431206</Weight>
                <Weight>0.026685223301297096</Weight>
                <Weight>-1.3419181362108008</Weight>
                <Weight>-0.0092669649378886252</Weight>
                <Weight>-0.32476518304423202</Weight>
            </Weights>
        </Neuron>
        <Neuron>
            <Bias>0.66829374973973876</Bias>
            <Weights>
                <Weight>-1.4490739286121801</Weight>
                <Weight>-0.3771088805075935</Weight>
                <Weight>-0.58470497037904201</Weight>
                <Weight>-1.2285086000275409</Weight>
                <Weight>0.37710361276129767</Weight>
                <Weight>-0.76995240558011768</Weight>
                <Weight>-1.5091970991170578</Weight>
            </Weights>
        </Neuron>
    </Layer>
    <Layer type="output" transferFunction="1">
        <Neuron>
            <Bias>0.49439469266846992</Bias>
            <Weights>
                <Weight>1.2027543842353658</Weight>
                <Weight>0.25469090915897913</Weight>
                <Weight>0.020467015126231704</Weight>
                <Weight>-0.43759837965978271</Weight>
                <Weight>1.4756505464009173</Weight>
                <Weight>0.038429570942166473</Weight>
                <Weight>-1.0309691632125344</Weight>
                <Weight>1.3029895285629201</Weight>
                <Weight>0.15834487876996484</Weight>
                <Weight>-1.6281512031713725</Weight>
                <Weight>-0.50432496109989355</Weight>
                <Weight>-2.3214960845660366</Weight>
                <Weight>-0.15642908799434446</Weight>
                <Weight>0.037912286099856911</Weight>
                <Weight>-0.53973347674602812</Weight>
                <Weight>-2.0742658096510405</Weight>
                <Weight>0.33171034731669624</Weight>
                <Weight>-3.5457868481938264</Weight>
                <Weight>1.3387764282556351</Weight>
                <Weight>1.7688962249740152</Weight>
                <Weight>0.42830410152494641</Weight>
                <Weight>1.3850646710236982</Weight>
                <Weight>-1.7957907639939148</Weight>
                <Weight>-0.94793238770100785</Weight>
                <Weight>1.0289104800395201</Weight>
                <Weight>-1.8382386081434992</Weight>
                <Weight>0.28542584554221184</Weight>
                <Weight>0.30708410312342516</Weight>
                <Weight>0.25614770112692442</Weight>
                <Weight>-0.6308792993818767</Weight>
                <Weight>-0.39859266268816201</Weight>
                <Weight>-0.022079966881634046</Weight>
                <Weight>-0.014188666744792685</Weight>
                <Weight>-1.77187409241591</Weight>
                <Weight>0.44992744120211964</Weight>
                <Weight>0.97334018994905158</Weight>
            </Weights>
        </Neuron>
        <Neuron>
            <Bias>-0.83058667647350692</Bias>
            <Weights>
                <Weight>0.74735134073469145</Weight>
                <Weight>0.84634082481727047</Weight>
                <Weight>-1.1602834315235184</Weight>
                <Weight>-1.9538144149930567</Weight>
                <Weight>-0.0023625337747133568</Weight>
                <Weight>0.17381599885228546</Weight>
                <Weight>-1.443030662510677</Weight>
                <Weight>0.2664965477089748</Weight>
                <Weight>1.8341491333896682</Weight>
                <Weight>0.99902893546583138</Weight>
                <Weight>-2.2920119941620349</Weight>
                <Weight>0.84163160970859474</Weight>
                <Weight>0.39024319418583026</Weight>
                <Weight>-0.80588351935292746</Weight>
                <Weight>-0.8608741627252261</Weight>
                <Weight>-1.0678161885343842</Weight>
                <Weight>0.66351705442234621</Weight>
                <Weight>-0.03300248445318843</Weight>
                <Weight>0.02167657029671323</Weight>
                <Weight>0.10768779916420425</Weight>
                <Weight>-0.8517951159385605</Weight>
                <Weight>-0.93714854635343214</Weight>
                <Weight>1.835634641927516</Weight>
                <Weight>1.4491465985854286</Weight>
                <Weight>-0.87381312654149013</Weight>
                <Weight>1.4625399404112112</Weight>
                <Weight>0.15434618188355487</Weight>
                <Weight>1.3423540189592349</Weight>
                <Weight>0.63622490584325031</Weight>
                <Weight>0.16806885322083501</Weight>
                <Weight>1.2087824360445096</Weight>
                <Weight>0.61964650141111044</Weight>
                <Weight>-0.7198969763638382</Weight>
                <Weight>-0.14663845796130967</Weight>
                <Weight>0.32123653486642856</Weight>
                <Weight>2.2627340197480268</Weight>
            </Weights>
        </Neuron>
    </Layer>
</NeuralNetwork>
