<NeuralNetwork>
    <Layer type="input" transferFunction="0" size="7"/>
    <Layer type="hidden" transferFunction="4">
        <Neuron>
            <Bias>-1.3017288779805509</Bias>
            <Weights>
                <Weight>-0.67824574747243116</Weight>
                <Weight>-0.67911773032619349</Weight>
                <Weight>1.20108272107797</Weight>
                <Weight>-2.4457344433497084</Weight>
                <Weight>-0.21321493108326575</Weight>
                <Weight>0.46942768280076658</Weight>
                <Weight>-1.6859240910052689</Weight>
            </Weights>
        </Neuron>
        <Neuron>
            <Bias>0.80628086202569704</Bias>
            <Weights>
                <Weight>-1.5133431433860269</Weight>
                <Weight>0.5009038754128563</Weight>
                <Weight>-0.47330497338997196</Weight>
                <Weight>-0.57101918055313383</Weight>
                <Weight>-1.0063939091439265</Weight>
                <Weight>0.93237584376092064</Weight>
                <Weight>1.0787551664682546</Weight>
            </Weights>
        </Neuron>
        <Neuron>
            <Bias>1.046333252656666</Bias>
            <Weights>
                <Weight>-0.2803540005520877</Weight>
                <Weight>1.3881979771300221</Weight>
                <Weight>-0.80032646051060619</Weight>
                <Weight>1.1750317325534247</Weight>
                <Weight>0.32798330003696208</Weight>
                <Weight>-1.1753942584690547</Weight>
                <Weight>0.40361820625169315</Weight>
            </Weights>
        </Neuron>
        <Neuron>
            <Bias>-0.16773814555208971</Bias>
            <Weights>
                <Weight>0.29770692627153839</Weight>
                <Weight>0.35456551159720351</Weight>
                <Weight>-0.75581317293277761</Weight>
                <Weight>0.25184462498209897</Weight>
                <Weight>0.34622215917091087</Weight>
                <Weight>-0.70625499456700813</Weight>
                <Weight>0.26343081895434112</Weight>
            </Weights>
        </Neuron>
        <Neuron>
            <Bias>0.90537842785336131</Bias>
            <Weights>
                <Weight>-0.27442374186476998</Weight>
                <Weight>0.10359319158127586</Weight>
                <Weight>-1.2542689387295305</Weight>
                <Weight>-0.3143766777081935</Weight>
                <Weight>1.0049142045099035</Weight>
                <Weight>-0.68875407075605166</Weight>
                <Weight>-0.3074321484061418</Weight>
            </Weights>
        </Neuron>
        <Neuron>
            <Bias>1.268417218845705</Bias>
            <Weights>
                <Weight>-1.1371989509046982</Weight>
                <Weight>-1.020258292300058</Weight>
                <Weight>1.0045735935912632</Weight>
                <Weight>-0.62151794491848222</Weight>
                <Weight>1.1505976143101591</Weight>
                <Weight>0.604647084708545</Weight>
                <Weight>1.4015364557525554</Weight>
            </Weights>
        </Neuron>
        <Neuron>
            <Bias>-0.0486181679518067</Bias>
            <Weights>
                <Weight>-1.6888979028646673</Weight>
                <Weight>-0.16180718026260976</Weight>
                <Weight>-0.29133989026953844</Weight>
                <Weight>0.078584058092188658</Weight>
                <Weight>-0.65331086040263975</Weight>
                <Weight>0.12315937244561997</Weight>
                <Weight>0.23569485890652084</Weight>
            </Weights>
        </Neuron>
        <Neuron>
            <Bias>-0.28342101801148234</Bias>
            <Weights>
                <Weight>1.3213196958502471</Weight>
                <Weight>-0.94679458713263998</Weight>
                <Weight>1.3784163881213585</Weight>
                <Weight>0.064246080767815225</Weight>
                <Weight>0.36185474095246339</Weight>
                <Weight>-0.99642137320096447</Weight>
                <Weight>-0.40497451154620223</Weight>
            </Weights>
        </Neuron>
        <Neuron>
            <Bias>-1.1632456298246345</Bias>
            <Weights>
                <Weight>0.90986709749571837</Weight>
                <Weight>1.361796076023269</Weight>
                <Weight>-0.39304908338353728</Weight>
                <Weight>-1.2767219543601382</Weight>
                <Weight>-0.030253029440976655</Weight>
                <Weight>-0.41400518598786401</Weight>
                <Weight>0.91320026140269672</Weight>
            </Weights>
        </Neuron>
        <Neuron>
            <Bias>1.5296256313058447</Bias>
            <Weights>
                <Weight>0.2467988312471634</Weight>
                <Weight>-0.88305030489535963</Weight>
                <Weight>-1.219010681685992</Weight>
                <Weight>-1.3495248845512151</Weight>
                <Weight>-0.033319727614704087</Weight>
                <Weight>-0.09513754886514561</Weight>
                <Weight>0.072244383147076915</Weight>
            </Weights>
        </Neuron>
        <Neuron>
            <Bias>-0.25534003938087008</Bias>
            <Weights>
                <Weight>0.058388055675158444</Weight>
                <Weight>1.345463479771549</Weight>
                <Weight>-0.64908547926390103</Weight>
                <Weight>-1.9366170593960093</Weight>
                <Weight>0.67798907637306383</Weight>
                <Weight>-0.025977723247156945</Weight>
                <Weight>0.26691590102466589</Weight>
            </Weights>
        </Neuron>
        <Neuron>
            <Bias>-0.22817711608278904</Bias>
            <Weights>
                <Weight>-0.40593243907520954</Weight>
                <Weight>-1.2696257003050571</Weight>
                <Weight>0.3654937597563736</Weight>
                <Weight>0.93618761406436946</Weight>
                <Weight>0.065503850399014643</Weight>
                <Weight>1.9556178854032518</Weight>
                <Weight>2.6283396744283913</Weight>
            </Weights>
        </Neuron>
        <Neuron>
            <Bias>1.4380294538273442</Bias>
            <Weights>
                <Weight>0.32383209143731789</Weight>
                <Weight>-0.86815158635790524</Weight>
                <Weight>-0.53591770331138111</Weight>
                <Weight>-1.3595314684832147</Weight>
                <Weight>1.1657747597187103</Weight>
                <Weight>-0.11634274401480509</Weight>
                <Weight>0.53747928915003318</Weight>
            </Weights>
        </Neuron>
        <Neuron>
            <Bias>0.587251516590935</Bias>
            <Weights>
                <Weight>-0.72249615127747746</Weight>
                <Weight>-1.2821035551573294</Weight>
                <Weight>-0.36219777889059129</Weight>
                <Weight>-1.1591256037453697</Weight>
                <Weight>-1.4035148655053975</Weight>
                <Weight>-0.81296126570452909</Weight>
                <Weight>1.1514362032430621</Weight>
            </Weights>
        </Neuron>
        <Neuron>
            <Bias>0.72307237327855634</Bias>
            <Weights>
                <Weight>0.34166166519136182</Weight>
                <Weight>0.77074640515767256</Weight>
                <Weight>0.92552140131083982</Weight>
                <Weight>-0.7318121576670189</Weight>
                <Weight>-0.52775777649774813</Weight>
                <Weight>-0.52425045552346794</Weight>
                <Weight>1.5272038275172264</Weight>
            </Weights>
        </Neuron>
        <Neuron>
            <Bias>-1.8404867592697969</Bias>
            <Weights>
                <Weight>-0.66354785892457757</Weight>
                <Weight>0.56997738238292817</Weight>
                <Weight>0.55836815451709354</Weight>
                <Weight>-1.529199259798937</Weight>
                <Weight>-0.21015032268024081</Weight>
                <Weight>-0.73984434070743221</Weight>
                <Weight>0.79296164956151916</Weight>
            </Weights>
        </Neuron>
        <Neuron>
            <Bias>0.21445633497578687</Bias>
            <Weights>
                <Weight>-0.89024168235571799</Weight>
                <Weight>2.3042567443913664</Weight>
                <Weight>0.21948042842894677</Weight>
                <Weight>0.40774771165746038</Weight>
                <Weight>-0.13435521458953761</Weight>
                <Weight>-1.6568942425455799</Weight>
                <Weight>-0.90675299822720012</Weight>
            </Weights>
        </Neuron>
        <Neuron>
            <Bias>2.0724210312658715</Bias>
            <Weights>
                <Weight>-3.6521593610896361</Weight>
                <Weight>-0.52904938889442399</Weight>
                <Weight>0.20968974553286668</Weight>
                <Weight>-0.70051564942564126</Weight>
                <Weight>0.13604831332074596</Weight>
                <Weight>-0.26620445448493757</Weight>
                <Weight>2.1549023718894516</Weight>
            </Weights>
        </Neuron>
        <Neuron>
            <Bias>-0.83116162344566402</Bias>
            <Weights>
                <Weight>-0.066117257971319163</Weight>
                <Weight>-1.2611988977648922</Weight>
                <Weight>0.75555435756433253</Weight>
                <Weight>0.84038254331766948</Weight>
                <Weight>-0.41042697766346053</Weight>
                <Weight>0.37806267686996975</Weight>
                <Weight>1.3306449700942815</Weight>
            </Weights>
        </Neuron>
        <Neuron>
            <Bias>1.3317127026299758</Bias>
            <Weights>
                <Weight>1.2320502990042423</Weight>
                <Weight>-0.48208155982120798</Weight>
                <Weight>-0.65272479134369699</Weight>
                <Weight>-2.053449334412444</Weight>
                <Weight>-1.7181665232255436</Weight>
                <Weight>-0.36341724557132532</Weight>
                <Weight>-0.4268580639252687</Weight>
            </Weights>
        </Neuron>
        <Neuron>
            <Bias>-0.10753230470075989</Bias>
            <Weights>
                <Weight>-0.56401460120471836</Weight>
                <Weight>1.0197033527299537</Weight>
                <Weight>2.1878121300173512</Weight>
                <Weight>-0.49118483515685141</Weight>
                <Weight>1.4444733923811643</Weight>
                <Weight>0.17714106689539413</Weight>
                <Weight>0.52904219840322686</Weight>
            </Weights>
        </Neuron>
        <Neuron>
            <Bias>0.26922073001274249</Bias>
            <Weights>
                <Weight>-0.93886002292469772</Weight>
                <Weight>0.4929629675021045</Weight>
                <Weight>0.25540006834968171</Weight>
                <Weight>-0.71033080512461333</Weight>
                <Weight>0.2672813906736442</Weight>
                <Weight>-1.4042900513360319</Weight>
                <Weight>0.71167373280633128</Weight>
            </Weights>
        </Neuron>
        <Neuron>
            <Bias>-1.5378213623176191</Bias>
            <Weights>
                <Weight>1.1065360163901277</Weight>
                <Weight>0.025137220415539729</Weight>
                <Weight>2.2689089945686827</Weight>
                <Weight>-1.0942733678236307</Weight>
                <Weight>-1.2041089628035673</Weight>
                <Weight>1.6096390830852358</Weight>
                <Weight>1.3515383999035575</Weight>
            </Weights>
        </Neuron>
        <Neuron>
            <Bias>0.3824897681961052</Bias>
            <Weights>
                <Weight>-1.9327536860377326</Weight>
                <Weight>0.17932669260003173</Weight>
                <Weight>-0.64319556566853886</Weight>
                <Weight>-0.09171019497244573</Weight>
                <Weight>-0.35328986985944988</Weight>
                <Weight>-1.84706255695649</Weight>
                <Weight>-0.79188221540586301</Weight>
            </Weights>
        </Neuron>
        <Neuron>
            <Bias>0.10679183167018351</Bias>
            <Weights>
                <Weight>0.52409229337455898</Weight>
                <Weight>0.25741286648257922</Weight>
                <Weight>1.2085643611501</Weight>
                <Weight>-1.3953236673771436</Weight>
                <Weight>0.62388750400271842</Weight>
                <Weight>0.76801243093518401</Weight>
                <Weight>-1.5986260032348869</Weight>
            </Weights>
        </Neuron>
        <Neuron>
            <Bias>-1.3278063615135818</Bias>
            <Weights>
                <Weight>0.78611795692967712</Weight>
                <Weight>1.2141465414831631</Weight>
                <Weight>1.6487877137187281</Weight>
                <Weight>-0.91138391617139158</Weight>
                <Weight>0.82885191443079953</Weight>
                <Weight>0.156917743141851</Weight>
                <Weight>-0.51797916536730637</Weight>
            </Weights>
        </Neuron>
        <Neuron>
            <Bias>-2.4023009727528026</Bias>
            <Weights>
                <Weight>0.75841153509198256</Weight>
                <Weight>-2.1668523962446611</Weight>
                <Weight>0.7019621689640313</Weight>
                <Weight>-1.6795891591468421</Weight>
                <Weight>-0.83601427396601435</Weight>
                <Weight>0.93699252521696541</Weight>
                <Weight>-0.57589400981494521</Weight>
            </Weights>
        </Neuron>
        <Neuron>
            <Bias>-1.3486886917432257</Bias>
            <Weights>
                <Weight>1.5799407765127054</Weight>
                <Weight>0.72726739902362714</Weight>
                <Weight>0.5212552253315228</Weight>
                <Weight>0.80034473881132495</Weight>
                <Weight>0.24954884498581115</Weight>
                <Weight>-0.14586706320006881</Weight>
                <Weight>0.92420847028729725</Weight>
            </Weights>
        </Neuron>
        <Neuron>
            <Bias>1.1902918687354644</Bias>
            <Weights>
                <Weight>-0.065789105656127</Weight>
                <Weight>-0.8069106391629467</Weight>
                <Weight>-1.7581261036809877</Weight>
                <Weight>1.0879578163817445</Weight>
                <Weight>1.8872633295896935</Weight>
                <Weight>0.11380307062438397</Weight>
                <Weight>1.563382995330032</Weight>
            </Weights>
        </Neuron>
        <Neuron>
            <Bias>1.0059292526848986</Bias>
            <Weights>
                <Weight>0.54623955261033175</Weight>
                <Weight>0.68872641866155637</Weight>
                <Weight>2.1935515981292628</Weight>
                <Weight>-0.18044658394864835</Weight>
                <Weight>-0.021303311103515632</Weight>
                <Weight>1.9870137865011093</Weight>
                <Weight>-1.7244051160810319</Weight>
            </Weights>
        </Neuron>
        <Neuron>
            <Bias>0.23803883278321994</Bias>
            <Weights>
                <Weight>1.4213860796883957</Weight>
                <Weight>-0.16682774674406708</Weight>
                <Weight>0.27953360397131088</Weight>
                <Weight>1.7572983123112345</Weight>
                <Weight>-1.5614962856295502</Weight>
                <Weight>-0.13284399568921629</Weight>
                <Weight>0.45885856883847403</Weight>
            </Weights>
        </Neuron>
        <Neuron>
            <Bias>-0.72984715517370713</Bias>
            <Weights>
                <Weight>1.8156412019656989</Weight>
                <Weight>1.6792436668361377</Weight>
                <Weight>1.432144019518965</Weight>
                <Weight>1.0937143959143263</Weight>
                <Weight>1.309806994092602</Weight>
                <Weight>3.3438581646346122</Weight>
                <Weight>-0.37953918367116868</Weight>
            </Weights>
        </Neuron>
        <Neuron>
            <Bias>-0.77505942396495942</Bias>
            <Weights>
                <Weight>1.0940282511017996</Weight>
                <Weight>0.54870343343669792</Weight>
                <Weight>-1.7426479759598326</Weight>
                <Weight>-0.075728085379763013</Weight>
                <Weight>1.1357129918533828</Weight>
                <Weight>1.3551636323496912</Weight>
                <Weight>-0.086238935484332604</Weight>
            </Weights>
        </Neuron>
        <Neuron>
            <Bias>0.74407068584366887</Bias>
            <Weights>
                <Weight>-0.23538716174822372</Weight>
                <Weight>-0.021973148407278969</Weight>
                <Weight>0.86811493809576612</Weight>
                <Weight>1.0804618947553635</Weight>
                <Weight>-0.57312973562414371</Weight>
                <Weight>-0.48372988288664887</Weight>
                <Weight>1.1895819589642487</Weight>
            </Weights>
        </Neuron>
        <Neuron>
            <Bias>-0.42076538324331292</Bias>
            <Weights>
                <Weight>0.44035355208756322</Weight>
                <Weight>-1.9597291457140638</Weight>
                <Weight>-0.32509375461294399</Weight>
                <Weight>0.49821071508631637</Weight>
                <Weight>-0.97828378826826135</Weight>
                <Weight>-1.7310411377902344</Weight>
                <Weight>0.20095061239957743</Weight>
            </Weights>
        </Neuron>
        <Neuron>
            <Bias>2.2062868041836339</Bias>
            <Weights>
                <Weight>1.8401867067935149</Weight>
                <Weight>0.33321900945337835</Weight>
                <Weight>0.4512593192900759</Weight>
                <Weight>-0.44602095310537881</Weight>
                <Weight>-0.0065697819700176905</Weight>
                <Weight>-0.55694338449904035</Weight>
                <Weight>-0.53731149700601954</Weight>
            </Weights>
        </Neuron>
        <Neuron>
            <Bias>-0.069048033603754264</Bias>
            <Weights>
                <Weight>0.60683342120279837</Weight>
                <Weight>-1.0111196406957073</Weight>
                <Weight>1.0122416727705135</Weight>
                <Weight>-1.1239079984507994</Weight>
                <Weight>1.4559602179503481</Weight>
                <Weight>0.9877363853994181</Weight>
                <Weight>-0.85077404298832116</Weight>
            </Weights>
        </Neuron>
        <Neuron>
            <Bias>-0.64165893444480915</Bias>
            <Weights>
                <Weight>0.3777439677681334</Weight>
                <Weight>0.041600826010831059</Weight>
                <Weight>0.77649937771355848</Weight>
                <Weight>-0.2225126000738287</Weight>
                <Weight>-0.6096329813794964</Weight>
                <Weight>1.3212159547632238</Weight>
                <Weight>1.1325570985611695</Weight>
            </Weights>
        </Neuron>
    </Layer>
    <Layer type="hidden" transferFunction="4">
        <Neuron>
            <Bias>1.3946839338844039</Bias>
            <Weights>
                <Weight>2.1693021314540126</Weight>
                <Weight>0.44027656136699495</Weight>
                <Weight>0.38855512650083457</Weight>
                <Weight>0.070297410008490074</Weight>
                <Weight>1.0836923440051083</Weight>
                <Weight>-0.80095837143167203</Weight>
                <Weight>1.1472260212562084</Weight>
                <Weight>-1.007952676859645</Weight>
                <Weight>0.87979337329179752</Weight>
                <Weight>0.11834110760686824</Weight>
                <Weight>-1.7572575722941088</Weight>
                <Weight>0.29358100165719958</Weight>
                <Weight>0.096514009371566997</Weight>
                <Weight>-0.35233197024140211</Weight>
                <Weight>-1.5662071266886699</Weight>
                <Weight>1.028193658434724</Weight>
                <Weight>-1.5912586416129699</Weight>
                <Weight>0.33881419834146315</Weight>
                <Weight>-0.12445538308192515</Weight>
                <Weight>-1.8446833323872027</Weight>
                <Weight>-0.25063863996706948</Weight>
                <Weight>-0.3760657821960593</Weight>
                <Weight>0.35371165556023776</Weight>
                <Weight>1.0646553479333782</Weight>
                <Weight>-1.1981515630518518</Weight>
                <Weight>0.17524112972640155</Weight>
                <Weight>-0.063541071032107904</Weight>
                <Weight>-0.9580682121318761</Weight>
                <Weight>-1.2505462558024865</Weight>
                <Weight>0.64627083231162574</Weight>
                <Weight>-1.1802371291110321</Weight>
                <Weight>0.27603823779558301</Weight>
                <Weight>1.1707185943847966</Weight>
                <Weight>1.0042226285086557</Weight>
                <Weight>-0.4110496906427818</Weight>
                <Weight>-1.6371830179095612</Weight>
                <Weight>-2.423463886117434</Weight>
                <Weight>-0.24628870992843194</Weight>
            </Weights>
        </Neuron>
        <Neuron>
            <Bias>0.23539442181451897</Bias>
            <Weights>
                <Weight>0.52241731437562811</Weight>
                <Weight>-1.4367358003988273</Weight>
                <Weight>1.4655445565727132</Weight>
                <Weight>0.73696618555865212</Weight>
                <Weight>0.73228005751445913</Weight>
                <Weight>0.63763661401033811</Weight>
                <Weight>3.1493152312801742</Weight>
                <Weight>0.40715751284610879</Weight>
                <Weight>-1.4113655592361538</Weight>
                <Weight>0.63020653889377209</Weight>
                <Weight>-0.76655493744967595</Weight>
                <Weight>0.014774656633848955</Weight>
                <Weight>-1.6985473279574506</Weight>
                <Weight>0.045475646527833043</Weight>
                <Weight>-0.43180749439381944</Weight>
                <Weight>-0.65691746294868081</Weight>
                <Weight>0.031267666516869637</Weight>
                <Weight>-0.20046283745746016</Weight>
                <Weight>-0.094654743507477795</Weight>
                <Weight>-0.11729958076096522</Weight>
                <Weight>-0.16285601955346901</Weight>
                <Weight>0.83170174112666095</Weight>
                <Weight>0.15357188557408061</Weight>
                <Weight>0.74142759382761569</Weight>
                <Weight>-0.38585545082416978</Weight>
                <Weight>-0.73523453843332187</Weight>
                <Weight>-0.49452009744115633</Weight>
                <Weight>0.69398169887848482</Weight>
                <Weight>0.65287076345135175</Weight>
                <Weight>-1.7010464979950692</Weight>
                <Weight>1.5195331061035473</Weight>
                <Weight>-0.12154171185943827</Weight>
                <Weight>-0.084069658650353568</Weight>
                <Weight>0.42262166447773519</Weight>
                <Weight>-3.2392751105435829</Weight>
                <Weight>0.24520178997275674</Weight>
                <Weight>-0.53369473289545277</Weight>
                <Weight>-0.24199436818017075</Weight>
            </Weights>
        </Neuron>
        <Neuron>
            <Bias>-1.0032916438420336</Bias>
            <Weights>
                <Weight>-0.033091279447903126</Weight>
                <Weight>0.1375474311897556</Weight>
                <Weight>0.74954536760028678</Weight>
                <Weight>-0.18187527233644685</Weight>
                <Weight>3.3214630348376479</Weight>
                <Weight>-0.18135291057081659</Weight>
                <Weight>-2.5552127903255011</Weight>
                <Weight>-0.74570893510801217</Weight>
                <Weight>0.7651280304783965</Weight>
                <Weight>0.75266248866928431</Weight>
                <Weight>1.8177356385197456</Weight>
                <Weight>-0.29306227457854578</Weight>
                <Weight>0.93144892294230852</Weight>
                <Weight>-0.73789633046014824</Weight>
                <Weight>-1.3331601383464344</Weight>
                <Weight>0.029456109396230949</Weight>
                <Weight>-0.76513469453308047</Weight>
                <Weight>0.86765542629869008</Weight>
                <Weight>0.20629051705490617</Weight>
                <Weight>1.0556922657050782</Weight>
                <Weight>-0.30431706040564099</Weight>
                <Weight>-1.1620828640889032</Weight>
                <Weight>1.1693011597692566</Weight>
                <Weight>0.56692432246792512</Weight>
                <Weight>-1.3021483181679268</Weight>
                <Weight>1.1468679578753864</Weight>
                <Weight>-1.3846435908268098</Weight>
                <Weight>-0.93863929600596974</Weight>
                <Weight>2.7535700393719948</Weight>
                <Weight>-1.1830517455896843</Weight>
                <Weight>-0.17522034571923514</Weight>
                <Weight>-1.1901193986282832</Weight>
                <Weight>-1.2126711831330914</Weight>
                <Weight>1.4288660133255142</Weight>
                <Weight>-1.4501744967476569</Weight>
                <Weight>-1.1322286222097944</Weight>
                <Weight>-0.066752527647622142</Weight>
                <Weight>0.18951820223448065</Weight>
            </Weights>
        </Neuron>
        <Neuron>
            <Bias>-0.91636652790544171</Bias>
            <Weights>
                <Weight>-0.6218530920749471</Weight>
                <Weight>-0.45885908112733642</Weight>
                <Weight>-0.31714800477661181</Weight>
                <Weight>-1.9119207450919371</Weight>
                <Weight>-0.45095813533136786</Weight>
                <Weight>1.0504906572096628</Weight>
                <Weight>-0.85706523311976146</Weight>
                <Weight>-0.34040968101674407</Weight>
                <Weight>0.44114251763346657</Weight>
                <Weight>-0.1982089972240467</Weight>
                <Weight>1.0098290193095181</Weight>
                <Weight>0.60198659149629308</Weight>
                <Weight>-1.2462023149556698</Weight>
                <Weight>1.6663050183668611</Weight>
                <Weight>-0.47791058209981163</Weight>
                <Weight>0.27191222350022665</Weight>
                <Weight>0.46951766120207017</Weight>
                <Weight>-0.20441703389303459</Weight>
                <Weight>-0.15835561273894444</Weight>
                <Weight>-0.25545906514470618</Weight>
                <Weight>-0.15428135194781314</Weight>
                <Weight>1.1217959371235757</Weight>
                <Weight>0.41022935262628613</Weight>
                <Weight>0.02425389946184911</Weight>
                <Weight>-0.87063145443102308</Weight>
                <Weight>-0.72290626612515763</Weight>
                <Weight>-1.123052447574562</Weight>
                <Weight>0.90515705451075268</Weight>
                <Weight>0.29312810615173551</Weight>
                <Weight>0.22769082541150729</Weight>
                <Weight>0.51159508811379462</Weight>
                <Weight>-0.79975347071223413</Weight>
                <Weight>0.72835886024603513</Weight>
                <Weight>0.7692082729829266</Weight>
                <Weight>-0.78099121749002021</Weight>
                <Weight>-1.9458958038095286</Weight>
                <Weight>-0.44398946483341695</Weight>
                <Weight>0.096496518588547825</Weight>
            </Weights>
        </Neuron>
        <Neuron>
            <Bias>0.41939239829261016</Bias>
            <Weights>
                <Weight>0.37181347903506717</Weight>
                <Weight>1.4008201170141283</Weight>
                <Weight>-2.8717268813201771</Weight>
                <Weight>-0.41187486470955093</Weight>
                <Weight>-1.5067627537369395</Weight>
                <Weight>0.88611401446501226</Weight>
                <Weight>0.54471683004192417</Weight>
                <Weight>-0.086687296609911688</Weight>
                <Weight>0.016534882280197429</Weight>
                <Weight>-2.2081321955471847</Weight>
                <Weight>-0.1536862237821344</Weight>
                <Weight>1.6796965849581338</Weight>
                <Weight>1.7634392331111748</Weight>
                <Weight>0.13221684187328592</Weight>
                <Weight>0.54881537440613049</Weight>
                <Weight>0.31114005768145003</Weight>
                <Weight>-0.64273128554771952</Weight>
                <Weight>0.84103567755510422</Weight>
                <Weight>-0.1553883877517124</Weight>
                <Weight>0.22049206115394643</Weight>
                <Weight>1.0261567435718482</Weight>
                <Weight>-1.6505568085630227</Weight>
                <Weight>-0.64717846167614379</Weight>
                <Weight>-0.5727092788963325</Weight>
                <Weight>0.31680507625526261</Weight>
                <Weight>0.79880961670949036</Weight>
                <Weight>-0.00021025074325721732</Weight>
                <Weight>0.14955045384587387</Weight>
                <Weight>-1.0212550434367185</Weight>
                <Weight>0.97216173720281551</Weight>
                <Weight>1.1237794580256599</Weight>
                <Weight>-0.27659830369101007</Weight>
                <Weight>1.0923395612492206</Weight>
                <Weight>0.26897430484708285</Weight>
                <Weight>-0.28725875574857784</Weight>
                <Weight>0.45273592587532874</Weight>
                <Weight>1.254594786596821</Weight>
                <Weight>-0.72427688794665701</Weight>
            </Weights>
        </Neuron>
        <Neuron>
            <Bias>-0.3178368933649981</Bias>
            <Weights>
                <Weight>-2.5718340870092051</Weight>
                <Weight>-1.6581564017637713</Weight>
                <Weight>0.15426788700137986</Weight>
                <Weight>1.3127886962637549</Weight>
                <Weight>-0.27279501503399839</Weight>
                <Weight>-1.2232694849843517</Weight>
                <Weight>-0.36508282988053531</Weight>
                <Weight>0.90641678689478478</Weight>
                <Weight>0.45365359840303404</Weight>
                <Weight>-1.0867059386181217</Weight>
                <Weight>1.3703506721043464</Weight>
                <Weight>1.2808995901178337</Weight>
                <Weight>0.49180016173706381</Weight>
                <Weight>1.8166453904611601</Weight>
                <Weight>-1.019580562862378</Weight>
                <Weight>0.32096564001911693</Weight>
                <Weight>-0.1382701807474066</Weight>
                <Weight>-0.20351017854555911</Weight>
                <Weight>1.7875665403174517</Weight>
                <Weight>-0.066114599000943505</Weight>
                <Weight>0.56101316819761626</Weight>
                <Weight>-0.61224519992712889</Weight>
                <Weight>1.2797127835990989</Weight>
                <Weight>1.1550815884218524</Weight>
                <Weight>1.7666842571909191</Weight>
                <Weight>-0.034544512959157385</Weight>
                <Weight>0.12576519805300307</Weight>
                <Weight>-0.7895841720339154</Weight>
                <Weight>0.18610357660602242</Weight>
                <Weight>-0.41414591031138737</Weight>
                <Weight>-0.71505914115420366</Weight>
                <Weight>-0.33669343100606824</Weight>
                <Weight>-1.4609009983346932</Weight>
                <Weight>-2.7577741402934253</Weight>
                <Weight>-0.8214895800975397</Weight>
                <Weight>1.6745618778213724</Weight>
                <Weight>0.12839540024388371</Weight>
                <Weight>1.2096173999136128</Weight>
            </Weights>
        </Neuron>
        <Neuron>
            <Bias>0.82225800036142238</Bias>
            <Weights>
                <Weight>-0.67055256216800629</Weight>
                <Weight>-0.90674147040591091</Weight>
                <Weight>-0.030905601165776991</Weight>
                <Weight>-0.86014820538024106</Weight>
                <Weight>-1.4319108144002335</Weight>
                <Weight>2.4227402885807181</Weight>
                <Weight>-1.3862487372321854</Weight>
                <Weight>-0.01671103586784297</Weight>
                <Weight>-1.9226490636526825</Weight>
                <Weight>-1.4073957249957789</Weight>
                <Weight>0.10330834243921994</Weight>
                <Weight>0.26987846372166185</Weight>
                <Weight>-0.46609346419376257</Weight>
                <Weight>-0.057699268057407972</Weight>
                <Weight>0.70077600500226611</Weight>
                <Weight>-1.5954173269564245</Weight>
                <Weight>0.3504005683859816</Weight>
                <Weight>-0.16567122451258781</Weight>
                <Weight>0.33386362169782602</Weight>
                <Weight>1.0707990735939465</Weight>
                <Weight>0.15396488989370849</Weight>
                <Weight>-0.070251583204075957</Weight>
                <Weight>-0.36710710526655582</Weight>
                <Weight>3.2523532003849622</Weight>
                <Weight>-0.64354338662931909</Weight>
                <Weight>-0.65682941702667796</Weight>
                <Weight>0.039570507837962364</Weight>
                <Weight>-1.0844599903660981</Weight>
                <Weight>0.50131667560555304</Weight>
                <Weight>1.3456013211342821</Weight>
                <Weight>-0.69796184337527978</Weight>
                <Weight>0.48063585577200452</Weight>
                <Weight>-1.3444549457010777</Weight>
                <Weight>0.85769049314961421</Weight>
                <Weight>-0.0062648387406028334</Weight>
                <Weight>0.88014476960562649</Weight>
                <Weight>0.98020389289577525</Weight>
                <Weight>0.15017511694241814</Weight>
            </Weights>
        </Neuron>
        <Neuron>
            <Bias>-1.2787220920379887</Bias>
            <Weights>
                <Weight>-0.095945435055452236</Weight>
                <Weight>0.97753782993325056</Weight>
                <Weight>-1.0495044170452172</Weight>
                <Weight>1.2042562236414938</Weight>
                <Weight>1.0287067043547686</Weight>
                <Weight>0.98881988293008072</Weight>
                <Weight>0.59861384769103709</Weight>
                <Weight>-0.53066157492141397</Weight>
                <Weight>-1.3211440771980307</Weight>
                <Weight>-0.59438418861244047</Weight>
                <Weight>1.4371884002666009</Weight>
                <Weight>-0.42664421823204063</Weight>
                <Weight>1.8437187741028156</Weight>
                <Weight>-0.4830210282047368</Weight>
                <Weight>-0.20162054114536063</Weight>
                <Weight>-1.122100375969878</Weight>
                <Weight>0.01306311304670049</Weight>
                <Weight>2.0914520031278179</Weight>
                <Weight>-0.45168338369288907</Weight>
                <Weight>1.1317276910495979</Weight>
                <Weight>-1.7335223066166721</Weight>
                <Weight>0.10390137393013248</Weight>
                <Weight>0.8265353327278302</Weight>
                <Weight>1.30125344954624</Weight>
                <Weight>-1.1409319398369304</Weight>
                <Weight>-0.024844219063751831</Weight>
                <Weight>1.4157213113106935</Weight>
                <Weight>-0.16482021189637905</Weight>
                <Weight>0.75744862651052969</Weight>
                <Weight>-0.099354756946538211</Weight>
                <Weight>0.15662498135212272</Weight>
                <Weight>-0.462467423156949</Weight>
                <Weight>-0.28648427658119086</Weight>
                <Weight>-0.81483949677497458</Weight>
                <Weight>1.2025203297356095</Weight>
                <Weight>-0.34582009559559523</Weight>
                <Weight>0.93337198931685106</Weight>
                <Weight>-0.23291138265373607</Weight>
            </Weights>
        </Neuron>
        <Neuron>
            <Bias>1.3102828658607895</Bias>
            <Weights>
                <Weight>-0.99603278056076117</Weight>
                <Weight>-0.82636612919440489</Weight>
                <Weight>0.41918213495402185</Weight>
                <Weight>0.93026459389219252</Weight>
                <Weight>0.31828372625150225</Weight>
                <Weight>-1.5826875551813671</Weight>
                <Weight>-0.24016286727347125</Weight>
                <Weight>-0.17238394468411167</Weight>
                <Weight>-1.637506040126945</Weight>
                <Weight>-0.17729069689588303</Weight>
                <Weight>-0.33778409372697799</Weight>
                <Weight>1.0857546650178156</Weight>
                <Weight>-0.81739681921867569</Weight>
                <Weight>1.6877653956110148</Weight>
                <Weight>-1.0550962396523027</Weight>
                <Weight>1.9252970249975103</Weight>
                <Weight>-0.8618543830037243</Weight>
                <Weight>0.22899490338962905</Weight>
                <Weight>-0.86805159636609885</Weight>
                <Weight>-0.53100297345976777</Weight>
                <Weight>1.3582238448322661</Weight>
                <Weight>-0.71145126248902812</Weight>
                <Weight>0.47396638713949607</Weight>
                <Weight>-0.53899891468593275</Weight>
                <Weight>-0.57964139221674549</Weight>
                <Weight>-0.29765649768031688</Weight>
                <Weight>0.5493216020207351</Weight>
                <Weight>3.1118024275099478</Weight>
                <Weight>-0.12298373828952031</Weight>
                <Weight>-1.2490298444774375</Weight>
                <Weight>-1.1426633718766395</Weight>
                <Weight>-0.0052518957299995984</Weight>
                <Weight>0.22830318325374993</Weight>
                <Weight>-1.7358390943660942</Weight>
                <Weight>-1.4300925383706886</Weight>
                <Weight>-0.1666173497017272</Weight>
                <Weight>-0.23683266329743144</Weight>
                <Weight>1.4752353805742706</Weight>
            </Weights>
        </Neuron>
        <Neuron>
            <Bias>-1.5320772876438011</Bias>
            <Weights>
                <Weight>0.73744091163533532</Weight>
                <Weight>-0.40847806408833781</Weight>
                <Weight>-0.47813253674498535</Weight>
                <Weight>0.071642899834498036</Weight>
                <Weight>0.56112033956084684</Weight>
                <Weight>0.64874543791339379</Weight>
                <Weight>-1.1267571829935652</Weight>
                <Weight>-0.10638097493430311</Weight>
                <Weight>0.53256471462854627</Weight>
                <Weight>-0.035462881823316937</Weight>
                <Weight>0.22495370502417406</Weight>
                <Weight>0.54032258786953224</Weight>
                <Weight>-0.93392325259101605</Weight>
                <Weight>-1.625567737627766</Weight>
                <Weight>0.34065299684125883</Weight>
                <Weight>0.45001476787482064</Weight>
                <Weight>1.3121957662110948</Weight>
                <Weight>1.0667101538188775</Weight>
                <Weight>0.98895776504477639</Weight>
                <Weight>-0.19855662255300158</Weight>
                <Weight>0.60435748523180954</Weight>
                <Weight>1.3621133350792154</Weight>
                <Weight>-1.6373235576134588</Weight>
                <Weight>0.83768777919285109</Weight>
                <Weight>1.274076017312862</Weight>
                <Weight>0.34581516618238156</Weight>
                <Weight>1.4346722580038818</Weight>
                <Weight>0.95943510163146817</Weight>
                <Weight>0.60427053654380491</Weight>
                <Weight>1.6740136460838853</Weight>
                <Weight>-2.0064149294700289</Weight>
                <Weight>0.40581585725474389</Weight>
                <Weight>-0.64574790742396071</Weight>
                <Weight>-1.0213175589034336</Weight>
                <Weight>-1.4839572710167956</Weight>
                <Weight>0.40504902207236576</Weight>
                <Weight>0.95303354416205299</Weight>
                <Weight>0.96661836494302333</Weight>
            </Weights>
        </Neuron>
        <Neuron>
            <Bias>0.30069428745966897</Bias>
            <Weights>
                <Weight>-0.62118432420707959</Weight>
                <Weight>0.35068523048729816</Weight>
                <Weight>-0.56818180682385622</Weight>
                <Weight>-0.61388280233861192</Weight>
                <Weight>-0.54948243481251713</Weight>
                <Weight>-1.557893424693825</Weight>
                <Weight>-0.88204963390959557</Weight>
                <Weight>0.50857114321978503</Weight>
                <Weight>-0.8450560376335301</Weight>
                <Weight>0.78147287004474664</Weight>
                <Weight>1.2782573908410644</Weight>
                <Weight>-0.34671614918170612</Weight>
                <Weight>-0.17353914266861292</Weight>
                <Weight>0.81272862506703658</Weight>
                <Weight>-1.5102428992451782</Weight>
                <Weight>0.65854618846369239</Weight>
                <Weight>-0.023428798205686836</Weight>
                <Weight>0.006002633104874565</Weight>
                <Weight>1.0372765783126063</Weight>
                <Weight>0.23366056314984318</Weight>
                <Weight>-0.88736235464638691</Weight>
                <Weight>1.612664370219913</Weight>
                <Weight>-0.20913379917910158</Weight>
                <Weight>-0.25654308709051132</Weight>
                <Weight>0.37509317929980662</Weight>
                <Weight>0.70367367317434848</Weight>
                <Weight>1.0377575518173361</Weight>
                <Weight>-1.553607018098309</Weight>
                <Weight>-0.10592892404859072</Weight>
                <Weight>-0.0077736046628987089</Weight>
                <Weight>0.12386083252736643</Weight>
                <Weight>-0.29305416426602066</Weight>
                <Weight>-1.226265996437645</Weight>
                <Weight>0.55575723321471338</Weight>
                <Weight>-0.20671934466002187</Weight>
                <Weight>2.7556606326710154</Weight>
                <Weight>-1.9662561045674511</Weight>
                <Weight>0.45543537354336083</Weight>
            </Weights>
        </Neuron>
        <Neuron>
            <Bias>0.99311735063904094</Bias>
            <Weights>
                <Weight>-1.0180558547871241</Weight>
                <Weight>-0.67304416938973821</Weight>
                <Weight>0.53505721306968135</Weight>
                <Weight>0.83541698212102244</Weight>
                <Weight>0.4794602317670621</Weight>
                <Weight>1.2134484243289245</Weight>
                <Weight>-0.1848790519688758</Weight>
                <Weight>-0.66796150095257933</Weight>
                <Weight>1.8715689688802486</Weight>
                <Weight>1.3075998415482115</Weight>
                <Weight>-1.3184880434788253</Weight>
                <Weight>-0.29742947523742252</Weight>
                <Weight>0.58926759070992341</Weight>
                <Weight>-0.67820203103188592</Weight>
                <Weight>0.89355950266876349</Weight>
                <Weight>0.40614602278542838</Weight>
                <Weight>-1.6450229350942853</Weight>
                <Weight>1.0021313242369756</Weight>
                <Weight>-0.32286398886666107</Weight>
                <Weight>0.38655421528266731</Weight>
                <Weight>1.3576828046103515</Weight>
                <Weight>0.39521892682512766</Weight>
                <Weight>-0.41976252058169955</Weight>
                <Weight>0.54223351499473416</Weight>
                <Weight>-0.40459861402303993</Weight>
                <Weight>0.23293474006491993</Weight>
                <Weight>0.74456958245942917</Weight>
                <Weight>-0.84424559195443538</Weight>
                <Weight>0.93871173150170495</Weight>
                <Weight>-0.66352771706371494</Weight>
                <Weight>-1.6421496947069287</Weight>
                <Weight>-0.65793382573284753</Weight>
                <Weight>-0.48304169398642233</Weight>
                <Weight>0.71560279223662127</Weight>
                <Weight>1.4855854261261328</Weight>
                <Weight>0.81962977170358087</Weight>
                <Weight>0.44970435813181919</Weight>
                <Weight>-0.52929803157097466</Weight>
            </Weights>
        </Neuron>
        <Neuron>
            <Bias>-0.43005051299363939</Bias>
            <Weights>
                <Weight>1.0121317903019413</Weight>
                <Weight>0.59755391155557658</Weight>
                <Weight>0.080548399418752567</Weight>
                <Weight>0.35015307581265431</Weight>
                <Weight>0.83451394607558493</Weight>
                <Weight>-0.43358087514928328</Weight>
                <Weight>0.57955251863124579</Weight>
                <Weight>0.85371523669235716</Weight>
                <Weight>0.85725943609599453</Weight>
                <Weight>-0.50186787790031762</Weight>
                <Weight>0.66723572378303708</Weight>
                <Weight>-1.0241772158181359</Weight>
                <Weight>1.4482811872560157</Weight>
                <Weight>0.3702012496443513</Weight>
                <Weight>1.863937341346767</Weight>
                <Weight>1.2079917913489866</Weight>
                <Weight>0.51896218781093684</Weight>
                <Weight>1.559245621229997</Weight>
                <Weight>2.2871748439799027</Weight>
                <Weight>-0.59538106871919216</Weight>
                <Weight>-0.25833974444302055</Weight>
                <Weight>-1.0062558421241539</Weight>
                <Weight>0.14560644526330657</Weight>
                <Weight>-0.99834682238217776</Weight>
                <Weight>-0.87074416018409639</Weight>
                <Weight>0.93887752112899936</Weight>
                <Weight>-0.88085494904506667</Weight>
                <Weight>-1.781325494503134</Weight>
                <Weight>-0.70245941502717135</Weight>
                <Weight>-0.73286415732239829</Weight>
                <Weight>-0.65957038625277609</Weight>
                <Weight>-1.6169970412428625</Weight>
                <Weight>-1.2525616506507227</Weight>
                <Weight>0.1691442946525939</Weight>
                <Weight>-1.2039744582374921</Weight>
                <Weight>-0.8695565129884566</Weight>
                <Weight>0.20797785099891974</Weight>
                <Weight>1.4008717610340724</Weight>
            </Weights>
        </Neuron>
        <Neuron>
            <Bias>0.40643112108757695</Bias>
            <Weights>
                <Weight>0.75536276334044505</Weight>
                <Weight>0.94497734078129181</Weight>
                <Weight>0.69927666007637279</Weight>
                <Weight>0.23234285515233302</Weight>
                <Weight>0.05334825053543437</Weight>
                <Weight>0.34564165393787682</Weight>
                <Weight>-0.38343578497607544</Weight>
                <Weight>0.68453090687883078</Weight>
                <Weight>-0.050662640518307302</Weight>
                <Weight>0.30956709447591535</Weight>
                <Weight>-1.2461303625839526</Weight>
                <Weight>-1.0270392613269144</Weight>
                <Weight>-1.6752280318988508</Weight>
                <Weight>0.72961191913391532</Weight>
                <Weight>-0.088749716464538497</Weight>
                <Weight>0.27682392696259694</Weight>
                <Weight>0.29748538869812791</Weight>
                <Weight>0.46747109301619899</Weight>
                <Weight>-0.18012289265791848</Weight>
                <Weight>-0.36736527884698977</Weight>
                <Weight>-0.41596719291488332</Weight>
                <Weight>0.14466085754535871</Weight>
                <Weight>-0.2310571113818547</Weight>
                <Weight>1.2607099718377524</Weight>
                <Weight>-0.28396359835433993</Weight>
                <Weight>-0.80462283586887395</Weight>
                <Weight>1.0306552252652905</Weight>
                <Weight>0.70199395331947334</Weight>
                <Weight>1.3929326806541478</Weight>
                <Weight>0.2958231254544052</Weight>
                <Weight>-1.2516237968487023</Weight>
                <Weight>0.09013440904784395</Weight>
                <Weight>-1.66418107146566</Weight>
                <Weight>0.065211047685796525</Weight>
                <Weight>0.4447968859761427</Weight>
                <Weight>-1.2471814368325782</Weight>
                <Weight>-0.81367044614216444</Weight>
                <Weight>-0.41959929508809568</Weight>
            </Weights>
        </Neuron>
        <Neuron>
            <Bias>-0.14371284860794276</Bias>
            <Weights>
                <Weight>-1.6573428852678442</Weight>
                <Weight>0.63521674319053723</Weight>
                <Weight>1.3287203492558159</Weight>
                <Weight>-0.87120320053139855</Weight>
                <Weight>-0.18658672249040126</Weight>
                <Weight>-1.2653185919841172</Weight>
                <Weight>-0.41448697695601916</Weight>
                <Weight>-0.14536896614697609</Weight>
                <Weight>-1.2477152227187551</Weight>
                <Weight>-0.49656818570773009</Weight>
                <Weight>-0.30156044236530555</Weight>
                <Weight>-0.4828502856355858</Weight>
                <Weight>1.5175575578410674</Weight>
                <Weight>-0.63893274051331228</Weight>
                <Weight>1.2362688216462174</Weight>
                <Weight>1.7844207315182883</Weight>
                <Weight>-0.57047514916997832</Weight>
                <Weight>-1.2197691135727884</Weight>
                <Weight>-1.5767817865379068</Weight>
                <Weight>0.41832137471190173</Weight>
                <Weight>2.289646499424419</Weight>
                <Weight>-2.3722858747672677</Weight>
                <Weight>1.5325807254676138</Weight>
                <Weight>1.597924997743426</Weight>
                <Weight>-1.0886696355949732</Weight>
                <Weight>1.2529605175680603</Weight>
                <Weight>2.0665214995387111</Weight>
                <Weight>-0.033225673216290677</Weight>
                <Weight>0.87731714105540592</Weight>
                <Weight>0.39115498927840542</Weight>
                <Weight>0.099519402894268277</Weight>
                <Weight>0.92292673287964611</Weight>
                <Weight>1.2857370469243328</Weight>
                <Weight>0.40397794094013895</Weight>
                <Weight>0.27701634312177881</Weight>
                <Weight>2.164676022380287</Weight>
                <Weight>1.4632506710512321</Weight>
                <Weight>-0.34534203960546034</Weight>
            </Weights>
        </Neuron>
        <Neuron>
            <Bias>-0.72211328364157568</Bias>
            <Weights>
                <Weight>-1.8201322625936105</Weight>
                <Weight>0.99579077698623009</Weight>
                <Weight>-0.98821730036905453</Weight>
                <Weight>2.1631774342642163</Weight>
                <Weight>2.6415190775454995</Weight>
                <Weight>1.0693067208294438</Weight>
                <Weight>1.0364931365622911</Weight>
                <Weight>0.81160741778005907</Weight>
                <Weight>0.28936807663245828</Weight>
                <Weight>-0.2778577139070656</Weight>
                <Weight>1.5117048239394668</Weight>
                <Weight>-0.6588804513538955</Weight>
                <Weight>1.8509433817428507</Weight>
                <Weight>0.76817550985256278</Weight>
                <Weight>0.033856003178608873</Weight>
                <Weight>-1.1259215937663014</Weight>
                <Weight>-1.0828236817209278</Weight>
                <Weight>0.37184318965625579</Weight>
                <Weight>-0.62328324553688108</Weight>
                <Weight>1.4321670050083934</Weight>
                <Weight>-0.11801141705110048</Weight>
                <Weight>0.64885235079069159</Weight>
                <Weight>1.215375131944914</Weight>
                <Weight>1.3619060102688947</Weight>
                <Weight>1.8453268468559165</Weight>
                <Weight>0.33826269071799819</Weight>
                <Weight>-1.0348480848268218</Weight>
                <Weight>0.51217697599378731</Weight>
                <Weight>0.63038622585997872</Weight>
                <Weight>0.87241931047096333</Weight>
                <Weight>0.54203170527608435</Weight>
                <Weight>0.94747936518927089</Weight>
                <Weight>-0.32393638038894379</Weight>
                <Weight>0.67093556059173165</Weight>
                <Weight>0.2038484241177555</Weight>
                <Weight>-0.37757135049353624</Weight>
                <Weight>1.1721447393429842</Weight>
                <Weight>-1.0403977767567185</Weight>
            </Weights>
        </Neuron>
        <Neuron>
            <Bias>2.0063500641636889</Bias>
            <Weights>
                <Weight>-1.7412092187508563</Weight>
                <Weight>0.39517829083169664</Weight>
                <Weight>-0.18839268922110769</Weight>
                <Weight>0.50913076359187137</Weight>
                <Weight>1.128732314625017</Weight>
                <Weight>1.8125467711869823</Weight>
                <Weight>-0.20675741611218243</Weight>
                <Weight>0.7955756173780304</Weight>
                <Weight>-1.2036321841990922</Weight>
                <Weight>0.76633747260172869</Weight>
                <Weight>0.3224984854444789</Weight>
                <Weight>-0.3055165068687325</Weight>
                <Weight>1.2853161535507065</Weight>
                <Weight>-0.70157361315053568</Weight>
                <Weight>1.1873139164184701</Weight>
                <Weight>0.55583302878492047</Weight>
                <Weight>-1.3449164464013346</Weight>
                <Weight>-1.2287853001447993</Weight>
                <Weight>0.085557153827271068</Weight>
                <Weight>-0.50086099369629078</Weight>
                <Weight>-0.0010257756617484937</Weight>
                <Weight>0.8137932671780046</Weight>
                <Weight>-0.16450763204747909</Weight>
                <Weight>0.12876452670446989</Weight>
                <Weight>-1.0386142297509755</Weight>
                <Weight>0.21049953869395255</Weight>
                <Weight>-1.8644724022920631</Weight>
                <Weight>0.51944943510016828</Weight>
                <Weight>-1.0322494659699901</Weight>
                <Weight>0.60857342990256469</Weight>
                <Weight>-0.1092508104463603</Weight>
                <Weight>-1.185691981324047</Weight>
                <Weight>-0.62962070567361872</Weight>
                <Weight>0.85551893002358137</Weight>
                <Weight>0.96622750905065391</Weight>
                <Weight>1.1075170151796987</Weight>
                <Weight>0.48252952131691773</Weight>
                <Weight>-1.6948707046183966</Weight>
            </Weights>
        </Neuron>
        <Neuron>
            <Bias>-0.099368847259156678</Bias>
            <Weights>
                <Weight>0.71197164578528715</Weight>
                <Weight>0.12640976837157561</Weight>
                <Weight>1.2430587270702804</Weight>
                <Weight>-0.0074493749327914473</Weight>
                <Weight>0.25260905478158541</Weight>
                <Weight>1.0509164573231111</Weight>
                <Weight>0.27053219492626607</Weight>
                <Weight>0.48798660109390973</Weight>
                <Weight>-1.2801884519469033</Weight>
                <Weight>0.2396570657760364</Weight>
                <Weight>0.061124710723233416</Weight>
                <Weight>0.26485732373193294</Weight>
                <Weight>-1.2118714691543078</Weight>
                <Weight>-1.8314520632331155</Weight>
                <Weight>1.3087143473376037</Weight>
                <Weight>0.89812542571254261</Weight>
                <Weight>0.056132603784068556</Weight>
                <Weight>-0.50017549868397804</Weight>
                <Weight>-0.52152594856971835</Weight>
                <Weight>0.60683603291970434</Weight>
                <Weight>0.16390158909364813</Weight>
                <Weight>0.89710834761735625</Weight>
                <Weight>0.15456798612011666</Weight>
                <Weight>-1.5404478695425372</Weight>
                <Weight>-0.40473758687866263</Weight>
                <Weight>-0.036798295720098351</Weight>
                <Weight>-2.6501550382218126</Weight>
                <Weight>-0.38504445862992753</Weight>
                <Weight>0.97392292177893769</Weight>
                <Weight>-0.6078520233367577</Weight>
                <Weight>-1.2773226484313043</Weight>
                <Weight>-1.3458690069466115</Weight>
                <Weight>0.9979743703170304</Weight>
                <Weight>0.24000561233549592</Weight>
                <Weight>-0.26597393290030569</Weight>
                <Weight>0.81955057033394429</Weight>
                <Weight>0.70813242738843307</Weight>
                <Weight>-0.16160053869667448</Weight>
            </Weights>
        </Neuron>
        <Neuron>
            <Bias>0.18543500842692079</Bias>
            <Weights>
                <Weight>0.15042856062270368</Weight>
                <Weight>-0.58261335840651152</Weight>
                <Weight>-0.43806625855156905</Weight>
                <Weight>-0.82508844719953423</Weight>
                <Weight>0.4571921900539675</Weight>
                <Weight>-0.12422039887768997</Weight>
                <Weight>0.78150985508897297</Weight>
                <Weight>0.38939457380103848</Weight>
                <Weight>0.49222354929515805</Weight>
                <Weight>-0.51378809400896797</Weight>
                <Weight>-1.7159145528577631</Weight>
                <Weight>-0.2896513805256391</Weight>
                <Weight>0.31909686252724545</Weight>
                <Weight>0.63988651374859962</Weight>
                <Weight>1.686072222523306</Weight>
                <Weight>-0.62124662452064272</Weight>
                <Weight>0.69975225733805435</Weight>
                <Weight>0.77935657619483267</Weight>
                <Weight>-0.68933687634976493</Weight>
                <Weight>0.95582879260697751</Weight>
                <Weight>-0.38463920340261959</Weight>
                <Weight>-1.3166649103181089</Weight>
                <Weight>-0.52416672478385806</Weight>
                <Weight>-2.8972895533177572</Weight>
                <Weight>-0.44704976930561435</Weight>
                <Weight>0.56647266635061044</Weight>
                <Weight>1.7097196814133231</Weight>
                <Weight>0.86252180500444287</Weight>
                <Weight>0.58304034948336347</Weight>
                <Weight>0.25248490178488059</Weight>
                <Weight>1.9037584327104276</Weight>
                <Weight>-0.22159765180604241</Weight>
                <Weight>0.94484205598833038</Weight>
                <Weight>0.70586895302719643</Weight>
                <Weight>-0.25273844098820597</Weight>
                <Weight>0.67536259607987192</Weight>
                <Weight>-0.30695214523406528</Weight>
                <Weight>0.55730528083563846</Weight>
            </Weights>
        </Neuron>
        <Neuron>
            <Bias>0.55475001188685691</Bias>
            <Weights>
                <Weight>2.0142732335832614</Weight>
                <Weight>-0.10610458242551522</Weight>
                <Weight>-0.69637546722292754</Weight>
                <Weight>-1.4790595319628472</Weight>
                <Weight>1.4020580435617755</Weight>
                <Weight>0.49540909121583587</Weight>
                <Weight>1.3720778789199723</Weight>
                <Weight>1.0535693564605118</Weight>
                <Weight>-1.5083812307781952</Weight>
                <Weight>0.51010313751372083</Weight>
                <Weight>0.17472702065101264</Weight>
                <Weight>0.044008470701439928</Weight>
                <Weight>-0.44855958720042916</Weight>
                <Weight>0.63049225753591154</Weight>
                <Weight>-0.013979825248530081</Weight>
                <Weight>-1.0508079349630903</Weight>
                <Weight>-1.3019755520187748</Weight>
                <Weight>0.538838479580381</Weight>
                <Weight>0.32511961116974303</Weight>
                <Weight>-1.4555971615214602</Weight>
                <Weight>0.75778801894681669</Weight>
                <Weight>0.31287208216189827</Weight>
                <Weight>0.23952437647404756</Weight>
                <Weight>0.74846043279147978</Weight>
                <Weight>-0.66137013091716401</Weight>
                <Weight>0.41079373231104249</Weight>
                <Weight>1.0379282597462227</Weight>
                <Weight>-0.71856607511796955</Weight>
                <Weight>-0.20635498085196971</Weight>
                <Weight>1.2196234090515305</Weight>
                <Weight>-0.19238118834930754</Weight>
                <Weight>-0.10898486806567924</Weight>
                <Weight>-1.1842897656891298</Weight>
                <Weight>-2.0465166394612861</Weight>
                <Weight>-0.27159460465530688</Weight>
                <Weight>0.75894641810404517</Weight>
                <Weight>1.4657515587404011</Weight>
                <Weight>0.53353593058368898</Weight>
            </Weights>
        </Neuron>
        <Neuron>
            <Bias>0.55969540162129106</Bias>
            <Weights>
                <Weight>-1.0419069223173452</Weight>
                <Weight>0.82026500444829054</Weight>
                <Weight>1.4240817934427639</Weight>
                <Weight>0.48120003601686528</Weight>
                <Weight>-0.14465126155845764</Weight>
                <Weight>0.7414532721840168</Weight>
                <Weight>-1.8069707103015569</Weight>
                <Weight>-0.13605011741963807</Weight>
                <Weight>0.12428382907648897</Weight>
                <Weight>1.8803157447390693</Weight>
                <Weight>0.1940362570703518</Weight>
                <Weight>-1.2088066133035895</Weight>
                <Weight>2.2202198731343104</Weight>
                <Weight>-0.03752635706971888</Weight>
                <Weight>1.037361735628711</Weight>
                <Weight>-0.0069787165492973535</Weight>
                <Weight>-0.93034027105481398</Weight>
                <Weight>0.031560325287451632</Weight>
                <Weight>-0.77916755538460292</Weight>
                <Weight>-1.2995505333720385</Weight>
                <Weight>-1.4383468835682434</Weight>
                <Weight>1.4832870105404039</Weight>
                <Weight>0.75178690386575531</Weight>
                <Weight>-0.50020853618130756</Weight>
                <Weight>-0.30729443743285384</Weight>
                <Weight>-0.46367329917501621</Weight>
                <Weight>1.0300506459409529</Weight>
                <Weight>1.5863496799690868</Weight>
                <Weight>0.39197057216638398</Weight>
                <Weight>-0.859418608039073</Weight>
                <Weight>-0.67753622619494769</Weight>
                <Weight>0.11118048332803392</Weight>
                <Weight>-0.15028635707321431</Weight>
                <Weight>-0.24510126959964354</Weight>
                <Weight>-0.72796719892915263</Weight>
                <Weight>-0.92107849005062614</Weight>
                <Weight>-0.26868683159930989</Weight>
                <Weight>-0.30151716231396458</Weight>
            </Weights>
        </Neuron>
        <Neuron>
            <Bias>-3.2604596625454363</Bias>
            <Weights>
                <Weight>-0.32734015880857215</Weight>
                <Weight>-0.85407062484761198</Weight>
                <Weight>1.4264073268270649</Weight>
                <Weight>0.072123498153158952</Weight>
                <Weight>-0.19967984407569211</Weight>
                <Weight>1.1363151101582074</Weight>
                <Weight>0.49802306756441023</Weight>
                <Weight>0.64348885758348562</Weight>
                <Weight>-0.010800663243674097</Weight>
                <Weight>0.4836275658466887</Weight>
                <Weight>0.63774422516526497</Weight>
                <Weight>1.0038095971655177</Weight>
                <Weight>-1.1792988786566245</Weight>
                <Weight>0.90354343552949179</Weight>
                <Weight>1.0444791154721162</Weight>
                <Weight>-0.085238481484065001</Weight>
                <Weight>-1.3728175317201847</Weight>
                <Weight>-0.40518755545297763</Weight>
                <Weight>0.27108083004067185</Weight>
                <Weight>-0.77751566123372207</Weight>
                <Weight>-0.96184215824478236</Weight>
                <Weight>0.48793110561020142</Weight>
                <Weight>-0.092467477559972283</Weight>
                <Weight>-1.4249470593139695</Weight>
                <Weight>0.57526964657942692</Weight>
                <Weight>0.19705833070347858</Weight>
                <Weight>-1.1716041229458052</Weight>
                <Weight>1.1178701564221183</Weight>
                <Weight>-1.1074238495310555</Weight>
                <Weight>0.92415364865999805</Weight>
                <Weight>0.99118826448651765</Weight>
                <Weight>1.6517900206920242</Weight>
                <Weight>0.8645294043196714</Weight>
                <Weight>2.0327224994002142</Weight>
                <Weight>-1.4415637067192832</Weight>
                <Weight>-1.7663290771563429</Weight>
                <Weight>-0.27994988064940235</Weight>
                <Weight>-0.79969792092593983</Weight>
            </Weights>
        </Neuron>
        <Neuron>
            <Bias>-0.5848623849563489</Bias>
            <Weights>
                <Weight>-0.75584534242722923</Weight>
                <Weight>-0.50499718821767825</Weight>
                <Weight>2.4699844873506631</Weight>
                <Weight>0.98677581516063595</Weight>
                <Weight>0.92405912203188201</Weight>
                <Weight>0.28472254284954412</Weight>
                <Weight>0.13244484319690392</Weight>
                <Weight>0.14555001685456484</Weight>
                <Weight>-1.2126783975388575</Weight>
                <Weight>-1.8095247845258506</Weight>
                <Weight>-0.17233374875946275</Weight>
                <Weight>0.65710925624424377</Weight>
                <Weight>-1.5185936444631947</Weight>
                <Weight>-0.72097602289252571</Weight>
                <Weight>-0.99774932430701957</Weight>
                <Weight>0.18580743911122219</Weight>
                <Weight>-0.53018915185035553</Weight>
                <Weight>0.047545372117013832</Weight>
                <Weight>0.43770955015487129</Weight>
                <Weight>0.0071288744533213972</Weight>
                <Weight>0.62759985767491644</Weight>
                <Weight>0.49938479250579554</Weight>
                <Weight>-0.029603379683436321</Weight>
                <Weight>-2.0504714096436114</Weight>
                <Weight>0.92898442601707021</Weight>
                <Weight>0.1390357552974896</Weight>
                <Weight>0.19569748519708158</Weight>
                <Weight>-1.0075701116663669</Weight>
                <Weight>1.0743618205523124</Weight>
                <Weight>-0.52038175926289942</Weight>
                <Weight>-0.2189797801094672</Weight>
                <Weight>-3.1137993942918176</Weight>
                <Weight>0.26299987328180324</Weight>
                <Weight>0.25637376300788833</Weight>
                <Weight>0.14098971537047023</Weight>
                <Weight>-0.82766221949862084</Weight>
                <Weight>-0.25162176334452763</Weight>
                <Weight>-0.85456399518507031</Weight>
            </Weights>
        </Neuron>
        <Neuron>
            <Bias>0.14853716462504798</Bias>
            <Weights>
                <Weight>-0.08554221748322606</Weight>
                <Weight>-0.58708772327662362</Weight>
                <Weight>0.20385141278905597</Weight>
                <Weight>0.2090600651647562</Weight>
                <Weight>1.4922245687357996</Weight>
                <Weight>-1.0288606950059973</Weight>
                <Weight>0.99705039914200033</Weight>
                <Weight>0.62835167096944711</Weight>
                <Weight>-0.26041471571071334</Weight>
                <Weight>0.51279344152064177</Weight>
                <Weight>-0.93635708587939337</Weight>
                <Weight>-0.20693970561397537</Weight>
                <Weight>-0.88296621492269278</Weight>
                <Weight>-1.807347436442146</Weight>
                <Weight>0.18265520871740834</Weight>
                <Weight>-0.73585642518363392</Weight>
                <Weight>-0.66717174487845909</Weight>
                <Weight>0.66819618698927574</Weight>
                <Weight>-0.072321587307531798</Weight>
                <Weight>-0.086421442894842326</Weight>
                <Weight>-1.3707915687534069</Weight>
                <Weight>0.61242177503491713</Weight>
                <Weight>0.068340597148867033</Weight>
                <Weight>2.4573873830785078</Weight>
                <Weight>-0.66366422438662021</Weight>
                <Weight>-1.7343351877670754</Weight>
                <Weight>-1.4822688869769725</Weight>
                <Weight>-0.89546280765369424</Weight>
                <Weight>0.39457390246105956</Weight>
                <Weight>0.55741444762297421</Weight>
                <Weight>1.7476661351284313</Weight>
                <Weight>-0.18950403264687557</Weight>
                <Weight>0.11014467344047267</Weight>
                <Weight>-0.6903047508287492</Weight>
                <Weight>0.44471942064178627</Weight>
                <Weight>-2.0377270313420661</Weight>
                <Weight>-1.0681511604108525</Weight>
                <Weight>-0.35423038077699354</Weight>
            </Weights>
        </Neuron>
    </Layer>
    <Layer type="output" transferFunction="1">
        <Neuron>
            <Bias>-0.0084117522444652204</Bias>
            <Weights>
                <Weight>-1.4850489305110592</Weight>
                <Weight>0.86250197016203256</Weight>
                <Weight>0.31898003118590501</Weight>
                <Weight>-1.641783164992267</Weight>
                <Weight>-0.69113449692782214</Weight>
                <Weight>-0.31113142385609333</Weight>
                <Weight>-0.5178509986352704</Weight>
                <Weight>-0.46937890357718581</Weight>
                <Weight>0.38787480090313553</Weight>
                <Weight>-1.6572553338150462</Weight>
                <Weight>-1.6887303629244947</Weight>
                <Weight>-2.6368534841481344</Weight>
                <Weight>0.76542089892508058</Weight>
                <Weight>-0.1513687894458807</Weight>
                <Weight>1.7664186026916937</Weight>
                <Weight>-0.54617140332655234</Weight>
                <Weight>-0.30773338153332863</Weight>
                <Weight>-1.0852579455845348</Weight>
                <Weight>0.38440916189731411</Weight>
                <Weight>-1.1237897801905248</Weight>
                <Weight>-0.0111444388670097</Weight>
                <Weight>-0.86816101448821048</Weight>
                <Weight>0.66364508609876849</Weight>
                <Weight>0.54161557304038643</Weight>
            </Weights>
        </Neuron>
        <Neuron>
            <Bias>-0.070788601278350655</Bias>
            <Weights>
                <Weight>0.97086968217600733</Weight>
                <Weight>-0.20999521184162473</Weight>
                <Weight>1.066318608658382</Weight>
                <Weight>2.3858119572032255</Weight>
                <Weight>-0.96317398000971521</Weight>
                <Weight>0.63244506804314826</Weight>
                <Weight>-0.21484002131155472</Weight>
                <Weight>0.48056874334722061</Weight>
                <Weight>-1.618588718496319</Weight>
                <Weight>0.83709033353827278</Weight>
                <Weight>0.38690994686369423</Weight>
                <Weight>1.1761837096576357</Weight>
                <Weight>0.63286269541721329</Weight>
                <Weight>1.2506954926928326</Weight>
                <Weight>0.20379446579247337</Weight>
                <Weight>-2.6777961355785256</Weight>
                <Weight>-1.3863347607324599</Weight>
                <Weight>0.021407491600494436</Weight>
                <Weight>-1.3649200928815635</Weight>
                <Weight>-1.6945893370238323</Weight>
                <Weight>-0.10320836050789432</Weight>
                <Weight>0.27571580696667258</Weight>
                <Weight>-0.2372576058003005</Weight>
                <Weight>0.34314092951188457</Weight>
            </Weights>
        </Neuron>
    </Layer>
</NeuralNetwork>
