<NeuralNetwork>
    <Layer type="input" transferFunction="0" size="7"/>
    <Layer type="hidden" transferFunction="4">
        <Neuron>
            <Bias>0.95817805594512229</Bias>
            <Weights>
                <Weight>-0.90641071720086586</Weight>
                <Weight>-1.7672315735715098</Weight>
                <Weight>-0.47303829396253511</Weight>
                <Weight>-0.68446303046221324</Weight>
                <Weight>-0.30974484783764261</Weight>
                <Weight>-0.76985565213668428</Weight>
                <Weight>-0.39255895011406428</Weight>
            </Weights>
        </Neuron>
        <Neuron>
            <Bias>-0.014984757837937348</Bias>
            <Weights>
                <Weight>-1.16768367474903</Weight>
                <Weight>-0.28780205927881569</Weight>
                <Weight>1.4165487325841379</Weight>
                <Weight>-0.19882786766747557</Weight>
                <Weight>1.2780947420704176</Weight>
                <Weight>-0.078444968219439887</Weight>
                <Weight>-0.93631768330413312</Weight>
            </Weights>
        </Neuron>
        <Neuron>
            <Bias>-0.42443158517349877</Bias>
            <Weights>
                <Weight>0.74862154647923196</Weight>
                <Weight>-0.46795290838126535</Weight>
                <Weight>-0.37666646218757482</Weight>
                <Weight>-0.0012892129625084894</Weight>
                <Weight>-0.062271057624613491</Weight>
                <Weight>-0.90558506194904498</Weight>
                <Weight>1.2525718838771553</Weight>
            </Weights>
        </Neuron>
        <Neuron>
            <Bias>0.25512486267137768</Bias>
            <Weights>
                <Weight>1.037689334390911</Weight>
                <Weight>1.0417072639084659</Weight>
                <Weight>-0.77086821886362999</Weight>
                <Weight>-0.2021255780886993</Weight>
                <Weight>-0.81565634826349598</Weight>
                <Weight>1.343862477743037</Weight>
                <Weight>0.32778605096130187</Weight>
            </Weights>
        </Neuron>
        <Neuron>
            <Bias>2.1796447523527704</Bias>
            <Weights>
                <Weight>1.4668377081619897</Weight>
                <Weight>-0.53227315302709799</Weight>
                <Weight>0.53475875666997408</Weight>
                <Weight>-1.7586391266370831</Weight>
                <Weight>0.97963886607367134</Weight>
                <Weight>-0.57707376550819323</Weight>
                <Weight>0.22852086604522398</Weight>
            </Weights>
        </Neuron>
        <Neuron>
            <Bias>0.53781190362657771</Bias>
            <Weights>
                <Weight>0.20098709219579394</Weight>
                <Weight>-0.70163303778498443</Weight>
                <Weight>0.23429010513721826</Weight>
                <Weight>0.59382834125596351</Weight>
                <Weight>-1.3152393480534601</Weight>
                <Weight>0.94404568952801127</Weight>
                <Weight>-0.26577758329043272</Weight>
            </Weights>
        </Neuron>
        <Neuron>
            <Bias>0.7984945224858031</Bias>
            <Weights>
                <Weight>0.5767267838184037</Weight>
                <Weight>-1.1140787336724944</Weight>
                <Weight>-0.065823363101967042</Weight>
                <Weight>0.049546603976885956</Weight>
                <Weight>0.23093520398877618</Weight>
                <Weight>0.081951012104446233</Weight>
                <Weight>-0.43698538075380988</Weight>
            </Weights>
        </Neuron>
        <Neuron>
            <Bias>-1.4810871494712354</Bias>
            <Weights>
                <Weight>-0.2256059040172794</Weight>
                <Weight>-0.057510602533094916</Weight>
                <Weight>1.6187569991545294</Weight>
                <Weight>-0.58709178929701433</Weight>
                <Weight>1.0194086988549866</Weight>
                <Weight>1.0102714806997946</Weight>
                <Weight>0.041372236221539752</Weight>
            </Weights>
        </Neuron>
        <Neuron>
            <Bias>-0.87451971167816833</Bias>
            <Weights>
                <Weight>-1.4568376800931317</Weight>
                <Weight>-0.44417348779863908</Weight>
                <Weight>-0.18927436653505905</Weight>
                <Weight>1.5836198196273328</Weight>
                <Weight>-0.52193138849962373</Weight>
                <Weight>-0.10150372568116281</Weight>
                <Weight>-0.67969258806841848</Weight>
            </Weights>
        </Neuron>
        <Neuron>
            <Bias>0.8785138415149506</Bias>
            <Weights>
                <Weight>-0.26229448800265054</Weight>
                <Weight>0.53768805070364956</Weight>
                <Weight>0.45344792148982827</Weight>
                <Weight>0.77991475760071127</Weight>
                <Weight>-0.49403021397849839</Weight>
                <Weight>0.90532635325084676</Weight>
                <Weight>0.1875839946294694</Weight>
            </Weights>
        </Neuron>
        <Neuron>
            <Bias>-1.1817635764543108</Bias>
            <Weights>
                <Weight>-0.94447204244480765</Weight>
                <Weight>0.24022647496889762</Weight>
                <Weight>-0.72423780049711062</Weight>
                <Weight>0.98740989817743186</Weight>
                <Weight>-0.47700299795392725</Weight>
                <Weight>0.6343164838202503</Weight>
                <Weight>0.71110837619317568</Weight>
            </Weights>
        </Neuron>
        <Neuron>
            <Bias>0.8320233577015006</Bias>
            <Weights>
                <Weight>0.47967839004527396</Weight>
                <Weight>0.39683065867935668</Weight>
                <Weight>-1.5044932588091289</Weight>
                <Weight>0.033102057685727722</Weight>
                <Weight>-1.1645938257156292</Weight>
                <Weight>-0.81635313217600014</Weight>
                <Weight>0.049379731349687428</Weight>
            </Weights>
        </Neuron>
        <Neuron>
            <Bias>-1.2933881167602117</Bias>
            <Weights>
                <Weight>0.023882303475921528</Weight>
                <Weight>0.90606860443189929</Weight>
                <Weight>1.3588047073300233</Weight>
                <Weight>-0.96239630368129281</Weight>
                <Weight>0.55836960564242744</Weight>
                <Weight>-1.1903325991690834</Weight>
                <Weight>-0.05120830175650664</Weight>
            </Weights>
        </Neuron>
        <Neuron>
            <Bias>-0.86939338811956923</Bias>
            <Weights>
                <Weight>0.30690292106659856</Weight>
                <Weight>2.2045059519507766</Weight>
                <Weight>-0.35297538378382132</Weight>
                <Weight>-0.6739955271281779</Weight>
                <Weight>-0.87062843742080798</Weight>
                <Weight>-0.77625689134540254</Weight>
                <Weight>1.1826363773827988</Weight>
            </Weights>
        </Neuron>
    </Layer>
    <Layer type="hidden" transferFunction="2">
        <Neuron>
            <Bias>-0.11088982730904444</Bias>
            <Weights>
                <Weight>-0.72399904790129332</Weight>
                <Weight>-1.4037755965677841</Weight>
                <Weight>1.1521970305789029</Weight>
                <Weight>0.110278798835329</Weight>
                <Weight>-0.35781606005528066</Weight>
                <Weight>1.1523629299010882</Weight>
                <Weight>0.099064855490754347</Weight>
                <Weight>-0.4302071729242038</Weight>
                <Weight>1.0437006935084929</Weight>
                <Weight>0.0072316911161027647</Weight>
                <Weight>0.69385212741698632</Weight>
                <Weight>0.13021065748539759</Weight>
                <Weight>1.4799469282734949</Weight>
                <Weight>-1.8182506171393953</Weight>
            </Weights>
        </Neuron>
        <Neuron>
            <Bias>1.5679229741637426</Bias>
            <Weights>
                <Weight>2.5917070374381956</Weight>
                <Weight>1.2970992389163745</Weight>
                <Weight>1.2136304298586811</Weight>
                <Weight>-0.082586433040114579</Weight>
                <Weight>1.5856781401106133</Weight>
                <Weight>1.8000761547723145</Weight>
                <Weight>-1.872797909437699</Weight>
                <Weight>0.40353747591545203</Weight>
                <Weight>0.70063781713977125</Weight>
                <Weight>-0.15126068332036172</Weight>
                <Weight>-0.78462884833841195</Weight>
                <Weight>1.4233108572094988</Weight>
                <Weight>-1.6788799566666492</Weight>
                <Weight>-0.47129883067005723</Weight>
            </Weights>
        </Neuron>
        <Neuron>
            <Bias>-0.32368389211022935</Bias>
            <Weights>
                <Weight>0.7123899821030838</Weight>
                <Weight>0.25337597117795346</Weight>
                <Weight>-0.23918695612937277</Weight>
                <Weight>1.1964668746756346</Weight>
                <Weight>-1.6170972107175337</Weight>
                <Weight>0.43782769289402212</Weight>
                <Weight>1.8376062397873882</Weight>
                <Weight>-1.647996748926768</Weight>
                <Weight>-0.33223080872056865</Weight>
                <Weight>-0.47837693188561398</Weight>
                <Weight>0.28405776962384394</Weight>
                <Weight>-0.027409686375627979</Weight>
                <Weight>-0.27303534105008226</Weight>
                <Weight>-0.73623971464058524</Weight>
            </Weights>
        </Neuron>
        <Neuron>
            <Bias>1.3449775247100084</Bias>
            <Weights>
                <Weight>1.2576858539560487</Weight>
                <Weight>1.1628373391130604</Weight>
                <Weight>0.071849895283277732</Weight>
                <Weight>1.2967807765240111</Weight>
                <Weight>2.6548278214964443</Weight>
                <Weight>-0.9023603981825864</Weight>
                <Weight>-0.085945591189615728</Weight>
                <Weight>-0.42932795203765217</Weight>
                <Weight>-0.33222883394418223</Weight>
                <Weight>-0.23723054786867609</Weight>
                <Weight>-0.89516192859057531</Weight>
                <Weight>-2.3355122670718007</Weight>
                <Weight>-2.1821282346067932</Weight>
                <Weight>-0.84093991535458212</Weight>
            </Weights>
        </Neuron>
        <Neuron>
            <Bias>-0.18742484718726757</Bias>
            <Weights>
                <Weight>-0.82468430524962155</Weight>
                <Weight>-0.64930752798293567</Weight>
                <Weight>-0.50620530235386141</Weight>
                <Weight>1.2588774609919526</Weight>
                <Weight>-1.731531497815328</Weight>
                <Weight>-0.6666647024932113</Weight>
                <Weight>-0.31612525008717474</Weight>
                <Weight>-0.068516008536995091</Weight>
                <Weight>1.5942093130494068</Weight>
                <Weight>-0.28564911463464643</Weight>
                <Weight>-1.0971893443577523</Weight>
                <Weight>1.816608696137425</Weight>
                <Weight>-2.4099157266206985</Weight>
                <Weight>0.43480394119806692</Weight>
            </Weights>
        </Neuron>
        <Neuron>
            <Bias>0.86204701550735252</Bias>
            <Weights>
                <Weight>1.1206311976024266</Weight>
                <Weight>0.48929558354733538</Weight>
                <Weight>-0.69906369407303959</Weight>
                <Weight>-1.2540625870319684</Weight>
                <Weight>-0.58534406048038023</Weight>
                <Weight>1.0413468949750282</Weight>
                <Weight>1.7494573131922122</Weight>
                <Weight>0.60080029241405553</Weight>
                <Weight>0.11143366957504305</Weight>
                <Weight>0.51663236806231627</Weight>
                <Weight>0.44804034998766573</Weight>
                <Weight>-1.3057311209481015</Weight>
                <Weight>0.15118887492140004</Weight>
                <Weight>-0.0019760466760263499</Weight>
            </Weights>
        </Neuron>
        <Neuron>
            <Bias>1.4290614489739806</Bias>
            <Weights>
                <Weight>-0.54032486966187232</Weight>
                <Weight>0.018834627239466953</Weight>
                <Weight>-1.4804956373298575</Weight>
                <Weight>0.36592180668614926</Weight>
                <Weight>0.94659265302618745</Weight>
                <Weight>2.1604659437046063</Weight>
                <Weight>1.3037706007968071</Weight>
                <Weight>-0.25799583629153433</Weight>
                <Weight>-0.10463913338995089</Weight>
                <Weight>0.92208803536260175</Weight>
                <Weight>-0.46590250862362143</Weight>
                <Weight>0.45291247533951101</Weight>
                <Weight>0.34130573392609537</Weight>
                <Weight>-2.1978981374957449</Weight>
            </Weights>
        </Neuron>
        <Neuron>
            <Bias>-0.49084391723757581</Bias>
            <Weights>
                <Weight>-1.0007314876588642</Weight>
                <Weight>-0.15993094802357685</Weight>
                <Weight>-0.50703533781823795</Weight>
                <Weight>-0.5493210571460917</Weight>
                <Weight>0.6052542362219292</Weight>
                <Weight>-1.2475552652147563</Weight>
                <Weight>-0.56666892004384017</Weight>
                <Weight>1.5890916624258618</Weight>
                <Weight>0.18960235629102781</Weight>
                <Weight>-1.1667558533297444</Weight>
                <Weight>0.74935299471771244</Weight>
                <Weight>-0.81977233290937568</Weight>
                <Weight>1.2278134578785249</Weight>
                <Weight>-0.28658091784736667</Weight>
            </Weights>
        </Neuron>
        <Neuron>
            <Bias>2.7893351588185999</Bias>
            <Weights>
                <Weight>-1.2484833489349276</Weight>
                <Weight>0.34931345427375815</Weight>
                <Weight>-0.035836315087723287</Weight>
                <Weight>-0.61463707803734202</Weight>
                <Weight>0.93557923580713809</Weight>
                <Weight>1.5725821711993722</Weight>
                <Weight>0.68364077876480489</Weight>
                <Weight>-0.60479246150762844</Weight>
                <Weight>-2.1612303106880204</Weight>
                <Weight>-0.55967155392831747</Weight>
                <Weight>0.16807218284876968</Weight>
                <Weight>-1.4380256026759244</Weight>
                <Weight>-1.1112522840281953</Weight>
                <Weight>-0.27932971872229767</Weight>
            </Weights>
        </Neuron>
        <Neuron>
            <Bias>1.4686629274261909</Bias>
            <Weights>
                <Weight>-1.3300699509548506</Weight>
                <Weight>0.54029723880990965</Weight>
                <Weight>1.0170747190555813</Weight>
                <Weight>-1.3913034146292118</Weight>
                <Weight>1.0388319586548564</Weight>
                <Weight>0.097897498633061769</Weight>
                <Weight>-2.2631180807034843</Weight>
                <Weight>-0.71489385805733541</Weight>
                <Weight>0.61516676296284012</Weight>
                <Weight>0.30921744803716011</Weight>
                <Weight>1.4344526543705025</Weight>
                <Weight>0.41643507424850201</Weight>
                <Weight>2.3333134030702873</Weight>
                <Weight>-0.0075745363115960664</Weight>
            </Weights>
        </Neuron>
        <Neuron>
            <Bias>1.0741988550860424</Bias>
            <Weights>
                <Weight>-1.6898090993158803</Weight>
                <Weight>-0.63311342377826174</Weight>
                <Weight>-0.25950403684516948</Weight>
                <Weight>0.71416131409183603</Weight>
                <Weight>-1.5656497549790078</Weight>
                <Weight>0.36296572310269076</Weight>
                <Weight>0.60417560132512926</Weight>
                <Weight>0.98984738281953022</Weight>
                <Weight>0.69046621293477728</Weight>
                <Weight>-0.35749998660441973</Weight>
                <Weight>1.4478844500306878</Weight>
                <Weight>-0.32447088211242708</Weight>
                <Weight>-2.0218107978126372</Weight>
                <Weight>1.5520227229225234</Weight>
            </Weights>
        </Neuron>
        <Neuron>
            <Bias>0.21736602289384352</Bias>
            <Weights>
                <Weight>-1.0041222666533514</Weight>
                <Weight>0.16821304352706559</Weight>
                <Weight>0.21409669222544409</Weight>
                <Weight>0.23449190948257528</Weight>
                <Weight>0.065658708999806567</Weight>
                <Weight>-0.04541382348332762</Weight>
                <Weight>-0.77792362591576747</Weight>
                <Weight>0.34535814913933466</Weight>
                <Weight>-0.74568213920915594</Weight>
                <Weight>-2.0160956092455513</Weight>
                <Weight>-1.7815237027160757</Weight>
                <Weight>-0.28138080609354604</Weight>
                <Weight>-0.36571173234404186</Weight>
                <Weight>-0.47872215010425162</Weight>
            </Weights>
        </Neuron>
        <Neuron>
            <Bias>0.039828527033022129</Bias>
            <Weights>
                <Weight>-0.39513621906028717</Weight>
                <Weight>-1.2302039355432191</Weight>
                <Weight>0.33392343260989565</Weight>
                <Weight>1.0406304448034414</Weight>
                <Weight>-0.47851951553092442</Weight>
                <Weight>0.36576745582916892</Weight>
                <Weight>-0.8651211407175835</Weight>
                <Weight>-2.0455239376744889</Weight>
                <Weight>-0.15521888178606821</Weight>
                <Weight>1.2769063829063099</Weight>
                <Weight>0.64927246847845455</Weight>
                <Weight>0.93565605266321061</Weight>
                <Weight>-0.91770402223254965</Weight>
                <Weight>-0.3810356812343782</Weight>
            </Weights>
        </Neuron>
        <Neuron>
            <Bias>0.30604236458426015</Bias>
            <Weights>
                <Weight>-1.077036429648216</Weight>
                <Weight>-1.0285943667705553</Weight>
                <Weight>-0.15730842409848658</Weight>
                <Weight>-0.45457694186253733</Weight>
                <Weight>-1.3411245343878067</Weight>
                <Weight>-0.67605311635543486</Weight>
                <Weight>0.16844090680506402</Weight>
                <Weight>1.740342083504727</Weight>
                <Weight>1.720305921108958</Weight>
                <Weight>-1.0596723521245413</Weight>
                <Weight>0.4331077875967379</Weight>
                <Weight>-1.4729713100721369</Weight>
                <Weight>0.043495719491384123</Weight>
                <Weight>0.20861502629212858</Weight>
            </Weights>
        </Neuron>
        <Neuron>
            <Bias>1.2958947123373836</Bias>
            <Weights>
                <Weight>2.5689683175452518</Weight>
                <Weight>-0.42055808771314751</Weight>
                <Weight>0.37795597953810711</Weight>
                <Weight>1.3784649328868712</Weight>
                <Weight>0.0057729211962548443</Weight>
                <Weight>0.72726623291849568</Weight>
                <Weight>0.54208652860418849</Weight>
                <Weight>-0.14043458710386986</Weight>
                <Weight>-0.9853570019336918</Weight>
                <Weight>0.54070640369962097</Weight>
                <Weight>1.2253448157469706</Weight>
                <Weight>-0.54552673067387281</Weight>
                <Weight>-0.0715117756815834</Weight>
                <Weight>0.38324933566335057</Weight>
            </Weights>
        </Neuron>
        <Neuron>
            <Bias>-0.74525883049815966</Bias>
            <Weights>
                <Weight>0.74308236365983538</Weight>
                <Weight>-0.77325306659376458</Weight>
                <Weight>-0.18108334768390635</Weight>
                <Weight>0.33681028084187953</Weight>
                <Weight>-0.78577965499966174</Weight>
                <Weight>-0.44307414659261557</Weight>
                <Weight>1.5085677744237047</Weight>
                <Weight>1.3919838943060634</Weight>
                <Weight>-1.3150940378363389</Weight>
                <Weight>-0.63502404364560339</Weight>
                <Weight>0.43938580663502941</Weight>
                <Weight>0.12775060378321501</Weight>
                <Weight>-0.90536128476362654</Weight>
                <Weight>-0.17664129420603064</Weight>
            </Weights>
        </Neuron>
        <Neuron>
            <Bias>1.8861884864433274</Bias>
            <Weights>
                <Weight>-0.57632014778950802</Weight>
                <Weight>0.84017830738388677</Weight>
                <Weight>-0.46583514738585441</Weight>
                <Weight>1.01421036711919</Weight>
                <Weight>0.13627057991574729</Weight>
                <Weight>-0.046324513924740171</Weight>
                <Weight>-0.35706164931129336</Weight>
                <Weight>0.18720757357766138</Weight>
                <Weight>0.9944636483646393</Weight>
                <Weight>0.23827937184343745</Weight>
                <Weight>0.081663150265685394</Weight>
                <Weight>-1.5346023614216444</Weight>
                <Weight>0.26982637257471243</Weight>
                <Weight>-0.38194103307792721</Weight>
            </Weights>
        </Neuron>
        <Neuron>
            <Bias>-0.49923890359759893</Bias>
            <Weights>
                <Weight>-0.59485867006153204</Weight>
                <Weight>0.027439201578482911</Weight>
                <Weight>0.41868221623177715</Weight>
                <Weight>0.78796696740348549</Weight>
                <Weight>-1.9185504287202777</Weight>
                <Weight>0.71591270891199399</Weight>
                <Weight>1.2690716587203603</Weight>
                <Weight>0.84921386151487011</Weight>
                <Weight>0.82275538821525362</Weight>
                <Weight>-1.1797926972826538</Weight>
                <Weight>0.13114179189124922</Weight>
                <Weight>0.17469274811469415</Weight>
                <Weight>0.51921864381499727</Weight>
                <Weight>0.40101276888581588</Weight>
            </Weights>
        </Neuron>
        <Neuron>
            <Bias>0.014963265181697117</Bias>
            <Weights>
                <Weight>0.7302178941392351</Weight>
                <Weight>0.76415928885772599</Weight>
                <Weight>-1.2438519878405641</Weight>
                <Weight>0.57886732982049094</Weight>
                <Weight>-0.0062026506817501265</Weight>
                <Weight>-2.2560824735963139</Weight>
                <Weight>1.2580294549228552</Weight>
                <Weight>-0.27499397838966866</Weight>
                <Weight>0.53273921470127916</Weight>
                <Weight>-0.59826104610592734</Weight>
                <Weight>0.15482483623256862</Weight>
                <Weight>0.57788907091254982</Weight>
                <Weight>0.27090548868590369</Weight>
                <Weight>0.41614787533715009</Weight>
            </Weights>
        </Neuron>
        <Neuron>
            <Bias>0.37989816705352319</Bias>
            <Weights>
                <Weight>0.87005635250995772</Weight>
                <Weight>-1.1949185563326659</Weight>
                <Weight>0.94976583322970798</Weight>
                <Weight>-0.38418176866732889</Weight>
                <Weight>0.58920505963766434</Weight>
                <Weight>0.80275532838925667</Weight>
                <Weight>2.1406128868186953</Weight>
                <Weight>1.3513951064204794</Weight>
                <Weight>-1.2226521758839768</Weight>
                <Weight>-0.92134467342285531</Weight>
                <Weight>0.84622513022930412</Weight>
                <Weight>0.49305126731770721</Weight>
                <Weight>0.96587199546733971</Weight>
                <Weight>1.8696168691737849</Weight>
            </Weights>
        </Neuron>
        <Neuron>
            <Bias>0.080131897031603339</Bias>
            <Weights>
                <Weight>1.1721928136970834</Weight>
                <Weight>-0.017718980689552487</Weight>
                <Weight>0.59379483259291743</Weight>
                <Weight>-0.15695107165064714</Weight>
                <Weight>-1.4129216568381762</Weight>
                <Weight>-0.22145115629281242</Weight>
                <Weight>0.38222549598649358</Weight>
                <Weight>-1.4492141055258856</Weight>
                <Weight>0.30035101949868442</Weight>
                <Weight>-2.842254069865549</Weight>
                <Weight>-0.057579919878102279</Weight>
                <Weight>1.4613197540155822</Weight>
                <Weight>1.6626270939216821</Weight>
                <Weight>0.089786005520820764</Weight>
            </Weights>
        </Neuron>
    </Layer>
    <Layer type="output" transferFunction="1">
        <Neuron>
            <Bias>-1.1031921271668044</Bias>
            <Weights>
                <Weight>-1.0822824157824471</Weight>
                <Weight>0.46840501604771539</Weight>
                <Weight>2.101291256468651</Weight>
                <Weight>0.51252000802459086</Weight>
                <Weight>-0.56644029803203555</Weight>
                <Weight>1.6212658568224647</Weight>
                <Weight>1.7186264188261842</Weight>
                <Weight>0.22084474081971653</Weight>
                <Weight>-0.54291018521786294</Weight>
                <Weight>1.2381836859119362</Weight>
                <Weight>-0.17779576027485161</Weight>
                <Weight>-0.85370818229658807</Weight>
                <Weight>1.6409121677195113</Weight>
                <Weight>1.233097450666973</Weight>
                <Weight>0.94882259181177797</Weight>
                <Weight>-0.19497828600306852</Weight>
                <Weight>-1.6570112565373432</Weight>
                <Weight>-1.1097712083744504</Weight>
                <Weight>-1.0168799553265744</Weight>
                <Weight>-0.74357194868982379</Weight>
                <Weight>1.6138969727897188</Weight>
            </Weights>
        </Neuron>
        <Neuron>
            <Bias>-1.226419706504138</Bias>
            <Weights>
                <Weight>-0.065746510670329925</Weight>
                <Weight>0.041483233634661783</Weight>
                <Weight>-1.9138759895487367</Weight>
                <Weight>-0.3005131060278991</Weight>
                <Weight>0.062800318357461984</Weight>
                <Weight>-0.80230328947241003</Weight>
                <Weight>0.75287398589988108</Weight>
                <Weight>0.56845626875263255</Weight>
                <Weight>-0.41417544974627107</Weight>
                <Weight>1.0225825144763481</Weight>
                <Weight>0.84071394078924333</Weight>
                <Weight>0.81815127226918771</Weight>
                <Weight>0.74609278826310788</Weight>
                <Weight>-0.97973624933461567</Weight>
                <Weight>0.7387738627026027</Weight>
                <Weight>-1.1738593778990623</Weight>
                <Weight>0.39809076253455561</Weight>
                <Weight>0.23961767216814256</Weight>
                <Weight>-1.2349751810816914</Weight>
                <Weight>-0.38642728053984521</Weight>
                <Weight>0.57456810084123966</Weight>
            </Weights>
        </Neuron>
    </Layer>
</NeuralNetwork>
