<NeuralNetwork>
    <Layer type="input" transferFunction="0" size="7"/>
    <Layer type="hidden" transferFunction="3">
        <Neuron>
            <Bias>-1.2752673672517068</Bias>
            <Weights>
                <Weight>-1.3288519416378615</Weight>
                <Weight>-0.85587302522680631</Weight>
                <Weight>-0.04126996931417589</Weight>
                <Weight>-0.39393727436614689</Weight>
                <Weight>1.8299774795491051</Weight>
                <Weight>0.68943960653850866</Weight>
                <Weight>1.375683199631796</Weight>
            </Weights>
        </Neuron>
        <Neuron>
            <Bias>-2.543965673043501</Bias>
            <Weights>
                <Weight>0.86729280752373095</Weight>
                <Weight>1.0328512029465144</Weight>
                <Weight>0.21077483818329606</Weight>
                <Weight>-0.24364297739261692</Weight>
                <Weight>0.61202388530525897</Weight>
                <Weight>-0.93704822477763894</Weight>
                <Weight>1.3134578846020246</Weight>
            </Weights>
        </Neuron>
        <Neuron>
            <Bias>-1.7826921060509489</Bias>
            <Weights>
                <Weight>0.82214164945776613</Weight>
                <Weight>-0.40231300396069908</Weight>
                <Weight>0.035117804877538725</Weight>
                <Weight>-1.5088239190267714</Weight>
                <Weight>1.1150494909431858</Weight>
                <Weight>-1.8254532753789883</Weight>
                <Weight>-0.088852538028952599</Weight>
            </Weights>
        </Neuron>
        <Neuron>
            <Bias>-0.63927741764216872</Bias>
            <Weights>
                <Weight>0.386143775882965</Weight>
                <Weight>-0.29146832891484781</Weight>
                <Weight>-1.4464068013232909</Weight>
                <Weight>-0.93427776070562607</Weight>
                <Weight>-0.1981530181386259</Weight>
                <Weight>0.24954917443980931</Weight>
                <Weight>1.1883431906060562</Weight>
            </Weights>
        </Neuron>
        <Neuron>
            <Bias>0.45301030135079545</Bias>
            <Weights>
                <Weight>-0.48432795065923828</Weight>
                <Weight>-1.0665145022390616</Weight>
                <Weight>-1.8770397659654972</Weight>
                <Weight>-0.75184333847482721</Weight>
                <Weight>0.85719525201667779</Weight>
                <Weight>-1.222872810148937</Weight>
                <Weight>1.0890729613374681</Weight>
            </Weights>
        </Neuron>
        <Neuron>
            <Bias>0.017707747225440908</Bias>
            <Weights>
                <Weight>-2.0587853153589992</Weight>
                <Weight>-0.7982922150361188</Weight>
                <Weight>0.39180269494910541</Weight>
                <Weight>-0.70007506131543284</Weight>
                <Weight>-0.77150917542455577</Weight>
                <Weight>1.9868032776676445</Weight>
                <Weight>-0.14004252972717451</Weight>
            </Weights>
        </Neuron>
        <Neuron>
            <Bias>-1.6651233990006038</Bias>
            <Weights>
                <Weight>-0.82905291216011745</Weight>
                <Weight>0.78183585834202218</Weight>
                <Weight>0.57003547486474293</Weight>
                <Weight>0.55548485043367402</Weight>
                <Weight>1.5818719002050805</Weight>
                <Weight>-0.2092750295524827</Weight>
                <Weight>-1.2648579274259162</Weight>
            </Weights>
        </Neuron>
        <Neuron>
            <Bias>-1.172276430638536</Bias>
            <Weights>
                <Weight>0.61822571027327555</Weight>
                <Weight>1.8977491760191463</Weight>
                <Weight>0.16604435295838996</Weight>
                <Weight>-1.2883091263780824</Weight>
                <Weight>-0.1548513708605577</Weight>
                <Weight>-0.88730402761476956</Weight>
                <Weight>-0.085069989290767534</Weight>
            </Weights>
        </Neuron>
        <Neuron>
            <Bias>-0.068147967634969275</Bias>
            <Weights>
                <Weight>0.73642493546788335</Weight>
                <Weight>-0.24328565699787896</Weight>
                <Weight>0.85820965158378126</Weight>
                <Weight>0.054646623659474022</Weight>
                <Weight>-0.59078346373582724</Weight>
                <Weight>0.20087310172809542</Weight>
                <Weight>0.18346269524827966</Weight>
            </Weights>
        </Neuron>
        <Neuron>
            <Bias>0.23461107705045128</Bias>
            <Weights>
                <Weight>0.67831954168624664</Weight>
                <Weight>1.5598598588038566</Weight>
                <Weight>1.2939379489314193</Weight>
                <Weight>-0.61277702181481808</Weight>
                <Weight>1.1221913689781169</Weight>
                <Weight>1.3650855906569661</Weight>
                <Weight>0.32878403288767105</Weight>
            </Weights>
        </Neuron>
        <Neuron>
            <Bias>0.94773761800163192</Bias>
            <Weights>
                <Weight>0.10824832301375063</Weight>
                <Weight>0.062593532331092397</Weight>
                <Weight>-1.1914059219282849</Weight>
                <Weight>-2.1951406937389626</Weight>
                <Weight>0.26346561125532136</Weight>
                <Weight>-1.1988465399299095</Weight>
                <Weight>0.36560238535088591</Weight>
            </Weights>
        </Neuron>
        <Neuron>
            <Bias>1.0486404768239241</Bias>
            <Weights>
                <Weight>-0.45530796504344417</Weight>
                <Weight>-1.4481696038110456</Weight>
                <Weight>0.91848440983516766</Weight>
                <Weight>-0.51957395939186257</Weight>
                <Weight>-1.1450258016133987</Weight>
                <Weight>0.16872791281069652</Weight>
                <Weight>-0.8564815113200992</Weight>
            </Weights>
        </Neuron>
        <Neuron>
            <Bias>1.9232014596719791</Bias>
            <Weights>
                <Weight>0.20218337175820339</Weight>
                <Weight>-0.26609724179391492</Weight>
                <Weight>0.24941367963295177</Weight>
                <Weight>-0.86157421688375901</Weight>
                <Weight>-1.8578616783680655</Weight>
                <Weight>1.0605278215405773</Weight>
                <Weight>0.88600229319661605</Weight>
            </Weights>
        </Neuron>
        <Neuron>
            <Bias>-0.93625886379062273</Bias>
            <Weights>
                <Weight>-0.45151066075514379</Weight>
                <Weight>-0.63259357485384893</Weight>
                <Weight>0.25393420811886852</Weight>
                <Weight>0.36093404505620413</Weight>
                <Weight>-0.21348114930436321</Weight>
                <Weight>2.0368555165029463</Weight>
                <Weight>0.35652983792917714</Weight>
            </Weights>
        </Neuron>
        <Neuron>
            <Bias>-0.50879259983698732</Bias>
            <Weights>
                <Weight>-0.60494644403720021</Weight>
                <Weight>1.1716148972505032</Weight>
                <Weight>0.39237138935185578</Weight>
                <Weight>0.17931645378041061</Weight>
                <Weight>1.0626424946268682</Weight>
                <Weight>0.70446587306803909</Weight>
                <Weight>0.87666701103565781</Weight>
            </Weights>
        </Neuron>
    </Layer>
    <Layer type="output" transferFunction="1">
        <Neuron>
            <Bias>1.6843959886968021</Bias>
            <Weights>
                <Weight>1.4968776339972254</Weight>
                <Weight>-0.58099600182243671</Weight>
                <Weight>-0.48369284195826251</Weight>
                <Weight>0.72331634894533781</Weight>
                <Weight>-1.1686557647926088</Weight>
                <Weight>1.2505318705177961</Weight>
                <Weight>-1.8038816436393277</Weight>
                <Weight>0.81549426139597325</Weight>
                <Weight>-0.072381805473931249</Weight>
                <Weight>0.79483746324426063</Weight>
                <Weight>-2.5976560162279601</Weight>
                <Weight>0.34159105659761041</Weight>
                <Weight>0.29311548569279727</Weight>
                <Weight>1.1030623827383901</Weight>
                <Weight>1.7725511205240585</Weight>
            </Weights>
        </Neuron>
        <Neuron>
            <Bias>0.12003993787151669</Bias>
            <Weights>
                <Weight>-0.35408214607981064</Weight>
                <Weight>0.99714026280992085</Weight>
                <Weight>0.81036555300991187</Weight>
                <Weight>0.89411864388441298</Weight>
                <Weight>-0.1152618015997407</Weight>
                <Weight>0.98579038273376385</Weight>
                <Weight>-2.2220109312904683</Weight>
                <Weight>1.3752790720135075</Weight>
                <Weight>-1.0830296125184662</Weight>
                <Weight>-1.5224925761895525</Weight>
                <Weight>0.98048500846169118</Weight>
                <Weight>0.63753216479829888</Weight>
                <Weight>1.8459460482473979</Weight>
                <Weight>0.033354564862753358</Weight>
                <Weight>-0.11524153387427311</Weight>
            </Weights>
        </Neuron>
    </Layer>
</NeuralNetwork>
