<NeuralNetwork>
    <Layer type="input" transferFunction="0" size="7"/>
    <Layer type="hidden" transferFunction="2">
        <Neuron>
            <Bias>0.27941204910865464</Bias>
            <Weights>
                <Weight>0.24971186362073602</Weight>
                <Weight>0.077615636276461467</Weight>
                <Weight>-2.9748145350314998</Weight>
                <Weight>1.1631446225777595</Weight>
                <Weight>0.23706233699843376</Weight>
                <Weight>-0.58751597852748483</Weight>
                <Weight>-0.35010900665368644</Weight>
            </Weights>
        </Neuron>
        <Neuron>
            <Bias>-0.37696259758009787</Bias>
            <Weights>
                <Weight>-0.89645423203122565</Weight>
                <Weight>1.5453647604684229</Weight>
                <Weight>-0.10096932563204461</Weight>
                <Weight>0.24285415162814925</Weight>
                <Weight>0.22096743813872496</Weight>
                <Weight>0.61640054314605852</Weight>
                <Weight>-0.4659213894573917</Weight>
            </Weights>
        </Neuron>
        <Neuron>
            <Bias>0.1552059457297332</Bias>
            <Weights>
                <Weight>-0.68019944413795252</Weight>
                <Weight>1.6753201206261332</Weight>
                <Weight>-0.64262414383322031</Weight>
                <Weight>0.49237543613869439</Weight>
                <Weight>-0.1268417125094794</Weight>
                <Weight>0.84437164096229078</Weight>
                <Weight>0.51081382167686762</Weight>
            </Weights>
        </Neuron>
        <Neuron>
            <Bias>0.43177465271561194</Bias>
            <Weights>
                <Weight>-0.47416530252145228</Weight>
                <Weight>-1.1461990315547237</Weight>
                <Weight>-1.294502963120469</Weight>
                <Weight>1.5955069307245804</Weight>
                <Weight>-0.017485808971384333</Weight>
                <Weight>0.59336271820662856</Weight>
                <Weight>-0.84096274749401767</Weight>
            </Weights>
        </Neuron>
        <Neuron>
            <Bias>0.72695334255868338</Bias>
            <Weights>
                <Weight>-0.12500915644168986</Weight>
                <Weight>-0.1878012233076003</Weight>
                <Weight>-0.45857535728927207</Weight>
                <Weight>-0.89386891105859845</Weight>
                <Weight>0.12175658391239463</Weight>
                <Weight>0.076253864647914421</Weight>
                <Weight>-1.7297688811812739</Weight>
            </Weights>
        </Neuron>
        <Neuron>
            <Bias>-0.28836629346593345</Bias>
            <Weights>
                <Weight>-0.48393326386593288</Weight>
                <Weight>0.58427758749614289</Weight>
                <Weight>2.1016574955971437</Weight>
                <Weight>-0.97930497359523483</Weight>
                <Weight>-0.29397156195010793</Weight>
                <Weight>-0.59191762547738036</Weight>
                <Weight>-0.49934759042319332</Weight>
            </Weights>
        </Neuron>
        <Neuron>
            <Bias>-1.5326166922067734</Bias>
            <Weights>
                <Weight>-0.3169194604504183</Weight>
                <Weight>0.36162793166797885</Weight>
                <Weight>-1.0440404462114818</Weight>
                <Weight>2.2947629932820095</Weight>
                <Weight>2.0091047243156854</Weight>
                <Weight>-0.68633974648901652</Weight>
                <Weight>-1.4164973693325669</Weight>
            </Weights>
        </Neuron>
        <Neuron>
            <Bias>-0.89134021213737757</Bias>
            <Weights>
                <Weight>-0.75739585975110302</Weight>
                <Weight>0.054210055785740709</Weight>
                <Weight>-0.2478771776224967</Weight>
                <Weight>-0.72617548951301869</Weight>
                <Weight>0.092031708812327528</Weight>
                <Weight>-0.37767767407269942</Weight>
                <Weight>-0.88866601103719722</Weight>
            </Weights>
        </Neuron>
        <Neuron>
            <Bias>0.59456459129678785</Bias>
            <Weights>
                <Weight>-0.53776946390386748</Weight>
                <Weight>0.047773987229019772</Weight>
                <Weight>-1.0587722609426118</Weight>
                <Weight>-0.69902308254245393</Weight>
                <Weight>-0.68386741940156093</Weight>
                <Weight>-1.1496201784383855</Weight>
                <Weight>-0.63903793208785054</Weight>
            </Weights>
        </Neuron>
        <Neuron>
            <Bias>-0.47099811658781693</Bias>
            <Weights>
                <Weight>-0.097336799166040058</Weight>
                <Weight>1.3920466245765835</Weight>
                <Weight>1.5050562206567335</Weight>
                <Weight>-0.44008316429921535</Weight>
                <Weight>-1.1755341911297594</Weight>
                <Weight>-0.77279026434593212</Weight>
                <Weight>1.3601130211170145</Weight>
            </Weights>
        </Neuron>
        <Neuron>
            <Bias>-0.32527212496704017</Bias>
            <Weights>
                <Weight>-0.36470818596847393</Weight>
                <Weight>-0.49585468764945656</Weight>
                <Weight>0.033649245989259169</Weight>
                <Weight>-0.52564872397313056</Weight>
                <Weight>-1.1471374287483196</Weight>
                <Weight>-0.36334585942547787</Weight>
                <Weight>-0.38157121975373726</Weight>
            </Weights>
        </Neuron>
        <Neuron>
            <Bias>-1.5561559156426414</Bias>
            <Weights>
                <Weight>0.5595922114144114</Weight>
                <Weight>1.9248306127459214</Weight>
                <Weight>1.5781173883154678</Weight>
                <Weight>0.83317395259931482</Weight>
                <Weight>1.930886516476348</Weight>
                <Weight>-0.94300614006093686</Weight>
                <Weight>0.74940070062012554</Weight>
            </Weights>
        </Neuron>
        <Neuron>
            <Bias>-2.3225406943498568</Bias>
            <Weights>
                <Weight>0.26018398781209101</Weight>
                <Weight>-0.31201883948153664</Weight>
                <Weight>-0.86319336198872942</Weight>
                <Weight>-1.6746777575091807</Weight>
                <Weight>-0.88301014653485799</Weight>
                <Weight>0.78421699352288987</Weight>
                <Weight>0.26689449827150635</Weight>
            </Weights>
        </Neuron>
        <Neuron>
            <Bias>-0.77370018084718151</Bias>
            <Weights>
                <Weight>-1.3261211405109061</Weight>
                <Weight>0.38086492564166041</Weight>
                <Weight>-0.18393530024741872</Weight>
                <Weight>-2.4367334548786861</Weight>
                <Weight>-0.16545031029299725</Weight>
                <Weight>-1.6144517307950843</Weight>
                <Weight>-1.4001066114207306</Weight>
            </Weights>
        </Neuron>
    </Layer>
    <Layer type="hidden" transferFunction="2">
        <Neuron>
            <Bias>-0.081059925824829238</Bias>
            <Weights>
                <Weight>-0.80624264332588025</Weight>
                <Weight>-1.0018938148287015</Weight>
                <Weight>0.43105312662878226</Weight>
                <Weight>-0.63346173523037208</Weight>
                <Weight>-1.3604700141752417</Weight>
                <Weight>0.10906175607756555</Weight>
                <Weight>-0.22246106825132916</Weight>
                <Weight>0.30583034152569294</Weight>
                <Weight>-0.63124073233536104</Weight>
                <Weight>0.16544527175818768</Weight>
                <Weight>-1.1241741619718479</Weight>
                <Weight>1.3195513782751478</Weight>
                <Weight>-1.0128087310222695</Weight>
                <Weight>-1.7310720732395641</Weight>
            </Weights>
        </Neuron>
        <Neuron>
            <Bias>-0.9762599587178733</Bias>
            <Weights>
                <Weight>-1.3921852281458273</Weight>
                <Weight>0.9489018425491087</Weight>
                <Weight>0.49480663227211896</Weight>
                <Weight>0.49617980554626701</Weight>
                <Weight>-1.3240626089421437</Weight>
                <Weight>0.097450457932153803</Weight>
                <Weight>1.5144948333739161</Weight>
                <Weight>-0.42166249347646922</Weight>
                <Weight>0.18781492203557484</Weight>
                <Weight>1.0076880649515387</Weight>
                <Weight>0.99013860839876222</Weight>
                <Weight>1.4534670283451334</Weight>
                <Weight>-0.16623390664651103</Weight>
                <Weight>2.0436868589524551</Weight>
            </Weights>
        </Neuron>
        <Neuron>
            <Bias>-0.0014480014734216046</Bias>
            <Weights>
                <Weight>0.73328611886748341</Weight>
                <Weight>-2.6809496826621388</Weight>
                <Weight>0.89311306861183481</Weight>
                <Weight>0.29280239228085808</Weight>
                <Weight>0.3714375365365486</Weight>
                <Weight>1.5853359232372983</Weight>
                <Weight>0.84906242402088761</Weight>
                <Weight>-0.60496442230720182</Weight>
                <Weight>0.84724605627265404</Weight>
                <Weight>0.91631654244033856</Weight>
                <Weight>0.40875670924412866</Weight>
                <Weight>-1.0703454125848519</Weight>
                <Weight>-1.434215047304666</Weight>
                <Weight>0.94756376152746691</Weight>
            </Weights>
        </Neuron>
        <Neuron>
            <Bias>0.21596595190060194</Bias>
            <Weights>
                <Weight>0.48170706580404027</Weight>
                <Weight>-0.55270844890896154</Weight>
                <Weight>-0.28193902253742503</Weight>
                <Weight>1.0262548659567161</Weight>
                <Weight>0.25745498392381622</Weight>
                <Weight>0.25027630745137397</Weight>
                <Weight>0.26309600089694613</Weight>
                <Weight>0.93269315895961868</Weight>
                <Weight>0.23436062879489447</Weight>
                <Weight>-0.39033476592719196</Weight>
                <Weight>-0.83233878990295296</Weight>
                <Weight>-0.58734220235253887</Weight>
                <Weight>-1.0337068544012846</Weight>
                <Weight>-0.30521923665375755</Weight>
            </Weights>
        </Neuron>
        <Neuron>
            <Bias>-0.36291854186928102</Bias>
            <Weights>
                <Weight>-0.75190714733349873</Weight>
                <Weight>-1.2068950758528998</Weight>
                <Weight>1.5135955228301661</Weight>
                <Weight>0.99183697012046468</Weight>
                <Weight>-0.27066215441129082</Weight>
                <Weight>1.0694326920115875</Weight>
                <Weight>-1.4220377266983726</Weight>
                <Weight>1.1757628899083716</Weight>
                <Weight>1.2901283273051323</Weight>
                <Weight>-0.55557366276415521</Weight>
                <Weight>1.2508419661075689</Weight>
                <Weight>0.19835346959171371</Weight>
                <Weight>0.45640146871986026</Weight>
                <Weight>-1.4890436081636671</Weight>
            </Weights>
        </Neuron>
        <Neuron>
            <Bias>0.012505767739840454</Bias>
            <Weights>
                <Weight>0.32067223193713829</Weight>
                <Weight>0.29851140848444624</Weight>
                <Weight>-0.081650778906029287</Weight>
                <Weight>1.9283722182193856</Weight>
                <Weight>1.0015650071560871</Weight>
                <Weight>0.46339942937658235</Weight>
                <Weight>-1.0114745523938293</Weight>
                <Weight>-0.48605667118714158</Weight>
                <Weight>-0.90045213323004369</Weight>
                <Weight>0.59849913819077316</Weight>
                <Weight>0.12557001725301034</Weight>
                <Weight>-0.23480099098650814</Weight>
                <Weight>-0.3927521648838932</Weight>
                <Weight>0.11353681424169787</Weight>
            </Weights>
        </Neuron>
        <Neuron>
            <Bias>-0.56385934288078432</Bias>
            <Weights>
                <Weight>-2.183461954776607</Weight>
                <Weight>-0.95898817869867647</Weight>
                <Weight>0.30664316754273585</Weight>
                <Weight>-1.6045427092154003</Weight>
                <Weight>-0.0052673238172570485</Weight>
                <Weight>-0.82460183613818749</Weight>
                <Weight>0.80328487897757006</Weight>
                <Weight>1.1283445410705744</Weight>
                <Weight>0.39690262764575202</Weight>
                <Weight>0.67375832911259192</Weight>
                <Weight>0.81317557384350769</Weight>
                <Weight>-0.84279078940465468</Weight>
                <Weight>0.29680837821584954</Weight>
                <Weight>-0.68531167621444944</Weight>
            </Weights>
        </Neuron>
        <Neuron>
            <Bias>2.7955273111842516</Bias>
            <Weights>
                <Weight>-1.1333828169676952</Weight>
                <Weight>-0.66131944333284676</Weight>
                <Weight>0.64797283722162624</Weight>
                <Weight>-0.20734993306999658</Weight>
                <Weight>-0.21192112043400632</Weight>
                <Weight>0.28814916043103839</Weight>
                <Weight>0.46251500425699332</Weight>
                <Weight>1.0380269868778349</Weight>
                <Weight>0.59720577057704261</Weight>
                <Weight>-0.72756837790837936</Weight>
                <Weight>-0.53072471279467481</Weight>
                <Weight>2.6488578035916377</Weight>
                <Weight>-0.43295176093216653</Weight>
                <Weight>-1.2685700305081464</Weight>
            </Weights>
        </Neuron>
        <Neuron>
            <Bias>1.4669254627886628</Bias>
            <Weights>
                <Weight>-0.81472765835895511</Weight>
                <Weight>2.5331077186697089</Weight>
                <Weight>1.1729593169278172</Weight>
                <Weight>-0.87671522350711195</Weight>
                <Weight>1.1471667391864722</Weight>
                <Weight>1.0643833329433581</Weight>
                <Weight>-0.17421713693581004</Weight>
                <Weight>0.97066855460407919</Weight>
                <Weight>1.6711315939194504</Weight>
                <Weight>2.2921483648613261</Weight>
                <Weight>-0.32308367687975581</Weight>
                <Weight>-0.43765378948576317</Weight>
                <Weight>0.67381709443479354</Weight>
                <Weight>0.036432595681474535</Weight>
            </Weights>
        </Neuron>
        <Neuron>
            <Bias>-0.72838653642520945</Bias>
            <Weights>
                <Weight>0.027624322487821873</Weight>
                <Weight>0.19634894215774787</Weight>
                <Weight>0.14754693523816939</Weight>
                <Weight>0.37088072711166414</Weight>
                <Weight>-0.11336518980399501</Weight>
                <Weight>-2.4521378217310361</Weight>
                <Weight>1.0743170194560066</Weight>
                <Weight>-2.0191839052686911</Weight>
                <Weight>-0.67012509244757357</Weight>
                <Weight>1.3232367731360435</Weight>
                <Weight>-0.14565798230655161</Weight>
                <Weight>-1.3565915152081272</Weight>
                <Weight>0.65769538786079618</Weight>
                <Weight>-0.43003937675508563</Weight>
            </Weights>
        </Neuron>
        <Neuron>
            <Bias>0.57678119500069791</Bias>
            <Weights>
                <Weight>-0.18005511598782589</Weight>
                <Weight>-1.3111860664154749</Weight>
                <Weight>-0.27935418006498675</Weight>
                <Weight>0.39625918818294348</Weight>
                <Weight>-0.16999058650550586</Weight>
                <Weight>0.94153414174599948</Weight>
                <Weight>0.51247496120359559</Weight>
                <Weight>0.59368273399454186</Weight>
                <Weight>-1.1533420294622092</Weight>
                <Weight>-0.91121306087467646</Weight>
                <Weight>0.88516125288737746</Weight>
                <Weight>0.39832808262345992</Weight>
                <Weight>1.5331942798660236</Weight>
                <Weight>2.6737324135971554</Weight>
            </Weights>
        </Neuron>
        <Neuron>
            <Bias>-0.25075035026062253</Bias>
            <Weights>
                <Weight>-0.17522104121789292</Weight>
                <Weight>1.1829644266110522</Weight>
                <Weight>-0.021690370275857539</Weight>
                <Weight>0.017332769829823607</Weight>
                <Weight>-3.3356939024732175</Weight>
                <Weight>-0.27487059208319869</Weight>
                <Weight>-0.64662367562825918</Weight>
                <Weight>-0.33086741805915304</Weight>
                <Weight>-0.20136756471242953</Weight>
                <Weight>-1.5949906387188737</Weight>
                <Weight>0.030235259773295099</Weight>
                <Weight>-0.022779703895840307</Weight>
                <Weight>-2.0898264658580006</Weight>
                <Weight>-0.067912220456306405</Weight>
            </Weights>
        </Neuron>
        <Neuron>
            <Bias>-0.49188532471820379</Bias>
            <Weights>
                <Weight>0.17547658810457736</Weight>
                <Weight>-0.05263882170905701</Weight>
                <Weight>-0.64163008666825394</Weight>
                <Weight>0.89248146923762439</Weight>
                <Weight>-0.73255453436885931</Weight>
                <Weight>-1.0183242525284184</Weight>
                <Weight>1.6938128375296062</Weight>
                <Weight>1.0717086264558828</Weight>
                <Weight>1.6881137635956065</Weight>
                <Weight>0.10915279847763167</Weight>
                <Weight>-0.41864020354266018</Weight>
                <Weight>0.78749754550315532</Weight>
                <Weight>-0.53441580165222669</Weight>
                <Weight>-1.6172019254437466</Weight>
            </Weights>
        </Neuron>
        <Neuron>
            <Bias>0.54435598745877145</Bias>
            <Weights>
                <Weight>-1.6010429339522101</Weight>
                <Weight>0.25142117747442622</Weight>
                <Weight>-0.1426947952573544</Weight>
                <Weight>-1.116611203445449</Weight>
                <Weight>1.0383610768486542</Weight>
                <Weight>-0.074449126221818429</Weight>
                <Weight>-0.22517715644284961</Weight>
                <Weight>0.087772787198541466</Weight>
                <Weight>-0.14185861231111527</Weight>
                <Weight>-0.12963702711933842</Weight>
                <Weight>-0.14422274425495854</Weight>
                <Weight>-0.55530790283205822</Weight>
                <Weight>-0.012676023939827887</Weight>
                <Weight>-0.2455794747492584</Weight>
            </Weights>
        </Neuron>
        <Neuron>
            <Bias>0.73717540015447314</Bias>
            <Weights>
                <Weight>1.2051234026590623</Weight>
                <Weight>-0.51537796077776876</Weight>
                <Weight>0.64641023612588455</Weight>
                <Weight>0.83675222002823924</Weight>
                <Weight>0.43552699966664427</Weight>
                <Weight>1.2144252616096498</Weight>
                <Weight>0.35058771230721042</Weight>
                <Weight>-0.88973619463248577</Weight>
                <Weight>-1.8274654361700533</Weight>
                <Weight>-0.4815163770804492</Weight>
                <Weight>1.0068603336919288</Weight>
                <Weight>-0.020117755779921247</Weight>
                <Weight>-0.57564204816016795</Weight>
                <Weight>1.8817078469521913</Weight>
            </Weights>
        </Neuron>
        <Neuron>
            <Bias>-0.14857011191975616</Bias>
            <Weights>
                <Weight>1.2344153333633978</Weight>
                <Weight>1.2800522215370471</Weight>
                <Weight>-0.8229488642374968</Weight>
                <Weight>1.0811317860810787</Weight>
                <Weight>0.13413241348736527</Weight>
                <Weight>1.1773636924608157</Weight>
                <Weight>-1.495345868955444</Weight>
                <Weight>0.95673388755311006</Weight>
                <Weight>-0.13321272855790831</Weight>
                <Weight>-0.68440012386928528</Weight>
                <Weight>-1.1502106075979914</Weight>
                <Weight>-0.35384889120588719</Weight>
                <Weight>0.8187741458504717</Weight>
                <Weight>-1.878349960008914</Weight>
            </Weights>
        </Neuron>
        <Neuron>
            <Bias>-0.23946904769342678</Bias>
            <Weights>
                <Weight>0.017300662948516121</Weight>
                <Weight>-2.1228651938001355</Weight>
                <Weight>1.3960961228454134</Weight>
                <Weight>0.048656448544702087</Weight>
                <Weight>-0.27538452902181521</Weight>
                <Weight>-0.3112197361595988</Weight>
                <Weight>-1.1760544716960932</Weight>
                <Weight>0.53686539424039936</Weight>
                <Weight>2.4006649032461431</Weight>
                <Weight>1.0501207616715713</Weight>
                <Weight>1.3306643187891898</Weight>
                <Weight>-0.24535898720238489</Weight>
                <Weight>-0.036056609439768149</Weight>
                <Weight>0.72534234019643029</Weight>
            </Weights>
        </Neuron>
        <Neuron>
            <Bias>-0.63205653787771054</Bias>
            <Weights>
                <Weight>-0.26625105294768575</Weight>
                <Weight>0.8926139241362715</Weight>
                <Weight>1.3113895548608039</Weight>
                <Weight>-0.24993385592915562</Weight>
                <Weight>-0.97138066664673783</Weight>
                <Weight>0.647408796129197</Weight>
                <Weight>0.2536446559294</Weight>
                <Weight>-1.1039797310549921</Weight>
                <Weight>0.1928396836590445</Weight>
                <Weight>0.92178593824624644</Weight>
                <Weight>0.47233774767886111</Weight>
                <Weight>-0.63599568963812603</Weight>
                <Weight>-2.3830568727822343</Weight>
                <Weight>1.0988052402707698</Weight>
            </Weights>
        </Neuron>
        <Neuron>
            <Bias>-0.7357898596126724</Bias>
            <Weights>
                <Weight>-0.056537005447777205</Weight>
                <Weight>0.64325570272837918</Weight>
                <Weight>0.8108921038659207</Weight>
                <Weight>-1.0507415735058476</Weight>
                <Weight>-1.2894768317156551</Weight>
                <Weight>1.2505436630797562</Weight>
                <Weight>-1.6137733046345104</Weight>
                <Weight>-0.20007907982598105</Weight>
                <Weight>0.12651807567668405</Weight>
                <Weight>-0.062313487201118102</Weight>
                <Weight>-1.0029414200029669</Weight>
                <Weight>0.81664579472147436</Weight>
                <Weight>0.7904544746079053</Weight>
                <Weight>2.4482688183667154</Weight>
            </Weights>
        </Neuron>
        <Neuron>
            <Bias>0.82662471838120288</Bias>
            <Weights>
                <Weight>-0.87209609753133333</Weight>
                <Weight>-0.081705790756308655</Weight>
                <Weight>0.76504351394703674</Weight>
                <Weight>-2.0150545828353557</Weight>
                <Weight>-2.1720277015902201</Weight>
                <Weight>1.3031648451722975</Weight>
                <Weight>0.22082636250759979</Weight>
                <Weight>-0.55870587486373102</Weight>
                <Weight>0.6272123194826581</Weight>
                <Weight>0.18786964521449381</Weight>
                <Weight>0.22594553673234355</Weight>
                <Weight>0.27808487057471426</Weight>
                <Weight>-1.0874274057588311</Weight>
                <Weight>0.81143858883770059</Weight>
            </Weights>
        </Neuron>
        <Neuron>
            <Bias>-0.35459799802053993</Bias>
            <Weights>
                <Weight>-0.41967178507475156</Weight>
                <Weight>1.0234552332074971</Weight>
                <Weight>-1.3586298122763716</Weight>
                <Weight>-1.596777086243294</Weight>
                <Weight>0.50437685410413691</Weight>
                <Weight>-1.4252464416931057</Weight>
                <Weight>-0.33007876756254378</Weight>
                <Weight>1.9464846730607279</Weight>
                <Weight>-0.54349712353555346</Weight>
                <Weight>-0.64504615078425775</Weight>
                <Weight>1.260927982717684</Weight>
                <Weight>0.018959830637200678</Weight>
                <Weight>-1.0915798826935448</Weight>
                <Weight>0.7735294174741365</Weight>
            </Weights>
        </Neuron>
        <Neuron>
            <Bias>0.29978177224951075</Bias>
            <Weights>
                <Weight>-0.25854599401303469</Weight>
                <Weight>0.51411138992565053</Weight>
                <Weight>-0.37809335706836966</Weight>
                <Weight>-1.3064857195201991</Weight>
                <Weight>2.2781140663797146</Weight>
                <Weight>0.38638043904609182</Weight>
                <Weight>-0.7010571028058461</Weight>
                <Weight>-0.99856792744896017</Weight>
                <Weight>0.088162638118032266</Weight>
                <Weight>-0.74209584431104936</Weight>
                <Weight>0.10583200028932528</Weight>
                <Weight>-1.2045778128061424</Weight>
                <Weight>0.013966700663461616</Weight>
                <Weight>0.58429240289993989</Weight>
            </Weights>
        </Neuron>
        <Neuron>
            <Bias>-2.2003433996036357</Bias>
            <Weights>
                <Weight>-0.86170168336486874</Weight>
                <Weight>-0.20629865093835387</Weight>
                <Weight>-2.8180837977993152</Weight>
                <Weight>0.11598167891028088</Weight>
                <Weight>-0.84394036991856558</Weight>
                <Weight>0.2211780621432092</Weight>
                <Weight>-0.64099713680263593</Weight>
                <Weight>0.71042613716384184</Weight>
                <Weight>1.3232462022389428</Weight>
                <Weight>-0.29279177885220187</Weight>
                <Weight>0.51111466935248639</Weight>
                <Weight>-1.1774020825856109</Weight>
                <Weight>1.1158618393163016</Weight>
                <Weight>-0.8101377307135581</Weight>
            </Weights>
        </Neuron>
        <Neuron>
            <Bias>-1.5057804941228512</Bias>
            <Weights>
                <Weight>-0.10421533395311827</Weight>
                <Weight>-0.73656850779048855</Weight>
                <Weight>0.044761017495056794</Weight>
                <Weight>0.083727914835013781</Weight>
                <Weight>-1.8972358119337536</Weight>
                <Weight>-1.6481939263785681</Weight>
                <Weight>-0.52652308045514318</Weight>
                <Weight>-1.6273457158035938</Weight>
                <Weight>-1.2000317992451985</Weight>
                <Weight>-0.1696104411551603</Weight>
                <Weight>-0.053275101300480542</Weight>
                <Weight>1.8646597076162112</Weight>
                <Weight>-1.3193277670157608</Weight>
                <Weight>-2.0705164731184587</Weight>
            </Weights>
        </Neuron>
        <Neuron>
            <Bias>-1.4536074799984164</Bias>
            <Weights>
                <Weight>-1.4232279550839015</Weight>
                <Weight>0.32552919973106065</Weight>
                <Weight>-0.66500035062996055</Weight>
                <Weight>0.61221747780876279</Weight>
                <Weight>-0.92326731338956858</Weight>
                <Weight>0.19180617354419691</Weight>
                <Weight>-0.75388773468648507</Weight>
                <Weight>-1.1636462766707896</Weight>
                <Weight>0.33040926701148693</Weight>
                <Weight>0.048950348213588436</Weight>
                <Weight>-0.098677184791629749</Weight>
                <Weight>1.047141814343773</Weight>
                <Weight>1.197541935612104</Weight>
                <Weight>-0.083889161551092106</Weight>
            </Weights>
        </Neuron>
        <Neuron>
            <Bias>-0.024158395942644458</Bias>
            <Weights>
                <Weight>0.0031782397212673313</Weight>
                <Weight>0.6711256657289778</Weight>
                <Weight>0.056661137893320675</Weight>
                <Weight>-3.4286569342082234</Weight>
                <Weight>-2.6530286293071019</Weight>
                <Weight>0.50116210259392868</Weight>
                <Weight>0.16975979494655893</Weight>
                <Weight>1.3506859631047119</Weight>
                <Weight>1.896056851690036</Weight>
                <Weight>1.5069956496590755</Weight>
                <Weight>0.49099857865755497</Weight>
                <Weight>-0.23934121324335036</Weight>
                <Weight>1.1470789727404178</Weight>
                <Weight>0.42390988096633031</Weight>
            </Weights>
        </Neuron>
        <Neuron>
            <Bias>-0.42011304909422453</Bias>
            <Weights>
                <Weight>-1.2499095492335455</Weight>
                <Weight>1.410266910704769</Weight>
                <Weight>1.5768435914024308</Weight>
                <Weight>0.019115668098535859</Weight>
                <Weight>1.6994728712893936</Weight>
                <Weight>-0.22028587026747867</Weight>
                <Weight>1.0342527518542501</Weight>
                <Weight>-0.6113456201262627</Weight>
                <Weight>-1.502878913319122</Weight>
                <Weight>-0.59126593612172507</Weight>
                <Weight>0.58148225902417827</Weight>
                <Weight>-1.4254402503398276</Weight>
                <Weight>-0.47279426855275747</Weight>
                <Weight>-1.188074492111092</Weight>
            </Weights>
        </Neuron>
        <Neuron>
            <Bias>1.0715424774058337</Bias>
            <Weights>
                <Weight>0.2670642560342214</Weight>
                <Weight>0.24876271861083077</Weight>
                <Weight>-1.890509531843213</Weight>
                <Weight>0.28475352932163983</Weight>
                <Weight>-0.93426161248810891</Weight>
                <Weight>0.013198680841163301</Weight>
                <Weight>-0.063774798350419937</Weight>
                <Weight>0.77800816473418188</Weight>
                <Weight>-0.074465991789529576</Weight>
                <Weight>-0.35521285356921928</Weight>
                <Weight>-1.1030446798290812</Weight>
                <Weight>-0.92695379114628496</Weight>
                <Weight>0.25298117109377577</Weight>
                <Weight>0.038004322178829708</Weight>
            </Weights>
        </Neuron>
        <Neuron>
            <Bias>0.94789140036844743</Bias>
            <Weights>
                <Weight>-1.858512201281163</Weight>
                <Weight>0.20724406404431195</Weight>
                <Weight>-1.4226580879690849</Weight>
                <Weight>-0.61498032424450344</Weight>
                <Weight>0.64675535810924967</Weight>
                <Weight>-0.8820117071504775</Weight>
                <Weight>-1.7747094746585572</Weight>
                <Weight>0.030868831075977717</Weight>
                <Weight>-1.0846201426595721</Weight>
                <Weight>0.13556406593112996</Weight>
                <Weight>0.98335027649507711</Weight>
                <Weight>-0.18594421255046126</Weight>
                <Weight>-1.1896875803968743</Weight>
                <Weight>-0.39068008832155415</Weight>
            </Weights>
        </Neuron>
        <Neuron>
            <Bias>1.5238800098984153</Bias>
            <Weights>
                <Weight>1.4577698768583438</Weight>
                <Weight>1.1557294693091704</Weight>
                <Weight>-0.51142408401393991</Weight>
                <Weight>0.25909923289036341</Weight>
                <Weight>-0.088835172555403005</Weight>
                <Weight>0.53473080373742254</Weight>
                <Weight>2.0582542130557715</Weight>
                <Weight>-0.82333580855982125</Weight>
                <Weight>0.16311334728892238</Weight>
                <Weight>-0.30719884396433217</Weight>
                <Weight>-1.8797470927013902</Weight>
                <Weight>-1.5950541199187218</Weight>
                <Weight>-1.3006386734657502</Weight>
                <Weight>-0.16218379210233153</Weight>
            </Weights>
        </Neuron>
        <Neuron>
            <Bias>-1.6358654291967394</Bias>
            <Weights>
                <Weight>-1.449267012530528</Weight>
                <Weight>-0.246025679908355</Weight>
                <Weight>-0.69191037534728783</Weight>
                <Weight>-0.78275057855759678</Weight>
                <Weight>-0.16694154347777884</Weight>
                <Weight>-0.21042312459760085</Weight>
                <Weight>0.56728917186393568</Weight>
                <Weight>-0.383716751550437</Weight>
                <Weight>-0.66032256516713528</Weight>
                <Weight>-0.71954531349063655</Weight>
                <Weight>-0.47779011476024508</Weight>
                <Weight>-0.80404096296608729</Weight>
                <Weight>-0.049245411966691278</Weight>
                <Weight>0.15992620333369137</Weight>
            </Weights>
        </Neuron>
        <Neuron>
            <Bias>1.4042564140644975</Bias>
            <Weights>
                <Weight>-1.122246165027829</Weight>
                <Weight>-0.4302041223847769</Weight>
                <Weight>0.13240848086909773</Weight>
                <Weight>-0.27306788177799324</Weight>
                <Weight>-0.5396054417205064</Weight>
                <Weight>0.24317861787110212</Weight>
                <Weight>1.275444054894761</Weight>
                <Weight>-2.2279701937764713</Weight>
                <Weight>-1.5236076438333399</Weight>
                <Weight>-1.640660687119283</Weight>
                <Weight>-1.3419160698811321</Weight>
                <Weight>0.05319739424410079</Weight>
                <Weight>0.51157192256953543</Weight>
                <Weight>-0.47878010794943576</Weight>
            </Weights>
        </Neuron>
        <Neuron>
            <Bias>-0.70412303192049386</Bias>
            <Weights>
                <Weight>0.10830416854479308</Weight>
                <Weight>-0.75358142594881772</Weight>
                <Weight>0.10540782707672522</Weight>
                <Weight>1.5011470055065175</Weight>
                <Weight>-0.91206869740800112</Weight>
                <Weight>0.61727876166145967</Weight>
                <Weight>-0.79756157610911171</Weight>
                <Weight>-0.19151254388329542</Weight>
                <Weight>0.39870295901018427</Weight>
                <Weight>2.7316410189005045</Weight>
                <Weight>0.8053956830970237</Weight>
                <Weight>0.88665918151614065</Weight>
                <Weight>1.016877271336962</Weight>
                <Weight>-0.072969651022535414</Weight>
            </Weights>
        </Neuron>
        <Neuron>
            <Bias>0.65300565798925536</Bias>
            <Weights>
                <Weight>0.077626190184171759</Weight>
                <Weight>1.0994373858997848</Weight>
                <Weight>-0.27475247622464066</Weight>
                <Weight>0.5747719624036578</Weight>
                <Weight>0.51874520827914739</Weight>
                <Weight>0.31478776492376725</Weight>
                <Weight>-1.4043600861622076</Weight>
                <Weight>-0.21060243862827854</Weight>
                <Weight>0.49326522638267978</Weight>
                <Weight>0.19021436943181763</Weight>
                <Weight>-0.22733594172057375</Weight>
                <Weight>1.0273774597741487</Weight>
                <Weight>-1.2075282648514103</Weight>
                <Weight>0.38229637817233675</Weight>
            </Weights>
        </Neuron>
        <Neuron>
            <Bias>0.63047172914581351</Bias>
            <Weights>
                <Weight>-0.37038006560845055</Weight>
                <Weight>1.1423916913719863</Weight>
                <Weight>2.3131836474376768</Weight>
                <Weight>-0.25981573734850455</Weight>
                <Weight>-0.70272339977990139</Weight>
                <Weight>-1.088232750705117</Weight>
                <Weight>0.0636188795931458</Weight>
                <Weight>0.63183331030730505</Weight>
                <Weight>-0.65916111205628769</Weight>
                <Weight>-0.0080770248992137628</Weight>
                <Weight>1.1628038100953588</Weight>
                <Weight>1.4426192276009342</Weight>
                <Weight>-0.68238025345148545</Weight>
                <Weight>-1.5792396656257659</Weight>
            </Weights>
        </Neuron>
        <Neuron>
            <Bias>-0.45932074223966618</Bias>
            <Weights>
                <Weight>0.75825764248597427</Weight>
                <Weight>0.74895970035975135</Weight>
                <Weight>-0.16592883469319508</Weight>
                <Weight>-1.2133992620173542</Weight>
                <Weight>0.33506124871714399</Weight>
                <Weight>-0.0038110749466272911</Weight>
                <Weight>-0.0032769036072829837</Weight>
                <Weight>-0.80232681127284211</Weight>
                <Weight>1.7671503999345359</Weight>
                <Weight>-0.67301033991656256</Weight>
                <Weight>-0.1944647214396685</Weight>
                <Weight>-0.68828127303917774</Weight>
                <Weight>1.1097571852150392</Weight>
                <Weight>-0.63192202245420137</Weight>
            </Weights>
        </Neuron>
        <Neuron>
            <Bias>0.8125661359304549</Bias>
            <Weights>
                <Weight>1.8135568840779821</Weight>
                <Weight>0.057158262923144888</Weight>
                <Weight>0.85663833496121866</Weight>
                <Weight>0.63679112990882469</Weight>
                <Weight>1.6176460880921724</Weight>
                <Weight>0.71989533232231273</Weight>
                <Weight>-1.2718057553404156</Weight>
                <Weight>0.81359546097228519</Weight>
                <Weight>-1.7313311609958912</Weight>
                <Weight>0.7003755922140722</Weight>
                <Weight>-1.2603010560203893</Weight>
                <Weight>-0.82906120435908548</Weight>
                <Weight>0.3251883165320763</Weight>
                <Weight>1.6383144002898942</Weight>
            </Weights>
        </Neuron>
        <Neuron>
            <Bias>-0.79669483394977936</Bias>
            <Weights>
                <Weight>0.28293578845173079</Weight>
                <Weight>-1.7217202044237687</Weight>
                <Weight>-1.1209195211240386</Weight>
                <Weight>0.30069440903855776</Weight>
                <Weight>0.40509814561264729</Weight>
                <Weight>0.56855919830342916</Weight>
                <Weight>-0.33757865058930342</Weight>
                <Weight>0.97179138576084301</Weight>
                <Weight>0.64369422391357201</Weight>
                <Weight>-0.40756986261234596</Weight>
                <Weight>-0.22917923453652572</Weight>
                <Weight>0.16161533649438339</Weight>
                <Weight>1.1152679726092634</Weight>
                <Weight>0.30005005663313339</Weight>
            </Weights>
        </Neuron>
    </Layer>
    <Layer type="output" transferFunction="1">
        <Neuron>
            <Bias>-1.7396588908793853</Bias>
            <Weights>
                <Weight>1.4002555525846474</Weight>
                <Weight>1.1602514595883595</Weight>
                <Weight>-1.1042510334814284</Weight>
                <Weight>0.046102966856178172</Weight>
                <Weight>0.54188415444991789</Weight>
                <Weight>1.0774608994564281</Weight>
                <Weight>0.61396060499958216</Weight>
                <Weight>0.12936034308078448</Weight>
                <Weight>-1.7918964522282905</Weight>
                <Weight>0.70621374327741848</Weight>
                <Weight>0.60468130596108771</Weight>
                <Weight>0.043372996516008934</Weight>
                <Weight>1.0112568433905911</Weight>
                <Weight>-0.034654800231556086</Weight>
                <Weight>-1.0063099779178142</Weight>
                <Weight>1.9401061236790156</Weight>
                <Weight>-0.32280306398370545</Weight>
                <Weight>0.17253881215878381</Weight>
                <Weight>0.20801100387440263</Weight>
                <Weight>-0.38203762760603105</Weight>
                <Weight>1.1915324064168957</Weight>
                <Weight>0.25360015894853</Weight>
                <Weight>2.3916991006145216</Weight>
                <Weight>-0.34255259607502936</Weight>
                <Weight>-1.2902263625565635</Weight>
                <Weight>-2.1154974869639718</Weight>
                <Weight>0.5518978317512121</Weight>
                <Weight>1.6839005077569025</Weight>
                <Weight>-0.0040532575764496339</Weight>
                <Weight>0.2547109439303421</Weight>
                <Weight>-0.34622811899350203</Weight>
                <Weight>-1.6488601111269272</Weight>
                <Weight>0.56490026266186855</Weight>
                <Weight>-0.48120006379854824</Weight>
                <Weight>0.20653905542169537</Weight>
                <Weight>-1.3496211403034895</Weight>
                <Weight>-1.9787834863915801</Weight>
                <Weight>0.43661002630262635</Weight>
            </Weights>
        </Neuron>
        <Neuron>
            <Bias>-0.42378980498091234</Bias>
            <Weights>
                <Weight>-1.3491360961339642</Weight>
                <Weight>1.937894233285439</Weight>
                <Weight>1.1314808312496698</Weight>
                <Weight>0.75166464443394987</Weight>
                <Weight>1.2736884190845141</Weight>
                <Weight>0.53709358355070569</Weight>
                <Weight>1.993483621988434</Weight>
                <Weight>-0.054694027388267175</Weight>
                <Weight>0.44971840793876339</Weight>
                <Weight>0.070599417217573013</Weight>
                <Weight>0.49345751776479874</Weight>
                <Weight>-1.1335571066914529</Weight>
                <Weight>-1.2603716975722912</Weight>
                <Weight>-1.4848081189713032</Weight>
                <Weight>0.0081477751808530143</Weight>
                <Weight>-0.073013922645347937</Weight>
                <Weight>-1.3903932439927209</Weight>
                <Weight>1.501097932330494</Weight>
                <Weight>1.8405917022994431</Weight>
                <Weight>1.6368659509280472</Weight>
                <Weight>-0.65065643642959226</Weight>
                <Weight>0.12783034620259759</Weight>
                <Weight>0.16225041745396854</Weight>
                <Weight>1.2593127426959803</Weight>
                <Weight>1.3558468548367364</Weight>
                <Weight>-2.0004099725701905</Weight>
                <Weight>-2.4572090508089821</Weight>
                <Weight>0.14455225972225458</Weight>
                <Weight>-0.75406249827689076</Weight>
                <Weight>1.3668931446578749</Weight>
                <Weight>1.2503267329683696</Weight>
                <Weight>-0.82080183263640905</Weight>
                <Weight>-0.59490087972858063</Weight>
                <Weight>0.71214484155531965</Weight>
                <Weight>-0.53111902384560139</Weight>
                <Weight>-0.99033922196458835</Weight>
                <Weight>0.50166926985101223</Weight>
                <Weight>0.22501135900502342</Weight>
            </Weights>
        </Neuron>
    </Layer>
</NeuralNetwork>
