<NeuralNetwork>
    <Layer type="input" transferFunction="0" size="7"/>
    <Layer type="hidden" transferFunction="2">
        <Neuron>
            <Bias>0.087840182710804182</Bias>
            <Weights>
                <Weight>-0.099279207187794594</Weight>
                <Weight>0.66032234612936269</Weight>
                <Weight>-0.67480880313295521</Weight>
                <Weight>-0.23749831745829314</Weight>
                <Weight>-0.76953907514069053</Weight>
                <Weight>-0.0084781794930287226</Weight>
                <Weight>-0.34143292280451765</Weight>
            </Weights>
        </Neuron>
        <Neuron>
            <Bias>-1.1329034590106206</Bias>
            <Weights>
                <Weight>-0.16204915509798487</Weight>
                <Weight>-1.1659037340833462</Weight>
                <Weight>0.43822728230797087</Weight>
                <Weight>0.59564990434443921</Weight>
                <Weight>-0.30777968397524647</Weight>
                <Weight>1.7974114441457103</Weight>
                <Weight>-0.0032822807686289064</Weight>
            </Weights>
        </Neuron>
        <Neuron>
            <Bias>-2.3061230584733763</Bias>
            <Weights>
                <Weight>-1.4891826558882824</Weight>
                <Weight>-0.49698913170435599</Weight>
                <Weight>0.84665352822363937</Weight>
                <Weight>0.42620763472938683</Weight>
                <Weight>1.1274191152871245</Weight>
                <Weight>-0.73917826421702271</Weight>
                <Weight>0.56753935467437944</Weight>
            </Weights>
        </Neuron>
        <Neuron>
            <Bias>-0.056927737206936321</Bias>
            <Weights>
                <Weight>1.2506063719627496</Weight>
                <Weight>-0.37226404166880733</Weight>
                <Weight>-0.79553508880788049</Weight>
                <Weight>0.51919072651236375</Weight>
                <Weight>-0.53433313016058936</Weight>
                <Weight>-0.17138540992986398</Weight>
                <Weight>-1.5710019170434357</Weight>
            </Weights>
        </Neuron>
        <Neuron>
            <Bias>-0.8017353967339419</Bias>
            <Weights>
                <Weight>0.21521455514970944</Weight>
                <Weight>-0.76497019756918994</Weight>
                <Weight>-1.5700961777393925</Weight>
                <Weight>-1.4147901498467941</Weight>
                <Weight>0.003274874047770408</Weight>
                <Weight>0.63611927077397945</Weight>
                <Weight>1.8307146591470382</Weight>
            </Weights>
        </Neuron>
        <Neuron>
            <Bias>0.13738396580764689</Bias>
            <Weights>
                <Weight>1.8741549296944839</Weight>
                <Weight>-1.8247091806873723</Weight>
                <Weight>-0.21728193372575691</Weight>
                <Weight>-1.0532792276772456</Weight>
                <Weight>1.0691347328344354</Weight>
                <Weight>-0.48546939155548746</Weight>
                <Weight>-0.78460248459469073</Weight>
            </Weights>
        </Neuron>
        <Neuron>
            <Bias>-0.79205755863271599</Bias>
            <Weights>
                <Weight>1.8745990825863021</Weight>
                <Weight>0.48593298160118598</Weight>
                <Weight>0.16387369834071094</Weight>
                <Weight>-0.92725723050836562</Weight>
                <Weight>-1.2844022372767241</Weight>
                <Weight>0.84702551207822918</Weight>
                <Weight>0.27057763405433771</Weight>
            </Weights>
        </Neuron>
        <Neuron>
            <Bias>-1.0226945442715096</Bias>
            <Weights>
                <Weight>0.67156283004534656</Weight>
                <Weight>1.505991232918038</Weight>
                <Weight>-1.5552853466823608</Weight>
                <Weight>1.4068320991389531</Weight>
                <Weight>0.1980281834115947</Weight>
                <Weight>-0.029500692980355715</Weight>
                <Weight>-0.18592476959741797</Weight>
            </Weights>
        </Neuron>
        <Neuron>
            <Bias>-0.014168728664980807</Bias>
            <Weights>
                <Weight>-2.0771238901871318</Weight>
                <Weight>1.4940668535413451</Weight>
                <Weight>-1.4358447652320987</Weight>
                <Weight>0.32187145418124807</Weight>
                <Weight>0.27389750156402848</Weight>
                <Weight>-1.4969445392277714</Weight>
                <Weight>0.53024109788228702</Weight>
            </Weights>
        </Neuron>
        <Neuron>
            <Bias>-0.39436775677711888</Bias>
            <Weights>
                <Weight>0.18965439434506462</Weight>
                <Weight>1.9170144148512474</Weight>
                <Weight>-0.7901719159903301</Weight>
                <Weight>-0.37248528657529051</Weight>
                <Weight>0.44429489736327871</Weight>
                <Weight>0.39428803641763449</Weight>
                <Weight>1.0735732373784077</Weight>
            </Weights>
        </Neuron>
        <Neuron>
            <Bias>0.19789822506607177</Bias>
            <Weights>
                <Weight>-0.41922376790396415</Weight>
                <Weight>-0.91524586001952424</Weight>
                <Weight>0.31840113360272665</Weight>
                <Weight>-0.28753976702952078</Weight>
                <Weight>0.68089721957676774</Weight>
                <Weight>-0.11381924118586639</Weight>
                <Weight>0.17085467931712053</Weight>
            </Weights>
        </Neuron>
        <Neuron>
            <Bias>1.2439960017081728</Bias>
            <Weights>
                <Weight>1.3859659919756284</Weight>
                <Weight>-0.46604674247050798</Weight>
                <Weight>-0.99916607513817823</Weight>
                <Weight>-0.84143362499734764</Weight>
                <Weight>0.15166795248757112</Weight>
                <Weight>-0.13560922322923205</Weight>
                <Weight>-0.28352055627181805</Weight>
            </Weights>
        </Neuron>
        <Neuron>
            <Bias>-0.2256400990748525</Bias>
            <Weights>
                <Weight>1.0639418470205269</Weight>
                <Weight>-2.0282515387923543</Weight>
                <Weight>-1.1388797698076678</Weight>
                <Weight>0.72492318681175616</Weight>
                <Weight>-1.9644238099737836</Weight>
                <Weight>-0.35552327594294475</Weight>
                <Weight>-0.8871543947520657</Weight>
            </Weights>
        </Neuron>
        <Neuron>
            <Bias>2.16192813864168</Bias>
            <Weights>
                <Weight>-0.5963706302171341</Weight>
                <Weight>-0.29330080961671939</Weight>
                <Weight>0.28296561603417741</Weight>
                <Weight>0.65480644432154989</Weight>
                <Weight>-0.9490924878707454</Weight>
                <Weight>1.8979323281860787</Weight>
                <Weight>-0.59316343623056933</Weight>
            </Weights>
        </Neuron>
        <Neuron>
            <Bias>-0.29712953944700204</Bias>
            <Weights>
                <Weight>-0.68807702955929395</Weight>
                <Weight>0.016122340221741846</Weight>
                <Weight>-1.0172762480035316</Weight>
                <Weight>0.85851053450298775</Weight>
                <Weight>-0.065869089792326502</Weight>
                <Weight>-1.3190334288998444</Weight>
                <Weight>0.23896559786844501</Weight>
            </Weights>
        </Neuron>
        <Neuron>
            <Bias>-0.22931483022667329</Bias>
            <Weights>
                <Weight>-0.69047518138555941</Weight>
                <Weight>0.91916344328106325</Weight>
                <Weight>0.64018725071249982</Weight>
                <Weight>0.44310945241775229</Weight>
                <Weight>0.0077105065568879617</Weight>
                <Weight>-2.4417940849815136</Weight>
                <Weight>0.83534672839374946</Weight>
            </Weights>
        </Neuron>
        <Neuron>
            <Bias>0.20235505222337821</Bias>
            <Weights>
                <Weight>-0.6251197899549632</Weight>
                <Weight>-0.50995173551995854</Weight>
                <Weight>2.6102371937024524</Weight>
                <Weight>0.097092249209939585</Weight>
                <Weight>1.1847468506510548</Weight>
                <Weight>0.98196232529116068</Weight>
                <Weight>-0.70855486176273208</Weight>
            </Weights>
        </Neuron>
        <Neuron>
            <Bias>1.0538416359262155</Bias>
            <Weights>
                <Weight>-0.4517149704883463</Weight>
                <Weight>0.39312547915683105</Weight>
                <Weight>-0.95384686357901094</Weight>
                <Weight>-1.1640595300098266</Weight>
                <Weight>0.45301205745317408</Weight>
                <Weight>-0.45544576157312849</Weight>
                <Weight>-0.5022676411610838</Weight>
            </Weights>
        </Neuron>
        <Neuron>
            <Bias>0.45918016525685051</Bias>
            <Weights>
                <Weight>0.12363897372988678</Weight>
                <Weight>-1.202632017566883</Weight>
                <Weight>0.52243895460915546</Weight>
                <Weight>-0.90110938261405482</Weight>
                <Weight>-0.54353547728517049</Weight>
                <Weight>0.90263352013561859</Weight>
                <Weight>0.36735553075400085</Weight>
            </Weights>
        </Neuron>
        <Neuron>
            <Bias>-0.84131099358236405</Bias>
            <Weights>
                <Weight>0.52470582546799305</Weight>
                <Weight>-0.54575902573169077</Weight>
                <Weight>-0.65632633214006819</Weight>
                <Weight>0.011690340307820195</Weight>
                <Weight>1.1519036595192782</Weight>
                <Weight>-0.0094083545265793208</Weight>
                <Weight>-0.069271963862462801</Weight>
            </Weights>
        </Neuron>
        <Neuron>
            <Bias>0.88706703230982697</Bias>
            <Weights>
                <Weight>-0.62932558248233306</Weight>
                <Weight>0.72056537818450084</Weight>
                <Weight>0.84663513725009043</Weight>
                <Weight>-1.0591913922433638</Weight>
                <Weight>1.5205461984190329</Weight>
                <Weight>0.83372066541302936</Weight>
                <Weight>-1.7620564547176671</Weight>
            </Weights>
        </Neuron>
        <Neuron>
            <Bias>-1.1300044974034369</Bias>
            <Weights>
                <Weight>0.79729835031329044</Weight>
                <Weight>-1.1899060696485986</Weight>
                <Weight>0.72747625003350147</Weight>
                <Weight>2.088619985458557</Weight>
                <Weight>-0.096477208986425478</Weight>
                <Weight>-0.67927368847941361</Weight>
                <Weight>-1.1124356517551854</Weight>
            </Weights>
        </Neuron>
        <Neuron>
            <Bias>-1.1373829825986934</Bias>
            <Weights>
                <Weight>2.0707515708506028</Weight>
                <Weight>-2.0963846619621171</Weight>
                <Weight>-0.64179827397201361</Weight>
                <Weight>0.41777517414645932</Weight>
                <Weight>-1.1530668662128161</Weight>
                <Weight>0.30152235930813154</Weight>
                <Weight>-0.12432312857169246</Weight>
            </Weights>
        </Neuron>
        <Neuron>
            <Bias>2.3495951546625213</Bias>
            <Weights>
                <Weight>0.25510710446460699</Weight>
                <Weight>-0.35291392570748065</Weight>
                <Weight>-0.88024754393091098</Weight>
                <Weight>-0.33159360676438543</Weight>
                <Weight>-1.1927437113421895</Weight>
                <Weight>-0.38078631632915905</Weight>
                <Weight>-0.53566473746769461</Weight>
            </Weights>
        </Neuron>
        <Neuron>
            <Bias>-1.7151152170428765</Bias>
            <Weights>
                <Weight>0.072551142647854325</Weight>
                <Weight>-0.29762839832689458</Weight>
                <Weight>1.7687023297082067</Weight>
                <Weight>-0.58235380842031192</Weight>
                <Weight>-1.0074599994991433</Weight>
                <Weight>-0.96533702838109869</Weight>
                <Weight>-0.36180511452147479</Weight>
            </Weights>
        </Neuron>
        <Neuron>
            <Bias>-2.5418810279848141</Bias>
            <Weights>
                <Weight>1.5243848804436013</Weight>
                <Weight>-2.7212520564239853</Weight>
                <Weight>-0.25217198427345772</Weight>
                <Weight>-0.32541754140660883</Weight>
                <Weight>0.2660003278465059</Weight>
                <Weight>0.87116060418571317</Weight>
                <Weight>0.38854507561100637</Weight>
            </Weights>
        </Neuron>
        <Neuron>
            <Bias>0.67128327746235927</Bias>
            <Weights>
                <Weight>-0.45266497938366218</Weight>
                <Weight>1.3107900164282358</Weight>
                <Weight>-2.1627169156241579</Weight>
                <Weight>-1.4407798101834446</Weight>
                <Weight>1.497922966221251</Weight>
                <Weight>-1.0007015485864419</Weight>
                <Weight>0.24497040135837739</Weight>
            </Weights>
        </Neuron>
        <Neuron>
            <Bias>0.17016530670373428</Bias>
            <Weights>
                <Weight>-0.56034184105871254</Weight>
                <Weight>0.49020013958590114</Weight>
                <Weight>1.8132824581349094</Weight>
                <Weight>-1.7396123428424604</Weight>
                <Weight>0.29511312636912662</Weight>
                <Weight>0.25537061548649342</Weight>
                <Weight>0.58039280469060783</Weight>
            </Weights>
        </Neuron>
        <Neuron>
            <Bias>-1.1714752889943305</Bias>
            <Weights>
                <Weight>-0.67863925383959611</Weight>
                <Weight>-0.20133700870207724</Weight>
                <Weight>-0.17774155851072004</Weight>
                <Weight>0.40667519697813542</Weight>
                <Weight>-0.45081359326729364</Weight>
                <Weight>0.84371902048041725</Weight>
                <Weight>-0.31130759531198171</Weight>
            </Weights>
        </Neuron>
        <Neuron>
            <Bias>-1.2089854581618689</Bias>
            <Weights>
                <Weight>-0.82359728421909162</Weight>
                <Weight>0.45811229903849732</Weight>
                <Weight>-0.75708341551113134</Weight>
                <Weight>0.59984227514277044</Weight>
                <Weight>-0.87172804989126473</Weight>
                <Weight>-0.26390606733269351</Weight>
                <Weight>-0.30780163486918211</Weight>
            </Weights>
        </Neuron>
        <Neuron>
            <Bias>0.29731643652917711</Bias>
            <Weights>
                <Weight>-0.17185604738773613</Weight>
                <Weight>-0.010123333845956529</Weight>
                <Weight>-1.6792559547980013</Weight>
                <Weight>-0.67405099804602642</Weight>
                <Weight>0.37593775945131047</Weight>
                <Weight>0.97495805308263328</Weight>
                <Weight>0.1424434284329455</Weight>
            </Weights>
        </Neuron>
        <Neuron>
            <Bias>-0.83633347663833291</Bias>
            <Weights>
                <Weight>-0.058530797017757284</Weight>
                <Weight>-0.87343992575451546</Weight>
                <Weight>0.88475372658331475</Weight>
                <Weight>1.2170895329511278</Weight>
                <Weight>-1.3226248723643077</Weight>
                <Weight>-1.3831067875408194</Weight>
                <Weight>0.52735478843805395</Weight>
            </Weights>
        </Neuron>
        <Neuron>
            <Bias>0.24297925860934524</Bias>
            <Weights>
                <Weight>1.1727849151112828</Weight>
                <Weight>1.8089808401442449</Weight>
                <Weight>-0.16585148534779093</Weight>
                <Weight>0.5541925479632327</Weight>
                <Weight>-0.7212711847430523</Weight>
                <Weight>0.85545566848968846</Weight>
                <Weight>-0.58637216171655304</Weight>
            </Weights>
        </Neuron>
        <Neuron>
            <Bias>-0.34907613993456765</Bias>
            <Weights>
                <Weight>-0.077652661786483057</Weight>
                <Weight>0.90275609288384895</Weight>
                <Weight>-0.70691690561342246</Weight>
                <Weight>-1.078585165356976</Weight>
                <Weight>-0.41917491021822145</Weight>
                <Weight>0.59273570755475269</Weight>
                <Weight>1.0697182858298684</Weight>
            </Weights>
        </Neuron>
    </Layer>
    <Layer type="output" transferFunction="1">
        <Neuron>
            <Bias>-0.073886589607696493</Bias>
            <Weights>
                <Weight>-1.1355047735048474</Weight>
                <Weight>0.84265030414637043</Weight>
                <Weight>-0.20569177874508038</Weight>
                <Weight>0.37232131409546831</Weight>
                <Weight>0.075095823243618548</Weight>
                <Weight>-0.47769948398502243</Weight>
                <Weight>0.55241598310448603</Weight>
                <Weight>0.11557317745860346</Weight>
                <Weight>0.57813787498507985</Weight>
                <Weight>0.72409950496790343</Weight>
                <Weight>-0.6752415419451393</Weight>
                <Weight>0.070521347688587199</Weight>
                <Weight>0.51133437879255428</Weight>
                <Weight>-0.77152574592967393</Weight>
                <Weight>-0.083903180915814488</Weight>
                <Weight>-1.5726747714296496</Weight>
                <Weight>-0.4783876808161856</Weight>
                <Weight>-1.3261812416814518</Weight>
                <Weight>1.7668684143331113</Weight>
                <Weight>-1.1881203418784634</Weight>
                <Weight>0.17879025185112535</Weight>
                <Weight>0.61540828497475264</Weight>
                <Weight>-0.30507087713258652</Weight>
                <Weight>-0.61962783303362845</Weight>
                <Weight>-1.3346298234189282</Weight>
                <Weight>-0.43864322984012866</Weight>
                <Weight>0.50803660852678312</Weight>
                <Weight>-0.58221902077300647</Weight>
                <Weight>-2.0611688759150431</Weight>
                <Weight>0.59317751620202597</Weight>
                <Weight>0.86247490034939467</Weight>
                <Weight>0.27725851688868725</Weight>
                <Weight>-0.85511031189499054</Weight>
                <Weight>-1.6081281405334888</Weight>
            </Weights>
        </Neuron>
        <Neuron>
            <Bias>0.87849080196743612</Bias>
            <Weights>
                <Weight>-1.2699338895532597</Weight>
                <Weight>1.0145562684788152</Weight>
                <Weight>0.3387235838003943</Weight>
                <Weight>0.54208414173800668</Weight>
                <Weight>0.38755542119956493</Weight>
                <Weight>-1.3181311690503728</Weight>
                <Weight>1.1152477911309038</Weight>
                <Weight>0.41572032369339634</Weight>
                <Weight>0.1241459140324109</Weight>
                <Weight>-0.17273703767305207</Weight>
                <Weight>-0.88933834002699075</Weight>
                <Weight>0.12319037340690937</Weight>
                <Weight>-1.4412938128082353</Weight>
                <Weight>2.1090225970348673</Weight>
                <Weight>1.5790141821934485</Weight>
                <Weight>3.3252374633934867</Weight>
                <Weight>0.066613044257127524</Weight>
                <Weight>0.4875960247635035</Weight>
                <Weight>-0.50080274470497643</Weight>
                <Weight>1.0594045472046445</Weight>
                <Weight>-0.37730239514979624</Weight>
                <Weight>2.4002896222084562</Weight>
                <Weight>0.87896149183281824</Weight>
                <Weight>1.2105763454947498</Weight>
                <Weight>1.2343175815154011</Weight>
                <Weight>0.10030514346024534</Weight>
                <Weight>0.8798058262587013</Weight>
                <Weight>0.54606668612980369</Weight>
                <Weight>-0.26777433141628415</Weight>
                <Weight>0.14222073542036581</Weight>
                <Weight>1.5952452309702583</Weight>
                <Weight>-0.37103356648959135</Weight>
                <Weight>1.8720425620154493</Weight>
                <Weight>-0.9614247741849542</Weight>
            </Weights>
        </Neuron>
    </Layer>
</NeuralNetwork>
