<NeuralNetwork>
    <Layer type="input" transferFunction="0" size="7"/>
    <Layer type="hidden" transferFunction="3">
        <Neuron>
            <Bias>1.6380178636133131</Bias>
            <Weights>
                <Weight>1.9038100922162513</Weight>
                <Weight>-0.2035961791725103</Weight>
                <Weight>-1.4009170756814795</Weight>
                <Weight>-0.12593515408195327</Weight>
                <Weight>-0.53867181537185904</Weight>
                <Weight>-1.6375272184432161</Weight>
                <Weight>1.4247186239104264</Weight>
            </Weights>
        </Neuron>
        <Neuron>
            <Bias>0.20238992416768128</Bias>
            <Weights>
                <Weight>0.093522202733531082</Weight>
                <Weight>1.0250116360258479</Weight>
                <Weight>-1.0088247076693277</Weight>
                <Weight>1.0894774471937569</Weight>
                <Weight>-1.8334574453906349</Weight>
                <Weight>-1.2880605876678166</Weight>
                <Weight>0.96077967027900246</Weight>
            </Weights>
        </Neuron>
        <Neuron>
            <Bias>0.98866425873717168</Bias>
            <Weights>
                <Weight>-1.3403682998466329</Weight>
                <Weight>0.76277842762647086</Weight>
                <Weight>-0.22461455151955478</Weight>
                <Weight>-0.9832184120676567</Weight>
                <Weight>-0.42553566788994013</Weight>
                <Weight>0.19898919764744177</Weight>
                <Weight>-0.86435198896419174</Weight>
            </Weights>
        </Neuron>
        <Neuron>
            <Bias>-0.029253439368768359</Bias>
            <Weights>
                <Weight>-0.12586430372208979</Weight>
                <Weight>1.0225841213743745</Weight>
                <Weight>0.59271073242049022</Weight>
                <Weight>-0.77616912109129532</Weight>
                <Weight>0.31606180092377578</Weight>
                <Weight>-0.74155141664219859</Weight>
                <Weight>-0.75050498191174753</Weight>
            </Weights>
        </Neuron>
        <Neuron>
            <Bias>1.4194191655471178</Bias>
            <Weights>
                <Weight>0.9441021297625648</Weight>
                <Weight>1.1989190077040814</Weight>
                <Weight>0.21754604854309056</Weight>
                <Weight>0.086045530083201996</Weight>
                <Weight>1.1106251382746417</Weight>
                <Weight>-0.33485741344566705</Weight>
                <Weight>-0.34239111750094303</Weight>
            </Weights>
        </Neuron>
        <Neuron>
            <Bias>1.2523330597219586</Bias>
            <Weights>
                <Weight>-0.37154055519958629</Weight>
                <Weight>1.7993522657753385</Weight>
                <Weight>-0.47844732790734423</Weight>
                <Weight>-0.064653142615453005</Weight>
                <Weight>-0.060888370527608454</Weight>
                <Weight>-0.097603776546242901</Weight>
                <Weight>-0.43514938354665689</Weight>
            </Weights>
        </Neuron>
        <Neuron>
            <Bias>0.033561901650004847</Bias>
            <Weights>
                <Weight>0.44282252438242531</Weight>
                <Weight>1.9127399450221136</Weight>
                <Weight>-0.60385164967357896</Weight>
                <Weight>-0.94422058460186309</Weight>
                <Weight>-0.24770238565105238</Weight>
                <Weight>0.87551700958206158</Weight>
                <Weight>0.54969385146609817</Weight>
            </Weights>
        </Neuron>
        <Neuron>
            <Bias>1.7949645179999321</Bias>
            <Weights>
                <Weight>-0.72235456370579487</Weight>
                <Weight>0.78165003785799259</Weight>
                <Weight>0.89297270584851862</Weight>
                <Weight>0.7979221855780827</Weight>
                <Weight>1.1889757754705188</Weight>
                <Weight>0.30246183050587394</Weight>
                <Weight>0.40406539490591237</Weight>
            </Weights>
        </Neuron>
        <Neuron>
            <Bias>-0.2442035668900493</Bias>
            <Weights>
                <Weight>0.10791475339067515</Weight>
                <Weight>1.3538967919615521</Weight>
                <Weight>-0.4597277348173992</Weight>
                <Weight>0.53052813224181861</Weight>
                <Weight>1.8833285874806134</Weight>
                <Weight>-1.2195410895863008</Weight>
                <Weight>-0.63120397817451512</Weight>
            </Weights>
        </Neuron>
        <Neuron>
            <Bias>0.056018400954252867</Bias>
            <Weights>
                <Weight>0.39244026669860349</Weight>
                <Weight>0.57838285881364637</Weight>
                <Weight>1.7060574249303171</Weight>
                <Weight>-0.60361425210185193</Weight>
                <Weight>0.019635251310331218</Weight>
                <Weight>-1.0783748711592975</Weight>
                <Weight>-0.99016385831378806</Weight>
            </Weights>
        </Neuron>
    </Layer>
    <Layer type="output" transferFunction="1">
        <Neuron>
            <Bias>0.4534029102117148</Bias>
            <Weights>
                <Weight>0.32793437385118424</Weight>
                <Weight>-0.20682386202370123</Weight>
                <Weight>1.2604724891561718</Weight>
                <Weight>0.040760423058216408</Weight>
                <Weight>0.6115164563929798</Weight>
                <Weight>1.3947792218675439</Weight>
                <Weight>1.1049442556000511</Weight>
                <Weight>0.52039461031793588</Weight>
                <Weight>-0.20425220214166895</Weight>
                <Weight>0.14270026079552151</Weight>
            </Weights>
        </Neuron>
    </Layer>
</NeuralNetwork>
