<NeuralNetwork>
    <Layer type="input" transferFunction="0" size="7"/>
    <Layer type="hidden" transferFunction="3">
        <Neuron>
            <Bias>2.1460262944074762</Bias>
            <Weights>
                <Weight>0.46188615162498381</Weight>
                <Weight>-2.0156440041930641</Weight>
                <Weight>1.3666548162062067</Weight>
                <Weight>-1.1452584871632314</Weight>
                <Weight>-1.0077174711171091</Weight>
                <Weight>0.7209820290506207</Weight>
                <Weight>-0.40160540953715718</Weight>
            </Weights>
        </Neuron>
        <Neuron>
            <Bias>-0.36971154059496431</Bias>
            <Weights>
                <Weight>-1.0458389660618279</Weight>
                <Weight>1.4078480649062957</Weight>
                <Weight>0.31929317252707679</Weight>
                <Weight>-0.54227888554750514</Weight>
                <Weight>0.44613479586191768</Weight>
                <Weight>-0.029691555651299613</Weight>
                <Weight>0.59028621672966008</Weight>
            </Weights>
        </Neuron>
    </Layer>
    <Layer type="hidden" transferFunction="4">
        <Neuron>
            <Bias>1.2323875837341167</Bias>
            <Weights>
                <Weight>1.197218666175017</Weight>
                <Weight>1.3735823083134893</Weight>
            </Weights>
        </Neuron>
        <Neuron>
            <Bias>0.87932060397775502</Bias>
            <Weights>
                <Weight>-0.87830592309331557</Weight>
                <Weight>-0.48412124808601509</Weight>
            </Weights>
        </Neuron>
        <Neuron>
            <Bias>0.19531297416506499</Bias>
            <Weights>
                <Weight>-1.0681292894028032</Weight>
                <Weight>-1.0842716775421495</Weight>
            </Weights>
        </Neuron>
        <Neuron>
            <Bias>0.95841112875023704</Bias>
            <Weights>
                <Weight>1.7305038663809547</Weight>
                <Weight>-0.63306356590776602</Weight>
            </Weights>
        </Neuron>
        <Neuron>
            <Bias>-0.84204892780023188</Bias>
            <Weights>
                <Weight>0.0077396690240665519</Weight>
                <Weight>-1.955576159772018</Weight>
            </Weights>
        </Neuron>
        <Neuron>
            <Bias>-0.41177996217201029</Bias>
            <Weights>
                <Weight>0.22192670626588781</Weight>
                <Weight>-0.92213589629780912</Weight>
            </Weights>
        </Neuron>
        <Neuron>
            <Bias>-0.60634294662239752</Bias>
            <Weights>
                <Weight>0.54986405798513871</Weight>
                <Weight>0.74661983586938729</Weight>
            </Weights>
        </Neuron>
        <Neuron>
            <Bias>-0.42011024389787954</Bias>
            <Weights>
                <Weight>-1.0795868998714986</Weight>
                <Weight>-0.060940090413861468</Weight>
            </Weights>
        </Neuron>
        <Neuron>
            <Bias>1.2651540171842857</Bias>
            <Weights>
                <Weight>0.67940351471289084</Weight>
                <Weight>-0.26869330687513898</Weight>
            </Weights>
        </Neuron>
        <Neuron>
            <Bias>-1.2345448742113865</Bias>
            <Weights>
                <Weight>0.56488784506494727</Weight>
                <Weight>-0.027763897242431172</Weight>
            </Weights>
        </Neuron>
        <Neuron>
            <Bias>0.22390177099373465</Bias>
            <Weights>
                <Weight>-0.57630539886943288</Weight>
                <Weight>0.031473582575386676</Weight>
            </Weights>
        </Neuron>
        <Neuron>
            <Bias>-0.39537942708334606</Bias>
            <Weights>
                <Weight>-2.1664352374296976</Weight>
                <Weight>2.4000012882369495</Weight>
            </Weights>
        </Neuron>
        <Neuron>
            <Bias>0.23519122187771943</Bias>
            <Weights>
                <Weight>1.1513818484389002</Weight>
                <Weight>-0.1956211511805625</Weight>
            </Weights>
        </Neuron>
    </Layer>
    <Layer type="output" transferFunction="1">
        <Neuron>
            <Bias>-0.25246564313423547</Bias>
            <Weights>
                <Weight>1.6452704016709616</Weight>
                <Weight>0.35405412041233542</Weight>
                <Weight>-0.34009620442126559</Weight>
                <Weight>1.8319566302463046</Weight>
                <Weight>0.3027724672681481</Weight>
                <Weight>1.2573197579840742</Weight>
                <Weight>-0.68540945079745597</Weight>
                <Weight>-0.67782210267779941</Weight>
                <Weight>0.28115991909230703</Weight>
                <Weight>-1.246582691313656</Weight>
                <Weight>0.74381190094874361</Weight>
                <Weight>-0.94933899997847404</Weight>
                <Weight>-0.13019866905723218</Weight>
            </Weights>
        </Neuron>
        <Neuron>
            <Bias>1.9106692946616353</Bias>
            <Weights>
                <Weight>1.3628162823025396</Weight>
                <Weight>-0.012595385772698859</Weight>
                <Weight>-1.0631982958161241</Weight>
                <Weight>-1.151220150842482</Weight>
                <Weight>-0.84776638287384476</Weight>
                <Weight>0.36672786552668929</Weight>
                <Weight>1.0524200966773534</Weight>
                <Weight>-0.98617121468437796</Weight>
                <Weight>1.3160371964152235</Weight>
                <Weight>-1.4624336442616581</Weight>
                <Weight>-1.0302109228291503</Weight>
                <Weight>-1.0126160668542017</Weight>
                <Weight>-0.10198224839112831</Weight>
            </Weights>
        </Neuron>
    </Layer>
</NeuralNetwork>
